30 100
你 0.0035377705708605767 0.004474184039008593 0.003224348733448601 0.002605119070161009 -0.001818742073048258 0.0032761990833740234 0.005134801260852957 0.0019277143359950066 -0.002065253864213896 -0.0024248938118556023 0.002247390420976758 -0.003073548384545565 0.003517476717797184 0.0018859919927371978 0.002476438779811168 0.0017855745654675962 0.0007789659353169633 -0.0019186835505690574 -0.0032527750381861685 -0.002852836679872441 0.002763712698798752 -0.002199789800841546 0.0044909604120426175 0.004031534478231788 0.003919606906509042 0.0042874483809077265 0.0037348203463986396 0.004543932103824378 0.0014302621633876418 0.004081600282150173 -0.0010355535600750922 -0.0037233746068899634 0.002805114262694597 0.0045330660162418365 0.004856329079971314 -0.002425282455146313 -0.0009314927296809673 0.0034609121496657373 -0.00012422691441054323 0.002182914249750972 0.00022320457567157753 0.0007419520949672794 0.0005291812143168068 0.002638150245990777 0.004952744681593894 0.003129863459099722 -0.0002714235280702114 0.0010248777451318265 -0.0031856927869884965 0.004510099390891313 -0.003919525258134127 0.003434387990058565 0.004230791156605005 -0.0010172903645160674 0.003915900689862847 0.004697257423284483 -0.0022035498478977203 0.00045484769695606234 0.0005702632469909954 0.0027425609713133334 0.005062171941247988 0.004054008756398011 0.004853428040604949 -0.0032331116242608543 0.005841800262915373 0.00451629353881383 -0.0038939435348317626 -4.7887863491878515e-05 -0.00269149213697443 0.0012993727852478696 0.0034724686207258703 0.0017795848511356592 0.0016690414931194307 0.0012849916640725136 -0.0007340255895123479 -0.0012518115083501814 0.0035045828685980798 -0.0012177245898100375 0.003975870948406219 -0.002762375653754282 -0.00043409838041296 0.005268799353682756 0.003591192162589598 -0.0028442406861573215 0.004641041429783964 -0.002711818200292635 0.004061017593489647 -0.001168793346713352 0.0002592155437569619 -0.0021644882389648436 -0.0013039954089394568 -0.003023421394630861 0.002918468837678814 0.0030266878853617667 0.004940466695812702 0.005358452637470389 -0.0032213511035766606 0.0002588178019072532 0.0019865558727326393 1.2234421549511083e-05
拥有 -0.001933890471953368 -0.0035930258899344683 -0.0011656218387292982 -0.0007919227426184415 0.00037425991541807657 0.002828228441552091 -0.0016010652421420337 0.0018555850697805883 -0.0005505712637675999 -0.003959704031834841 -0.004364331274852229 0.00043394819144589915 -0.0011081364287964105 -0.0027740040584651945 -0.0015330966144420505 0.005797423954145407 -0.000583101497882414 0.0025219904041105987 0.003012698562118411 0.0025590450321498156 0.003844191155056238 0.004275396552681172 -0.0029387313457589145 0.002584908278788078 -0.001828121857193625 0.0008485395954015017 0.000212155694707656 0.003563835231407404 0.0033442872723484993 0.00225980786888845 0.002154131128198719 0.004727981922852588 -0.002125755045334339 -0.0025930832904059167 0.0011772742976522781 0.002763971854284954 -5.959532293105035e-06 0.004079193895891309 -0.0017017330659471752 0.0005257758583120847 0.0011300919075851298 -0.0035545946799357174 0.002443737278602457 -0.0020621847105121013 -0.0008412020008041858 0.0014756013218743373 0.0027860391876556156 0.0026106896564243556 0.0009972698522298098 0.0022269918806817057 0.005766555822870135 0.0013254624782351493 0.003286537236278892 0.002666324720083833 0.004710910188621319 0.003103108243136835 -0.0015805768121566772 0.00493276897771287 0.0014233565065445066 0.0031735641731894257 -0.001608847221156025 0.005551497352787543 -0.0015662577000240684 0.0023181552562442425 -0.0033910790556002856 -0.0008177623973671913 -0.002404938498470986 -0.003042034044740629 -0.0005784235785848856 0.002822980423934579 -0.00392099509406507 0.0042694979781180385 0.001416225153303249 0.004537953334348917 0.005274985255636621 -0.0032577229814883704 -0.003819675639925766 0.0021161411062389376 -0.0027499022033144237 -0.0025804690899267914 0.004889161708427715 5.257530111736305e-05 0.0019522142595036983 0.0017675024429856779 0.0019299712718830108 0.0008456993634367252 -0.0035150404992471216 -0.004234302492460906 0.004099017845865679 -0.0033835359805330033 -0.00012756340224308956 -0.0018432115440439462 -0.00027625711713623986 0.0024138893926398276 0.002417841588555789 -0.0008089900465013981 0.0026476168863765956 0.0008625540880849839 -0.0007656013745124101 0.005655742282210636
哪些 -2.8990598836326452e-05 0.001154207624796381 0.00024167056951833726 -0.0020679471716757536 0.006141861997625828 -0.0031348052093542337 -0.0031683631451581715 -0.0004902520935657262 0.005771898877233696 0.0024660017464070557 0.00306639391521734 0.0013436472542661618 0.0007678906897767592 -4.4950123305845225e-05 0.0008606423670150185 0.0056523475146310325 -0.0019301683446811674 0.004484012478162528 0.0018600359418620587 -4.8201762041249325e-05 -0.0016573259449014664 0.0025318257712665915 0.0036339496461275577 0.002185310299649334 0.002434350712298119 -0.0021673315599264505 0.004064965529902983 0.003916521465908981 0.004268988030816316 -0.0018525606847928763 -0.00019831188694541453 0.004713341582043815 -0.004093860911342501 -0.0024061081833753107 0.0017896822208464957 -6.834775035982144e-05 0.002218677997138548 0.005807713704345394 0.003571251533323097 0.0014233637556155493 -0.000594182005438423 2.186068334605689e-05 0.004019437670842123 0.004979412140977978 -0.00282569515631299 0.004841224330539512 -2.3183165551948423e-05 0.0013804877597554542 -0.00012247621222798816 -0.003974559759200692 -0.0033086240792047977 0.0019110854350531817 -0.002001644541977835 0.00038666203848227517 -0.0035392839232423305 -0.002418598410013604 -0.003182810248775482 -0.00060593045986197 0.004758213994327664 -0.0021715216648803236 0.0058498268772850985 0.004620186504840231 0.00450800811597668 -0.003666289749614596 -0.003124511976110411 -0.0036848117426092624 0.0035365548760610222 0.004111339991233039 0.001565638042105899 -0.0029120621180438993 -0.0016672137852366449 -0.0042423337146567704 -0.001872756993513107 0.0016387817450493468 -0.0022613204603429797 0.0036930490426069496 -0.0013103117670075653 0.003963951718948627 0.0003065100821387387 0.0005507604751824617 0.004299040037641573 0.0008808041458899469 0.001969406221397972 -0.0019589655794862272 0.0036244545207566974 0.004666810307594586 0.000629074514078045 -7.630148419805521e-05 -0.0020820727927983998 0.0009748510079963875 -0.0016298976922089815 -0.0005275749610578537 -0.0004200405796545028 0.005213311714141965 0.00480606020143466 -0.0023480289104557753 0.0020003586983565573 0.006244276372452259 0.0018537672352234365 -0.0005127076611616613
藏品 0.006217827399025297 0.005615922571359158 0.0019683708719012024 0.004932461297837139 0.0006896819964950659 0.0041998691625867845 -0.002459783181451249 0.0003597196276255131 0.003800359898530674 -0.003908825204951882 0.005617905754037964 -0.003543732978591561 -0.0010882475672701598 -5.703964583932402e-05 0.004110060384764779 0.005986328051086974 0.005639038181330347 -0.0012742446395451307 -0.00014581380282166002 0.0022600540570509435 -0.0007677189080288888 0.0026153318920644044 0.0039456631303319695 0.004531678327577174 0.004678631588437616 0.005605357758180952 -0.0033424172567549587 0.004374817486264754 0.004631919292746567 0.0012344140567515564 0.00017953508254001148 0.0008067224135656167 0.0010948378125858927 0.0028926582699379923 -6.19338227699042e-05 0.001619683015162716 -0.0036171296467583177 0.003716984562381744 0.003734321992520642 0.005494019413646162 0.0045828823584102155 0.0014191963210778286 -0.002459991818002808 -0.003410817243421018 0.002506893040218258 4.312392449240684e-05 0.004229784707543946 0.0045832075029989955 0.0018919920811877012 0.003434318526638675 0.0042010175772600414 0.0001531129200177527 -0.0019508764358609674 -0.0012059182813459635 -0.0015447186423226595 0.0012187286323722267 0.0026515415830356834 0.0033158300064507723 -0.0032775290630424024 0.004179768703025079 0.0034465168154268026 -0.002579533037311685 0.002787010415576935 0.005482359550569415 -0.0021106010690586565 -0.0018924166700231076 0.005519810377427376 0.0010133644564598943 0.0023830435534102916 0.004578892212238049 -0.0007672898123395919 0.002775789319119334 -0.002229376318672264 -0.001312749436014271 0.0002784280572032977 -0.002811287069430136 0.0038761742404756546 -0.0030223749096983665 0.005434705421203852 0.001468218582526932 0.005393182922998667 0.005519396079250169 0.0019855377502712725 0.0022248727918456317 0.0017430961596377993 0.002600948921319497 -0.002872787218866849 -0.0002327483161661529 0.005428305940209937 0.004102149932417822 0.0005954823899490595 0.0004967130682454301 -0.001549052000794935 0.0014633350109295655 0.0030746187521506546 0.004525987476855683 0.004873522748222256 -0.0023911978774980307 -0.0029606498418234825 -0.0017803864870462893
为什么 0.003410675940226809 -0.0011323753689893086 -0.004058435733427438 -0.0019160545807925544 0.0019364866090142091 0.0032713878533691884 0.0031576242940529985 -0.00027097348054513925 0.0028304451385237537 0.0009196332348116709 0.0013025306518989008 0.0029295595905046937 -0.002283633060702054 -0.0029566941441875614 0.0017130386489384573 0.00040001643648004547 -0.0019548163754390716 0.002655213009592215 -0.0028244317957712805 -0.003739246483056386 -0.0014356293870153428 -0.004023339687669356 -0.0036870982189492855 -0.0016936963572420278 0.0006450946942586089 0.0008366232535229381 0.0021353142319158478 -0.002168552750132688 0.00041024431407457986 -0.0008181057721403119 0.0030344372480285487 0.00489108508402427 0.0053716962722252844 0.002935480193156926 -0.001713031379687357 -0.0005250788659502505 0.0016472903795042198 0.0003585283653210926 0.002668286076526213 0.003002952143544571 0.002993274863092343 0.005847398782593807 0.0029240595611570836 0.0013819945622798998 -0.0019157363664803028 -0.0006808876447842917 -0.0026167094415024917 0.005699724755888525 -0.0033330582414904594 -0.003208262783960104 -0.0029466700277739045 -0.002207734723062817 -0.00020599902550964356 0.004117214963927142 -0.00043235602238214795 -0.0024685466363022325 -0.0037089218851482078 -0.00382169596331946 -0.0014733582257721424 0.004314433303707568 -0.0025223925572749775 -0.003007331815748167 -0.004192956307879568 0.00126085120370711 0.0020922219968948523 0.004168221456517919 -0.0036301842643318015 0.002182650660035976 -0.002894491216574987 0.0021646976352518244 0.0032416091912758193 0.0006210512017800608 0.004703893266373245 -0.0012385444833650588 0.00204308887669603 -0.0009488675110455355 -0.003000553186701997 0.003627130569035689 0.0021254834972686447 0.0004486615192441687 -0.0011612653147291502 0.0010238273413998064 0.0007218508640363089 0.004714142643367433 0.002592388390989431 -0.002997292977430463 -0.0022592365982227005 0.003738760340342959 0.006431349638440958 0.0028913488645286242 -0.0035018722720520498 -0.003231435666679811 0.004862917570383946 0.0035604620360643064 0.0056908379596888065 0.0012931178631449807 -0.0011970105411155223 0.002600680551538134 -0.0036065631780544914 0.0005036435712875052
接吻 0.006253787098784161 0.003573676619524265 -0.001054450057718718 0.0010191925793845368 0.005312075684095502 0.0010879205108297778 -0.0015543029875109908 -0.0024462198227139472 -0.003164564886147499 0.005530748114801049 -0.0019826717949922683 0.0009646603378747607 0.00251311475260334 0.0026755723174902916 0.004892934768135787 0.0004795144388743879 -0.0016187348243613718 -0.0016291482801212788 -0.003375019786649537 -0.0026181556751176715 0.0008656566870725633 -0.0034660396350808384 -0.0023371957315348386 -0.00228616914352206 -0.0024144709360743406 -0.0006172057055408 -0.002719955762907803 0.0006026740090486527 0.003923727795337558 -0.00033139440375263684 0.006060011165703798 0.0017997427348551798 -0.0038956861980533122 -0.003448951264768744 -0.0005656523898821355 -0.0036336648227894303 0.001244956722885523 -0.0010614380606009958 0.0008739056525963354 0.0006889181679242163 0.0023792682912768363 0.005573814634882689 -0.0015399145633337259 0.003425766227458227 -0.0035694721577216385 0.004107467395739675 0.002833077138724804 0.0036906953326421264 -0.0027704626311391353 0.004804542395514941 0.00287186385608995 -0.0021885286404348613 0.005433277231555843 0.0012675144243869294 0.004964208400833905 0.005060970000153709 0.0031767597683018687 0.005548558746312022 0.003641285705588472 -0.003690268863649368 0.004873290842168045 0.0005312080503175068 0.0033563827140646097 -0.0034040698301619886 0.005169682999697041 0.005705823228143096 0.005300155531859576 0.004722693025451184 0.0009289598553635474 -0.0001738253860973358 0.005761570331140637 0.004921392046911776 -0.0018626863571502685 0.005992836899388409 0.002243560771015573 0.006014839645834566 -0.0001024907664915085 -0.0008338865716920611 0.0036175432594576125 0.0029782986265625474 0.0025992319551377536 -0.001683218134500146 0.0041617368512759205 0.0004511362447456504 -0.0034102025195297007 0.0008444685965253973 0.00040924986033959404 -0.0008939998309452294 0.004688185920825028 -0.003591963613723159 0.006254729625236392 -0.0035553858148386006 0.005519654311743379 0.0007054937981141377 0.002050437394723463 -0.0024965920566179037 0.000800039347061062 0.00028135155561604514 -0.003782262656388116 0.0040584439590164185
的 0.003734590160906935 -0.004043116924209738 0.0035219652626687767 0.0027696412528002263 0.00134253306431736 0.0014156246580629636 0.0003481292086437227 0.0043915861540198805 0.005620375741338301 0.0052640824794640065 0.005130720684032225 0.0006937869917927743 -0.0026958127722892765 0.0016327671747171594 0.004545882212536073 0.0007863561714004517 0.005531641277891255 -0.0006290873353889464 -0.0027859783875358105 -0.0021403175804816004 0.001845087668814354 0.0009381388765222025 0.00551810239282689 0.005080398502077461 0.001812563483682847 0.0009967922724699544 0.003030074541768694 -0.0017407246990225793 -0.0038112938222706794 0.0016010538697324276 -0.002807857070908689 0.001233529299545578 0.005238124261675119 0.00033504664672597895 0.004975712966730737 -0.0034888854437606816 -0.0007310497537106513 0.0008511067354806042 -0.0030830126114938265 -0.003969927362377023 -0.0032609947912503245 0.0022724952992833614 0.0036693644081546785 -0.004144146297779202 0.0017045890057229996 -0.0009483177195038794 0.005288654213009358 0.004513638875733185 0.005502492977625848 0.004099348002346706 0.0013570826488467694 -0.0020959771926229477 -0.003282817000729084 0.0029550647248491766 0.002343023774528384 0.002672937214504671 -0.0025437631291071413 0.0048313756999299046 -0.0006976160759783982 0.005119045120633316 -0.003271077681125593 -0.0025990889766589406 0.002729414394406843 0.0014380952795547725 -0.002383874637310934 0.00341143092051816 0.0038181309304255247 -0.0015058412046256063 0.0006559172626623822 -0.0036072503411958214 -0.0012428404984898569 0.0043176538179221634 0.004779069695816159 0.004922498696359635 0.002428962196893883 1.6763590871477115e-05 -0.0005439118008725165 0.0039924287206110475 0.0010028309208899879 -0.000568821053754282 0.004618281334597969 -1.0511650870399401e-05 0.00018870037911491392 0.005146153007740641 -0.0004886266701166152 -0.0013717085947066545 0.00571928722638154 0.002945069625915098 0.003201412547978783 0.0033562899776747226 0.0059798881925771236 0.003562501147339106 -0.0012259933903315543 0.0024270465040380955 0.004071638002921581 -0.00257672567024765 0.0057853144020304685 0.0033280250473185064 -0.0003329886736135005 0.002234981113860035
时候 0.0016227367801890957 0.005577424801169408 -0.0020004932625898005 0.0013767641328696011 0.004020076258096623 0.0014215667286175777 -0.0010076386399402143 0.0009838019965414955 -0.0005912394128612757 0.0017943051157359362 -0.0016242788472183942 -0.003706721318395686 -0.0032018633845738173 -0.002733167298440695 -0.0026685854908375145 0.0012752296367360117 0.0005482756996260166 -0.0011906616409474613 0.0006858162600297452 0.0032701120530999185 -0.000253758510973072 0.004793165832198513 -0.0025740702170844554 0.00495119058670702 0.004109562521420551 -0.0034926123030978437 -0.0028034004138141272 -0.00015565985926074962 0.004629391422639346 0.0030608738146762375 -1.4544641709661335e-05 0.0009458465531267357 0.005806304366723895 0.0020051164176864626 -0.000306544599087095 -0.0004084213028588057 0.00036225155788794055 -0.0006370894159744025 -0.0013993292455216405 -0.0028412434769056797 -0.0009148001469917535 -0.0032699583233376742 -6.117788027993438e-05 -0.002311709509255743 0.004737087358604836 -0.001070387124869871 0.003044263551277947 0.004638564647963953 -0.002374980349561691 0.005869178741004467 0.0015905751517709017 7.237497999944774e-06 -0.0037740281465380187 -0.0008127141114650485 -6.231688410770868e-06 0.004873570263025165 0.001574728495465293 0.004280374757498813 0.0023204090874916435 0.0010400016364378022 0.0003148869164433146 0.003049128135458481 -0.0017406752975324988 0.004748767567483902 0.0025713309543344024 0.0012269896886164715 0.004272705335300863 2.2718451184811593e-05 0.004643527537047839 0.004781013263427806 -0.00046077867824833403 0.002062198103528905 0.005274444920689822 0.0013825702500810623 0.00491631488184917 -0.0007144824800648926 0.0049671082656030895 0.005642209629327416 -0.0016395753190317388 0.0003253771911846925 0.004766165438419914 -0.0006561349893215179 0.0010303685416391088 0.0015510794718923762 -0.00025297471786508573 0.0019721884430733442 -0.0008073236144124031 -0.004083001458589637 0.004460256622870302 -0.0013799973483389855 0.0010328467438488914 0.00037304726841719157 0.0023134267646823404 -0.00023360559239373195 0.0054935189999688865 0.001876103499958992 0.00541721054518497 -0.0005872395617510556 0.0037034998303798194 0.0052365661335695745
男生 0.0020620451819386627 0.004670447708773196 0.0014732136109390425 -0.003666440113286209 -0.00026945459357321263 0.00408578940749681 -0.0030822549355005975 -0.004029106447388769 -0.0020330587030196906 -0.00028303582500307546 0.001926064567369449 -0.0027837212728701833 -0.0008637622364784717 -0.002751374645764017 -0.0005048032614650487 -0.0016226387290035485 -0.0015721166128191948 0.0044557401832387685 -0.0006488729450687409 0.005068420368464041 0.004357227917037297 0.005428710499073863 -0.0023317520743276355 0.004203670403469217 0.0018817243644036771 0.0011373773458676552 0.0025969094266139864 0.0027244515388631582 0.001634394392300272 0.004019449554268885 -0.003172809263148355 -0.0025558054872279407 -0.0017105914633317467 0.002150569132320857 -0.0034276543623540405 0.003168902098740172 0.0036294053733774666 -0.0025888534079602957 -0.0018464382506253479 0.0010093976959581685 -0.002067281177677703 -0.0014961159338158845 -0.004068808968325377 0.004904815281543553 0.0030254622014547587 0.0050821853014399055 -0.003814016283344197 0.00533379180093038 0.005033192478340745 0.003362968893213701 -0.0024285346733776804 0.004512637457978797 -0.002464654679085231 -0.002713532044741988 0.0012858295550639129 -0.004081016693665981 0.0019942510259913443 -0.0030633125497158045 0.004916304305025864 -0.004024023998341274 0.00041119530008382806 -0.0038414834950074787 -0.0016422551224759222 -0.002540884322342467 0.0014569827803258659 0.004326306373548031 -0.001673624014932859 -0.001133590126464045 0.0012441611870207597 0.0008385044049688864 0.005381900698606062 0.0004679193919650006 0.0016566615669196486 -0.0009597518337742805 -0.0034728256280220746 0.0008595751831471205 -0.0015210800182396175 0.005520730151906157 -0.003629707035493612 0.00512037543143363 0.005071372753642321 0.004380875512618017 0.00457424776916759 -0.0019925538556976796 -0.0017530055878454207 0.004803555937288523 0.0036237894346812724 0.0022354031772782923 -0.0023538559679332494 -0.0020174926833439826 0.004563821999520945 -0.0028235363080343005 -3.193021110396374e-05 -0.00042060682850911615 -0.0005368127474475383 -0.002903029364824533 0.0009811273782014943 -0.0025237742110372544 -0.0007340662094454525 -0.001982027926638937
会摸 0.002259447707467518 0.0007908710740659057 -0.002710654189345872 -0.001469034092357254 -0.0019554122113379954 -0.0035337517593045232 0.0022243307388051035 0.0059094647349458695 0.0015157211945585013 -0.0018912196854315758 0.003208976840776241 -0.0008803428616199493 0.0029301188109654187 0.0030399410955904726 0.004486973013576699 0.00410687086620996 0.006129328888411761 -0.0011661156613392116 0.005182902828898597 0.004946870086387432 -0.0010971912455803872 -0.0003681846303620458 0.0015574108181108713 0.004828057269551396 0.0050780195263973715 -0.0005171125704871893 0.0022615187310810686 -0.0012991739003403186 -0.0033721601495364903 0.005067375092042565 -0.0021586584232722757 0.005965785813224673 -0.0040783230250568386 0.0018561227375959396 0.0038306442889837504 0.0018808901810833216 0.0009877036320843887 0.0025075362244537116 0.004858423325230718 0.001596510536719811 -0.0016011334297875166 -0.0023981675248880385 -0.0038136910558251025 0.0049893211865203735 0.0040306302746204135 0.00367263317001791 0.0038790552126413344 0.004691235481587768 -0.0004900623229473352 -0.0022923135623437165 0.004990230023563886 -0.0035656279734072207 -0.0003866245478620768 0.004099553427072144 -0.003730976229695499 0.0038580392264275076 0.004510421739790273 -0.0010028677214093686 -0.0015649112055877445 -0.0010581634964440347 -0.00245206455848341 0.005426520929500222 -0.0025803947548856737 -0.0037078933526772852 0.004489581535926676 0.005726073467805505 -0.0005531656330339431 0.0016638188507309079 0.0038569547992889884 0.0011303266976388847 -0.00038714064225983604 0.003650986074761343 -0.0016841761684216502 0.0008920492598873807 -0.0024249177195531605 -0.0028451562167111635 -0.003797360245746565 -0.003248037204345011 -0.0017791862461854933 0.004469600228318072 -0.0005244539552706957 0.001719259553329563 -0.002294760214343071 -0.0037032040443840033 -0.0017949446833994864 -0.0022756732815020562 -0.0032098807540684943 -0.0009124873508441328 -0.0028552364040612703 0.00345720776881032 0.0046225679853117 -0.0010596859244538783 0.00573348447457254 0.005614521520641684 0.0037215632127145532 0.0037358756647361997 -0.002269160840569806 0.0013034250584413052 -0.0014260101679767132 -0.0004845529269075393
女生 0.0053206170652894255 0.0006438806428240276 0.00554234019924103 0.001307410981115947 -0.0005024306801571367 -0.003707903822643423 0.005270003707199097 0.0016673915905963898 -0.0019819563503789906 0.00577565410970366 -0.0026317660356149674 -0.00025276815736434465 4.4153771224737185e-05 0.0022644294735003232 -0.00017645563792098996 -0.0025873782311419246 -0.0014696797169119358 0.00494604420040071 -0.0016562982636330126 -0.00034099244782439457 0.0038178968589797973 0.004823079786909891 -0.002087409950907111 -0.001440907308489597 -0.0006295892077361823 0.0009838911913360334 0.004424845522248387 0.0016818373968497994 0.004013023492852306 -0.003385710029169822 0.004586064948711038 -0.00126123224467628 -0.002725402717211914 -0.0028193078965799093 0.0057554412516648765 -0.001717576682164669 0.003162177127589679 0.0017856590015900564 0.004599838473624325 0.0012171318930746557 0.003881824906937027 0.0016844522676061108 -0.0006851340028946518 -0.0038256653867658496 -0.0037743906014556404 -0.0023470029226891993 -0.003442562289645076 -0.003439482720671177 0.005296414395191789 0.004233749276193475 0.004980843087291956 -0.0031590094590562582 0.0024395125295591834 -0.0012145155122856854 -0.001301265340482545 0.005310822034640455 0.0002102708917958308 -0.003087044052427364 0.0018102765798095823 0.005518405925646114 0.004029962877263951 0.002339331099448836 -0.0015203132465310095 0.0012116793803781819 -1.902577189710113e-05 -0.0028319313199311018 0.005408630675908733 -0.0035473625018040533 -0.0021977745685529708 0.005288911130059958 0.004026457253789139 -0.0033680190338090535 -0.0031960331411346908 0.0026219147247665883 0.0007160203992088557 0.005281562042040086 0.0016825644344719412 0.0016232492877529385 -5.406578877648353e-05 0.0010283621952143765 -0.0005691805196925161 -0.0026624339424444914 0.0009441344541202975 -0.002022642021968126 -0.0008116530912444114 0.00011656216824178461 0.0010773089198205712 -0.00047085761304298626 -0.0006707492925635814 0.0016157890168485402 -0.0029701000035015105 -0.00016370131577200407 -0.003887396137513161 0.004636382359405184 0.0014191286711738586 8.819840684788226e-05 0.000652446369732194 0.0019986050807583094 -0.0017310772734929322 0.0033244214853981498
胸部 0.004347876465847778 0.00220248512067914 -0.0006249978569466948 0.00016743873670005795 0.002272717782084012 0.0021253727981649637 0.005146603696699739 -0.003164243952344441 -0.0034797658001515866 -0.0016161075739825012 -0.001674103184488654 -0.0009929534771829127 0.0017224951122831584 0.005741112212441515 -0.0033286261648280617 0.002653331475641227 0.0005170351005186081 0.0010876589882849647 0.001712993105731845 0.00429101623415705 -0.0016070870227118967 0.0054338800363864185 0.0024761087047159435 -0.002701221017417443 -0.004002725159862888 -0.0032294959433271167 0.0017521913782711865 0.0053429978520169496 0.001895069129117918 0.0019662483769659995 0.0027314908997231008 0.00011618595875649454 -0.0025516561939331055 0.001574142029871583 0.004213546041051269 0.00010620052969768999 0.003464834394369865 0.0015437220053860189 0.005899267204081774 -0.004071754991645813 -0.0021061087311538694 -0.0037614495848999024 -0.002708133716353023 -0.0004870527156983375 0.0029188630091008423 0.0013819746168133116 0.0021883596257042167 0.00602522181631565 0.0019942305650367262 0.005242642609356165 0.004090366621114612 -0.003621986091525197 -0.0028423739082271337 0.004367391160702276 0.001806685916701448 -0.0002466775684962511 0.0027344328497735737 -0.0020401716387490037 -0.0003760442133607149 0.0004888308366911889 0.00022916544801630974 0.0025813597058279873 0.004900438115991509 0.002670042663873434 -0.0027775041871343376 0.0042345273231154685 -0.004155350461215556 0.0033035922968127013 0.0018096119612192392 0.006107200972334504 0.005096450275511265 0.005176777171370864 -0.00016553514109723087 -0.0005388200796551702 1.0203191703391087e-05 -0.001530745602622485 -0.0009667910005256414 -4.137693914484965e-05 0.004153008454417348 0.0019128046501607657 0.0033102765178441526 -0.0008774719969041586 0.002343892836493492 -0.0008467895877774475 0.004672973557680082 0.00497190635629909 0.000780688320421219 0.004113463143927336 0.0029660366918734552 0.002343442806666398 0.00036380698856046194 -0.0006334208014499901 -0.0015076563780681608 0.0008577302602795936 0.0005197842864893676 0.0007090763721411468 0.0029198685650373224 0.004654575385663175 -0.001149306684239745 0.0033236248857936384
汽车 0.0050119427193387744 0.005500668636916768 0.0010018707387025355 -0.0007643299973489045 0.0016962655047621728 0.0034005130761953833 -0.0037005747128098015 -0.002561893679610252 -0.0015147858096188306 0.002625914924678612 0.003400571764063561 -0.002637565867212248 0.005488156188995839 0.0002322436494706392 0.0045178077984579686 0.005160921461444617 0.00035848345473713894 -0.002276402271314001 0.0020307683731846334 0.0003850173710565138 0.005731513886053086 0.0018192097284674765 -0.00042489796915197377 0.0028561146426684383 -0.0007780524058241128 0.0025228924291807652 0.005016024037443328 -0.002397867905947447 0.0026724961222776415 0.001225652546924801 0.0031976981710401297 0.006071982893116355 0.00447477865458107 0.00047871899172504436 0.005664431273683072 0.005529035887908768 0.00011592991831160554 0.00025953901891782763 -0.00014045814020426269 0.00449959583489027 0.002570066530167222 -0.002167157914841294 0.0029369811502325776 -0.003602236836868429 -0.0021879907305975437 0.0019356247297103643 -0.001843438344020152 0.005525960832614661 -0.00362610400662086 -0.0015311863689851522 -0.00377193254780395 0.0009307718838213044 0.005225638902959656 0.0018273560102845432 0.0010766184184584546 0.00204348892510345 -0.0030597888808129546 0.004422995616207766 0.002189397381831646 0.0024881407586184743 -0.003701669395880556 -0.0026871475170087812 0.003146590686644447 0.000145169630800171 0.004670843667885876 -0.0004968014486838341 0.005318391760722303 -0.0006978182708452463 -0.002659410954597497 0.0048720237682565925 0.0006056158667885781 0.0014256164769462704 0.003801144003354442 -0.0018394104946639063 0.004249029032598948 0.002816770865062928 0.001770124932178116 -0.0008962067085371732 0.005617442314414382 0.00015756637195819866 0.003964468245181919 -0.0006416171294302223 -0.0017415935197513579 0.003880118813715792 -0.0024069886102190017 0.004091357181684554 0.0007200564390003206 0.0036027245663220646 -0.001969986638634801 0.004608941020076156 -0.003542913589137912 0.003174330385592866 -0.0015224857394949914 0.004475815597574353 -0.0032534060531963825 -0.0015560196595854282 0.0014855838829924346 -0.001844509412708187 -0.002971871799724436 0.006171066634447336
行业 -0.0012657316397741794 0.0024873073677867293 0.00444662486888932 0.0044404676079833035 -0.002880852302240968 -0.001966581734891987 0.004940674393816805 0.0027267779693205593 0.005572884886330724 0.004520711632354355 -0.0032073044088969348 0.004775074219526028 0.005342023700161481 0.0011245469597870828 -0.003986014073383629 0.0043256152770202155 0.004385790101889086 0.001138401407116356 0.002520568958245659 -0.0011109409201545833 -0.0015777745885170935 0.004505002349495852 0.0059481818387563945 -0.0022096722203870296 0.003157762281180704 -0.0023161693209958318 0.0026768090666169525 0.004237066464762617 0.0039652891567729 0.0014635023677090741 -0.0024563181647918224 0.005661600930507183 0.0040440192907324314 -0.002907772188104677 0.005315328113197446 0.0015529509382270815 0.005758571577066207 -0.002338533626657772 -0.00042244604829032415 0.00461555116521877 0.002443614161836672 -0.0010645360994983193 -0.0007214161816103099 -0.0037589742091668965 -0.00033434288853447435 0.004259844788929057 0.004515470635865212 0.0024574738015458583 0.005873437012673139 0.0043910584947577476 0.0028242010097438096 -0.0031573912975574733 0.0011338726595061207 0.004462529838889241 0.003213536877060187 -0.00299255931535213 -0.0019057518275207997 0.002280174280551314 0.005097763661989868 5.444711319239144e-05 0.0036742945346636773 -0.00018896649015328888 0.001816792799292755 -0.004197220304651701 -0.0020356098364057063 -0.0037537370405554774 0.002331520263533282 -6.451548596823214e-05 0.004788341497654032 -0.0007519992770637512 0.005661669218672085 0.003397791830200386 -0.003192761937073672 0.003973114819295693 0.0010247099662212802 0.0023881163890862945 0.0021229014798842907 0.0007350110025079013 -0.00030175735527620314 0.003046366271062255 0.005405059831537342 -0.00355305746342206 0.003155183999081516 0.001041522388950822 0.002672020680045152 -0.0038701250852965358 0.005379905799932241 0.005043421651361942 0.005884090823591519 -0.003580616486097836 0.004291566455482364 0.004256757338963294 0.0007595466911327238 -0.0007022864025039196 0.004216753725159764 0.0027008156948319434 0.003055610511419439 -0.001390525748908162 -0.0004927784864140986 -0.0031404348716991904
有 0.005150449724994516 0.0015948363930727721 -0.0008233460000249863 0.002270804006028938 -0.003065284237563181 0.0030881020088631634 0.00244494539187727 -0.0036288149209161282 0.005231976689524556 -0.0021429767771763324 -0.004212397776260876 -0.002853462425411463 0.004271387086815166 0.0044739960237214094 0.0011093184369118595 0.00445776822015357 0.003139630348859215 -0.0018282842455139637 0.004746560083125639 -0.00381999297408762 0.004210459862234879 0.0027069262519705296 -0.0027106861924879075 -0.0015872885029479741 0.0053061602209467885 0.005113177873581051 0.0003022704298183918 0.0009752994364053727 -0.0012994162185036655 -0.0022749069609831808 0.0002988751161764622 0.0015142617830547812 0.0001496410237682343 -0.0007609722766915796 -0.0006603279094109533 0.0013161003619547654 0.0034916752291971687 -0.0031928782677521704 0.0023273805314258577 -0.004190778438254237 -0.0035478741935007574 -0.0013341878274641989 -0.003910953948648524 0.0018300026318661213 0.004037002152466822 -0.0010123760435335639 -2.234538269906038e-05 0.002220751948543453 -0.0023185732087655543 -0.0031655131811554435 0.0018898520050778867 0.001159280534380579 0.0018832503937060833 0.0010013540245794774 0.0021934996149353507 0.003963614294694615 -0.0018584489856628894 0.0031475452346937656 0.005431777350756526 -0.00128986071806674 -0.00031977973350400923 -0.003960281834460473 0.0012693926260517931 0.0046805384774672035 -0.0031180740162699222 -0.0032513126859963896 -0.00188231957128551 0.005457651866587877 0.0015538678565681458 0.0012531764803157615 0.003359877436910629 0.0002781900556717301 0.002192676223069334 0.006346686902248001 0.00011939661385698317 0.002599811964149189 0.0007529824045312844 0.00526227136144948 0.005335260612354279 0.0032364807264927864 0.0045231273464763164 -0.002746927954841089 0.003518970345131588 0.0006814204171904756 -0.0009863581073720454 -0.003560087687534332 0.00024191045310382857 -0.0028131389391222 0.003532049654884434 0.003512049663879919 0.002423351286172438 -0.0019237820238447187 0.004665714363988591 -0.002037373927142763 -0.0015086438843497753 0.000553170577754593 -0.0032329932669155595 -0.0036165500656957627 0.005471486376415062 0.0060410416132772446
笑话 0.0024606040282877687 0.004497324567241013 0.0014129895005320764 -0.0037417648495010137 0.0010440793816811087 0.005144150804770422 -0.000661702748068571 0.002772114077476382 0.004907938213469649 0.0001688337099236489 -0.0037329122341068985 0.0005790927008397055 -0.0005870744760139942 0.003109418454320574 0.00024935896333517555 -0.0033925860809568163 -0.00018912836723876001 0.0023866408104474546 0.00310630520178082 0.0019488185055925845 0.004153540641166401 -0.003835795400862694 0.0054719319993625885 -0.003514997914401305 -0.0010566172800980924 0.0028087738082475545 -0.0001295632072149872 0.005638369324391627 -0.0009582015962866305 -0.0011562430891393898 -0.00259779907257111 -0.0014491393498667717 0.004061311194973207 0.00458550879683578 0.0005592956870865108 -0.0011910914419480324 -0.00381095976302135 -0.002577955845484328 -0.0009488479978852274 0.00229788006655972 0.003668472376853919 0.003968173609918118 0.0004259654603385091 -0.002277429209008288 0.005065669413872505 0.0019009640245769978 0.004251112126723695 -0.0003553242419681549 0.0018188086739096404 -0.003537308762648296 0.00048632011737506387 -0.0009038678574487685 -0.0013128714967357634 -0.0010178550022749188 -0.0020273149720208524 -0.0036459171382777454 -0.0005320926988251924 -0.0015438350684640885 0.00017183699979140052 0.0025190633352550743 -0.0013038720714405535 -0.00014093438465615513 -0.0007302098588747381 -0.002259641551222086 -0.00040965237201135156 0.00041958526844322684 0.0018249608134581687 -0.003284984554455328 -0.0013255859854314806 0.0017449194582020472 0.005797193711747217 0.0003931579916455913 0.0011969067843333007 0.0020330343434811497 -0.002492067452597475 0.004864274603297735 -0.0018993551981609583 0.0048012749474665405 -0.00150890300704546 -0.002328289237102079 -0.0019621461576227427 -0.002580255143711424 -0.0023795710794374944 0.004771376842263365 0.0030890994807537316 0.005747065459241212 0.0019033707723737146 0.00548915261066097 -0.0012138180616238592 0.0015796435024315548 0.0012099774111751795 0.005759825985083127 -0.002650816899301696 0.0018267827536912204 0.0006508237723005581 0.0004413804019526864 0.005126332668952369 -0.0011249745504099131 0.0012522270018058778 -0.00171965881992774
如何 -0.001086420335986018 0.0016549486828885676 0.0019015842798666956 0.005590943803706551 0.004415868766982174 -0.0029843872263681415 3.749768166766182e-05 -0.0031657582389706613 0.0031143300052567007 0.0025792724859510898 0.0036875793013401393 0.0018986294041544913 0.004521470502894187 0.0032243925616134645 0.0012630836958310008 0.000380598979287672 0.005192007282563495 0.004501090668652988 -0.0010416814397090674 0.004226067886383176 0.0034978798616553787 -0.002231936034623969 0.004783803184544182 0.001949517256829071 0.001766872384327984 0.0026550370548073647 0.0030746957491504315 0.002398803566511822 0.0022422170420454027 -0.0028448245736906763 -0.0015335967565428973 -0.0018775106514531134 -0.002628213734352708 0.0023661846644937277 0.006232888429532433 0.004663225998917866 0.0036427658845642565 0.002597005978177333 0.001969199928877163 0.005303149205270349 -0.002870018981855035 -0.0011999767295539617 -0.003349392398787081 0.0026370026798408987 0.0023233410897074225 0.003915736931685877 -0.0031121022478591207 0.0010073251077287483 0.004273717721926713 0.0029617136897512678 0.005644951070066571 -0.00021064780881621822 -0.0004719296482935427 0.005673135478566479 -0.00047095768353968865 0.0005271717016755104 0.0015131512684465505 0.0016536566908210136 -0.004335146268133473 -4.391794755551808e-05 0.0013521670405572035 -0.00285828479204421 0.000603476381250279 -0.001742225514398122 0.0019498134989702797 -0.0039241330474295375 0.00475822787899257 0.0011535250823654771 0.0009401837364455338 0.003440570019169235 0.001927663295791731 -3.410855201458685e-05 0.0018000462560480118 -0.0017028858051020147 -0.002286403209946394 -0.0034382009417963026 0.004478591551641297 -0.0017593898713874816 0.004680698166871071 0.003622792224891615 0.002933604228804636 -0.003632865925210595 -0.0019559323764002084 -0.002531512274849963 0.005012806945353246 0.0021408234708234905 0.0057746457307091 -0.0006217059665974259 -0.0025229677863769524 0.0039415573615026 -0.0025166336482486725 -0.001693423346571493 0.0048351908627491235 -0.0011610403728797433 9.621378905920984e-05 -1.8463376400494353e-05 -0.0028187089146428823 0.0037423185939903735 0.004534874954225492 0.002222679285878229
快速 0.005996938257804013 0.002561885893225062 0.0033228670143894195 -0.00311520406531775 0.0025746353333583596 -0.0004929629207250357 -0.003268866133377051 -0.0011947636941389082 -0.0023920269891573188 0.005299094163499237 -0.003934017779606998 0.005262548536772561 0.001112234033514101 0.005177240311506629 -0.0036886546761882907 0.00341046379368093 0.0005920365456612588 0.004431989030851841 0.005630814354910111 0.001105510604991033 0.0011686108961406422 -0.0028046923567246916 -0.003970881093833112 -0.0031773909544042704 0.004482076493786716 0.004678985012666023 -0.001114836565913367 0.005930799514564872 0.00317940770362246 0.0028346133221319914 0.0050394132612493515 -0.002459927005261326 0.0029113404049205304 0.0029048638705048563 -0.0016344170663685081 9.743457576594358e-05 0.005836869974333501 -0.0009626979518634796 0.004437259985016275 0.0048143772836899395 -0.0018266940224100352 0.0018289380241844893 -0.0022188055608061787 0.0004818102294443131 0.0012524348227280094 0.0026149322019284964 0.0041564909170238255 0.0045693998002154824 -0.0017953297100684641 0.000793466859414773 0.00032394055756204134 -0.000660125368578434 -0.00036968987607541087 -0.00018974113950920106 0.004506086593634117 -0.00021885269923081383 0.002350714196197987 -0.002448201419165254 0.0012953633477509618 0.0012207018226103117 -0.00026099377138342843 0.0006024979283388353 -0.0019003326961449982 -0.0036548896261686687 0.004971503563035941 0.0005613417782937099 0.005020363431254673 0.005486337466909349 0.0038899992526657346 0.004749410969758344 -0.00355696454871726 -0.0029831548480605957 -0.00173816843174572 -0.0010206051075364586 0.0013122193048790655 -0.0030347716792928697 -0.0016196188701442715 0.000929522385557437 -0.00027682970924096113 0.0031463010774265767 -0.00018326486433393953 0.0029398733667033434 -0.0009494916788283347 0.003053622707698345 -0.0011312052597018478 0.004956884805293345 0.0011277440000060654 -0.003612438921797395 0.005271670177727651 0.00459184919676137 0.003950021520513344 -0.0037250009710623026 -0.0026431255083352806 0.005110595810742974 0.0033193586131523376 0.0030216361406134127 0.004605400372683406 0.006061873484106493 -0.003413600496035695 0.004213211067271662
去除 0.0037319294212000372 0.002599036475227654 0.0003687103118787647 0.0031444665358857393 -6.10592766524076e-05 0.0007889016971848154 0.0018569307430099011 -0.003923582925482631 -0.0035908886531688215 0.005263144113371253 -0.0018382378995904923 0.005263022748327375 0.0016760795790485145 0.002279944622120237 0.003201514950935805 0.005702315073183441 0.0035357444658964633 0.0020762501624367 0.0006009210868689252 -0.001076654697239542 -0.0016968981036801817 -0.00328177270489831 -0.0014025801075051544 0.004689974642459023 0.004976136121756852 0.004126729885846508 0.0035861246932524563 0.00013271880569195758 0.0005520783832848692 0.004806150346333051 0.0005450777198455381 0.0028814895621554855 0.00190539748335495 -0.0007279956094587804 0.0018463926366313172 -0.0006350610301457643 -0.0030550823719428777 0.0025276155286162137 9.460360682930942e-05 0.004280156542073166 0.0004399794248075486 0.001452896041457715 0.00030259345485659123 0.004256555902189076 0.0040632021362101076 -0.003764917809378862 0.0035263822345686195 0.0034033458654304746 -0.0027018573061745642 0.005030192414978122 0.005400879188778877 0.002431960862382436 0.004415386060287428 -0.0006385410492661954 0.0025528278990360857 0.0057763094583592415 0.001667187110711813 0.0022697674580296995 -0.00398239915107727 0.0005623268855073643 0.0023512179043880463 1.6304465640331169e-06 -0.0034133890232331153 -0.0005427655665967823 0.001187176630176735 0.0035734043681037663 0.0010591913468465854 -0.0035789614055668113 0.0012919754322042228 0.003651575294934392 -7.0165815056085195e-06 0.0013981939262374973 -0.0007671860412510037 0.004258725443695593 -0.0011806290890872 0.004770459809499193 -0.00019732149722607127 -0.0014846838132242441 0.003642533158091259 -0.0005158140871792554 -0.0003851371827776431 0.005666257731402278 -0.0009292110365389586 -0.0027974960430387974 -0.000833867997467017 -0.0016254359803408625 -0.00039831119515438065 0.0005534694783233667 0.00635957191681056 0.003972827585583091 0.005614628304123425 0.0002676294995483399 0.0006870716334714366 -0.0033141811063195463 0.005718920446408128 -0.0025699468214225767 0.004925307859430194 -0.0005512443003665207 0.002318672786660647 0.0023973747108861922
前 -0.0007086775239404201 0.005150581694601989 0.00045967233394351005 -0.003460910839623451 0.0008321946613453867 -0.0009178446449472427 0.003542510000925684 -0.0013224908645443913 0.005395344729102374 0.004916785884817362 0.0010163173049852945 -0.002765021428668737 -0.0033098938556370737 -0.000736675422301197 0.004822545054047108 0.0051794775926826 0.0039956799577829365 0.005737095220473051 -0.002671656059299135 -0.00014148876349625574 -0.0021202019835021018 0.0009674375772734643 -0.0027726867835960387 0.0014817618733788873 0.0002708255450187684 0.003955559008052969 0.0049791322803545 0.0007015151037672521 -0.003921815455858516 0.006020082316307069 9.879336452145579e-05 -0.0016447757098066807 0.005476126535974503 0.005643545734806108 0.0019407949440069295 0.0021850615296461107 0.0054104488131815915 0.003796580012962341 0.0023339960624227047 -0.003243943291377211 5.705105560852063e-05 -0.0034881267634189125 0.0031587101725342034 0.00018164769541018013 -3.8241367273473626e-05 0.004124125429378319 0.0022173128922792435 2.848733322381963e-05 0.004306678243202543 0.0006755794403470802 0.0021813086005874633 0.0014616499685323144 0.005262817131329536 0.004699208742393971 0.002828329463546753 -0.002946914426574898 -0.0013161203394309999 -0.00020471876581597314 -0.00016192887432564724 0.00018395994681620598 -0.0006071521021687984 0.0032981347249760153 0.0007841951675446711 0.0010379944911366654 0.004486337822318077 -0.0017855562003684998 0.0006023240722667361 -0.0036130877187862394 0.0015740806461745263 -0.00048753283960947975 0.004935009145307589 0.0009579348386385442 0.002867350181754947 0.004817082961185455 -0.000978340845374346 -0.003510664050730467 0.0017459064715374278 -0.00150795049608345 0.001885650620467806 0.0039043720272140025 -0.0011106709344200134 0.0048451331083137995 -0.003656662987013817 0.005323177648507119 0.0004657112244729043 0.0020329639334157705 0.00012788879601087575 0.0003562300513578797 0.0023904973460095883 0.004037377851790094 0.004688608408351565 -0.002583369358892012 0.0052843914976884844 -0.000986337029507446 -0.0017450628301416875 0.005453852511528635 -0.002130209010444403 0.0047428307848024365 -0.0026521377301967144 0.004555126423588467
挡风 0.005538668566647267 -0.0016931820790311099 -5.312380119172578e-05 0.0018079877324444532 0.0031877393742750647 -0.0005175480828392982 0.003023252253044009 0.005759073592146754 0.000580477179619527 0.0031086436803079843 0.0034350312056803346 -0.0008645832434659956 0.0021759315169490815 0.0008736614138099004 -0.003988776713164543 -0.0008373093413938282 0.0028335075815566543 0.002226624592026382 -0.002397539912379813 0.005663541003801084 0.0028402359295670986 0.005092157595059396 0.005655447439974714 -0.003034884206188357 -0.000486801188626194 -0.0029478190065814255 -0.0012681399564398051 0.002511153432426882 0.0037509403388600827 0.0009862524901234674 0.004560698299014521 -0.0010942131358267068 0.003621822953073001 0.0003885108951859951 0.0034998582662844418 -0.000509517497067666 -0.0006105014465171814 -0.003296991820966053 -0.0025278987216822866 -0.0015181092971154808 -0.00295086732954638 0.005757511922230125 -0.0006582803021712423 0.004820671808335602 -0.00014245722048735615 0.004545386442914963 0.003340101103975773 0.0015798489109470797 0.00523713763953495 0.0010147676321051837 0.0055011206248879434 0.0053741166123687035 -0.0033230855637993812 -0.0023146263168818473 0.003562921959415972 0.0006140854703996801 -0.0007010718856840371 -0.0006551575651433705 -0.004126762270519304 -0.0013653962871121882 -0.0032504988014030933 -0.0038088445470707416 -0.0009548082824729562 -0.0004866431631766438 0.0025396952991873023 0.0017000449755446912 0.0017425189500918032 -0.0004725978446243166 0.0013951452496777726 0.004871474391167379 0.0051809648507878305 -0.0013943336419860244 0.001830408605662 0.003590188221590614 0.000363431061357999 -0.002124001175293231 0.0013943140581833126 -0.0029391391077228544 -0.0034407794166184426 0.0011040138993720437 0.0016388596036107923 0.002158349324718547 -0.0041943771065827366 0.005794161687016844 -0.00178615484358685 0.0017758433190965296 0.0001335483152667047 0.0008174318604179645 0.0053878846056089405 0.0035611976403684856 -0.0009856361816736458 0.001120976076384554 -0.0019973475643961193 -0.002469351604075432 0.005936765047144175 0.0005071419529825449 0.002923048874453759 0.0026738221336739306 0.005778139958218813 0.0015578295106036951
玻璃 0.004223035203189993 0.004386025962911391 -0.0007451501450598358 0.001364490274401784 -0.003088877566647959 0.0030329733121056083 0.0032075925668006424 0.0021007025885997296 0.0034856196597311973 0.004657194702404451 7.904293054232601e-05 -0.0033524820233450416 0.00321483877458775 -0.0016128165368150234 0.0013296995559219098 0.0017056513160997725 0.0014777389305827618 -0.00017378532966125 -0.0015870218527930973 0.004062284082825577 0.00017372270771808624 0.003593262653480661 0.0005526905375558711 0.00494353765507561 -0.0042632457237369295 0.003622002246915889 0.004978694555309594 0.006032208777677465 0.0010407017532804202 0.0007079007088802625 0.005183613083532023 0.0039966951067609315 0.0048023941877014635 0.0036590613295670034 -0.0015567110754295586 -0.0015465939764009952 -0.0037045311416820763 0.00468472781966722 -0.0022163167567633628 -0.00034427963715867984 0.005063970334429145 0.005737858583198023 0.00491299350696808 -0.0013752889567504403 -0.0024183155656659844 0.004864929658746529 -0.0035043984998906616 0.0003784788595970393 0.0020043292974359036 -0.002338062949989414 -0.00042082109754276275 0.0034681948882818938 0.0030245814123972415 0.0029249468781624797 -0.0017110426644699338 0.0055419269292384865 -0.002529923308503914 -0.003676602556930423 0.004182352443789363 0.005421701976983905 -0.0006663382767008066 0.004335764141681087 0.002274494595652628 -0.0026950909867896914 0.0040795193027977706 0.0014997921883237553 0.0022684827505041836 0.001851825561503124 0.0003505554660903216 -0.0032151785789969684 0.0038208439278473857 -0.0030140074541859744 0.001608982568922627 0.0022442626860209466 0.0017583213759226324 0.003955403390086818 0.0016510973187609434 0.005939381923897982 0.00243273374908514 -0.002849370104944038 0.0016375246936449002 0.0025000460239465237 0.005405055522296882 -0.0021696427852710485 0.0011644350407296182 0.003177409061502218 0.0006086561494299174 0.003085077451473999 0.0006521620971633673 -0.0011437856985007525 0.00035151525236048705 0.004624781230792642 0.004213626994729471 0.0038823050207770823 0.0007188692560508728 0.004752100391930056 0.0022582781376086474 0.005217752939346695 0.005504861645056511 -0.0013341323093056202
上 -9.874689313197141e-05 -0.000710940864056158 -0.0012234531520353793 0.005565283875089217 0.003317219408245754 0.001439177898770771 -5.4069741088771635e-05 -0.0037878830071086883 0.0034142390152674673 0.005087042143412066 0.00174054350140152 0.004958613429373932 0.0048477819584664345 -0.0023840260675559045 -0.002537241653137851 0.0027786459867898466 0.0044414460975403785 -0.0005339516916909215 0.003409187184329128 0.001734582937298012 -0.0021388534665115356 -0.0013619143078276632 -0.0009878187834966182 0.002570959404308939 -0.0015433390387033698 -0.000530921018794012 0.001454055652623439 0.0005150381358808041 0.00010801618627799038 -0.0012010209697629927 0.0030469241752386095 -5.9959054680728966e-05 -0.0023475931985185625 -0.0017398854794517513 -0.0009556948659392357 -0.002033383687572956 0.0052685168751055245 -0.0004825733050498963 -0.0032859728370675566 -0.003781642260938716 0.005605509507844448 0.0040093669614336015 -0.003352815814168096 0.000677385972792285 -0.003512593725373268 0.005046993567837239 0.0015755392616259192 -0.0036926894015274045 0.0012301748594985868 -0.0007835343450189112 0.002701207991526413 0.0022311596618938448 -0.0031941279693493843 0.001623592992305317 0.0051303949087190635 0.0013663927828289034 0.0017278212989032269 0.0017943386858115672 -0.0036047946482366325 0.003721348200611782 -9.790435522613519e-05 0.0023328495390034436 -0.0010792667061366797 0.003317141442229581 -0.0004256448046305178 0.004492518861625195 0.004434854773311424 -0.004277851032845259 0.0034642142401274207 -0.0020937007404174804 -0.0034227971450644973 0.00028040455321168907 -0.0006889263460184097 0.002620426484375286 0.0008015675501136972 -0.002175847956439209 0.0023337806070866584 0.003394626442842913 0.0020109856295162203 0.00467417239488678 0.005999565638914824 0.0031809969911370277 0.005687598231948137 -0.0038119096329286093 0.003330193899550629 -0.0034089152592765093 0.00445391075858407 0.0018228076724114658 0.005091030029835272 0.0038210293442115786 0.006194167064211369 0.0027271860479905607 0.002554694204501295 -0.0038142127245243077 -0.0024283980602629665 -0.0014062255613557814 -0.0025348249921064376 0.004833396567297745 -0.0018757672635307788 0.0065198361511693
冰 -0.0007761881717905043 0.002808007596514058 -8.81050373312234e-05 0.005179276344403266 0.005491287405498218 0.004439461408820867 0.005886287595219136 -0.0027080763861945627 -0.0030773456564683914 -0.003301908807153702 0.0026213868756078005 0.002504837910426807 0.0025020082728110793 -0.002971274776633978 0.0019250281989359856 -0.0022524829536064144 0.0004002706367671968 -0.002830634646901464 -0.001157371070103073 -0.0007985383821799992 0.005563903084126186 0.005585577053584338 -0.0005533195119447708 0.0037162689679016113 0.0015624344365676498 -0.00209717846857512 -0.0009493584753086567 -0.00238052525017004 0.00034555457358164787 0.006373827076160193 0.0036805421359315874 0.004522183867352295 0.0004123273245042802 0.00416672376188159 0.002697197978994131 0.0016414739032369137 0.0008561870132643128 0.004160934640149879 0.0027201636473694803 -0.0013181837802961585 0.004850152861525774 -0.0034904841337101457 -0.00023836292630460268 0.0013052871700775862 0.0001457259028515434 -0.0029916493027648925 -0.0015939887719945431 0.002606252808781624 -0.0016371949640903473 -0.0020175035880380153 -7.081637335949894e-05 0.004107960126025915 0.004723831103716851 0.0061262561438660615 0.0033642457774873975 0.001239745501973772 -0.003706855506974697 -0.0026089021026187895 0.004089175239506292 -0.0019797363368996143 0.0002562470853288651 -0.002989193892716813 0.0013200388561319353 0.0016605405413369894 0.005309167717474461 0.0008816187273180104 0.0055189655055180795 -0.00012123072896915441 0.0026130587303281306 0.00425360020155468 -0.0030980038016900063 0.002804807938214493 0.004713559735140205 0.0009982041966802024 0.0013712770318191243 0.00528017103558898 0.004917922557978153 -0.0033530030889174457 -0.004127644954157305 0.0015898430736172677 0.005273185011232376 -0.0006983178373534202 -0.003988144636843539 0.0004565615135317802 0.000838014393907137 -0.0013768812851125242 -0.0015716252926205158 0.004532981328825497 0.004190354295371866 -0.0009547260643397329 0.0008147544220651914 -0.0007829555197668075 0.005523747876520586 -0.0017480387480294228 0.0016919940727227402 0.0032637293538391593 -0.0036481244987478733 -0.002815285732093095 0.0023364142512813093 0.001785654579565487
发动机 0.00431282586261522 0.0035222405244848807 0.0014908963178345523 -0.0012049470303113776 0.003346317660335795 -0.003242390751464542 0.0032100064599603654 0.004935333059405645 0.0037713461606139025 -0.001310971603118086 0.004354222913162867 0.004766763911098036 0.0019098791499749979 -0.0029525913001116275 0.004229098270819878 0.005591037128555473 -0.0018582057011523245 0.003880584291410796 0.002827601742319616 0.005309653057062204 -0.0027607180992391903 0.002886278787497902 0.005288973547321161 -0.0027823430170437887 0.004939062289047464 0.004396515224531047 -0.0010871261977456806 0.0034091310930902006 -0.002482723222633759 0.003985566722163026 -0.0023958732796214898 0.005334751758492835 -0.002865517678648631 -0.001606444248521916 0.0032887720993139266 0.0007513821719123617 -0.001850176895667982 0.005765457942382733 0.0007197582769887129 -0.0014689975372707367 0.00223125382675697 0.0012955219482275202 0.0012816508548575798 -0.0024482993520013015 6.193606941318642e-06 0.00014965842265229228 -0.0035093197064601416 0.005895745661294064 0.005096238598323552 0.0016828920062318168 0.005337872805955648 0.0011042085205585257 -4.03243600268356e-06 -0.0025420463672685464 -0.0016910063514817555 0.001830593370366669 9.000299613591827e-05 0.0026848733786900524 -0.002441798670618725 -0.0009079505214036622 0.002470674277941497 -0.002460526429078277 0.0007790812915501086 0.00465544149464535 0.005945738581616418 0.005407077655592919 -0.0029193368595700265 -0.0029795598587221937 -0.0015594982484968343 0.005854512843733374 0.00035118615100919405 0.002264706526791509 9.986416323159541e-05 -0.0020132653935027124 -0.0009576466351372719 -0.0005226132755033334 0.0006898769442387137 -0.0006470060090208213 0.004026404532201687 -0.0002387823098101773 0.0006304975550446511 -0.0017967586022165933 0.0045614790191277664 0.0054798948631549676 0.0009820930039177878 0.004600456515944306 -0.002365850440622759 -0.0007610904706598203 0.001999443508498192 0.005219797860502895 0.0007878683452664377 0.0018772069937374272 0.0017228185515884243 0.00392859624101998 -0.0015967927432081381 0.005074636867144553 -0.0009773179563379287 -0.00037445397905828135 0.005451269087323364 0.0029266514257493656
漏 0.003286251917405558 0.003086031417294979 0.0014980300339928342 -0.003228636964446306 -0.0008893330707406997 0.005039167841884137 0.004623894827023983 -0.001517415936832285 0.0021934083715123174 -0.0009510909454434395 0.0005746115003386498 0.005630124701788712 -0.0031684520121653555 -0.004103897772173214 0.002011106688406968 -0.0005996466115221978 0.000691140322835064 -0.00023835173919825548 0.003937084414517975 0.003114944118945217 0.001610126718253422 0.001539192002373433 0.00019836696416726117 -0.004275327373410583 0.0010545590406136466 0.002610318411777687 0.0023536827541315083 -0.0023335472833750245 -0.0009448292158132552 0.002728734580747843 -0.0019382409730174066 0.004420734208359909 0.0005032450905276585 -0.002431038205522585 0.002523118910557842 -0.0005451343078927517 0.004758674550750112 -8.697201959338187e-05 -0.0025000953722840308 -0.0015797488060052874 -0.0009651523015593528 0.0028975474998353956 -0.0024707785052973746 0.0019620309046003105 0.00526826521164322 0.0008014620305818081 -0.00018522891226611124 -0.0024710606162950035 0.003989241199347973 -7.608403386178016e-05 -0.0007835411062929152 0.003464335846034813 0.0022234049665037156 0.0010503252026251126 0.0023875465381718638 -0.0023778572654018404 0.000959460996158844 0.0005406604094457628 0.00451393694482367 0.004072476272191095 0.004105599057788133 0.005584077721896434 0.002303857086350441 0.0006534319835438184 -0.002884265019328356 0.004585864454531146 -0.003743836467882395 0.0033401458432159663 0.0010434540013535404 -0.003094177832557726 0.005232634852217627 0.0032770634927312852 -0.0021378616657164095 0.004760493363363934 0.0032484925634603977 -0.0005176121357365606 0.0007581164124880792 0.0014080687429523526 0.0004292151940281773 -0.0032098575493929382 0.005811239686352396 -0.0021505496613979337 -0.0033734022339119906 -0.0008841095212870119 0.0033804101213298797 -0.002186744427338457 -0.00027621904393715846 -0.0021430299208773373 0.006201459694790173 -0.0017186633048672678 -0.0019476427495241162 0.004244164207761287 0.0006483166489776612 -0.0014207436801429746 -0.002071074341527319 0.0050645415654214385 0.00474669220741129 0.0045746288441458225 0.002746901521388531 0.0019298023559501838
油 -0.0006723977038194653 0.0035782342473357916 -0.0012410465612699986 0.003235265360772038 -0.0022061783386947155 0.0032166176407377725 -0.003291881524334955 1.1581833218908349e-05 0.0030131997499742032 0.00546194101401639 0.0011528484541676236 -0.0010144734034926892 0.00018816123820376406 -0.00020412579811496722 -0.004037397160963822 0.0036600528270235065 0.001056017339064312 0.006257996532256365 -0.002690868509668255 -0.002462693399456191 -0.0006400731280482293 0.004145128995391441 -0.0006692713114350319 -0.002210487939107847 -0.0018319783386547565 -0.002482129378841853 0.0025967972180922032 0.002408097202705479 0.000455144323668108 0.004764070783042765 0.001872609092665415 -0.002504510928584623 0.0034021365710767268 -0.0025513719838850496 0.002883683792107821 0.0037210400396568777 0.00016317117284026146 0.0034803119624366757 0.0024442913867506505 0.00120905336945529 0.003969601225133276 -0.002180587353704214 -0.0005470934790447234 0.001989228382169604 -0.001538605798312616 -0.0018414155134441376 0.003759614475980234 0.006103113203415633 0.0031645752985548017 -0.00045184851807250983 -0.0010409719752263067 -0.00037881417475242607 0.001782985035025692 0.0012570240517295551 0.003984032298784375 -0.0034308520050367834 -0.00038824553308563223 -0.0040108459311938285 -0.0008982958559483528 0.004377676277967405 0.0053670279191726684 -0.00046025998439812657 0.00033808286196537025 0.0009026868728818083 -0.002570257112585306 0.001034141611291853 0.0005979384308629227 -0.00023168099698584073 -0.00024989015822911265 -0.0037493251865224836 0.0031662743941178323 6.525937607296771e-08 0.0001418332599133492 -0.0007530057044906615 0.006101355195265245 0.003883808288136578 -0.0008979957806796073 0.002625047468983507 -0.004059506569237995 0.0019032126585217476 -0.0032694876865298275 0.0010274396275577393 0.0029406500966448782 0.004252993718629169 0.0035030599048193932 0.00409996687419076 0.002025042751432896 -0.001791745833062458 -0.0015534670298464775 -0.0016436762955205919 -0.00029838644407134034 0.0004685418673558044 0.0007186896166189099 0.0046597886657357215 0.002602409243265104 -0.0011906951678406713 0.004382812588125801 0.00021925515932593354 -0.0011986993737552166 0.00329752117960701
问题 0.0009394715577223875 0.001369335912440789 0.0018780163087886094 -0.004060115508520865 0.0025571927152975085 0.004104208807907128 0.0030702752818876503 0.00015231395358841424 -0.0006967695645819186 -0.002220326423048711 0.0017335850166725398 -0.0038065678222895865 0.005712880849276304 0.00161221204762311 -0.00277212556410259 0.0006287397781806376 -0.0003324279171256065 -0.0034345620667749644 0.004943362244615912 0.0019947780602933883 0.0032066403142326358 -0.0039483626808537965 0.0005219227127419139 -0.0005169139074552894 -0.0015157482117992638 -0.001671688075421715 0.0041242121393659705 0.002252564057143998 -0.0014038619272834776 0.004368163361851526 0.00041805673514473435 -0.00010241160065252767 0.003343756680239391 -0.003894186242898583 0.004228518065816998 0.0037765762195782187 0.004579001089640498 0.0006401792114605904 0.0012363810569665766 -0.002093746979228067 0.001924263698859477 0.005491462467061878 0.0015923396364188195 0.0013216094813728882 0.0004252831491820812 -0.002147256932898807 -0.0005595313271564721 0.0049514232351062296 -0.0017667722913773062 -0.003837125386409378 0.003671341763630295 -0.0010238122181120872 -0.0012261104337437391 0.005692681138937855 -0.001894638670986545 0.001661148848843384 0.00409397053522377 0.005717896717127824 0.005123619786971331 0.0008789586364021864 -0.002458869517886114 -0.000858509307461202 -0.0006347312134126782 0.0035750947949337243 0.00011404273059446835 -0.0006374569280234814 -0.0019346534805264473 0.0053774005508197545 -0.001714281774365258 0.0040844938439434765 -0.0016575334708920004 0.0019916472804932953 0.0005137512697406469 -0.000564088177148771 0.0007463145171142579 -0.002959120028959728 0.004429797401244712 -0.0025011786920330044 0.005466223628744197 0.0019258006731223583 0.001178956496507845 0.002566911289755845 -0.0008404890537431954 -0.0004046963176342487 0.001981076865340996 7.537167490249876e-05 0.00025707215482337483 -0.0019191804050351976 -0.002474233276592493 -0.0018340610253647566 0.003718284723303175 0.0005823373772259521 0.0014142023354124546 0.0025006992936381575 -0.002356568107197118 -0.002362951598228359 -0.0013648380191036461 -1.1151912483453857e-06 0.0060877447898819445 -0.001947747844750595
大 0.0018952187179101373 0.0023415760657371997 -0.0017152587212585211 0.004593966656510115 0.0010140417144167805 0.0050410746825110915 -0.0016508180596530439 0.0012674733052893926 0.0004106112031754495 0.0006223061082074547 -0.002607089842637062 0.0029795744925562857 -0.0014961113368887901 -0.0030208807998704907 0.0004519228832806301 0.0036144307476943015 -0.0028430442796586984 -0.00029335490205707553 0.000505262709387188 0.005141666428780484 -0.002485281644618034 -0.0028470551833093883 0.0007063135470869446 -0.0017294758596391197 0.0008501995364240647 -0.00023286650371035574 0.005075862649806142 0.005907784768916607 0.0014555096664757346 -0.0019234526575567245 -0.0008389077897563934 0.0014272213876190282 -0.003989449611207103 -0.002132000979083729 0.005097973725395203 0.0008909037344600678 0.0030238188636353015 -0.0002853492401817799 -0.0005230386154025553 0.00213677549174428 -0.0040194091266931055 -0.0010270241286402223 -0.0018375261877166032 0.00474771755036695 -0.0030668571356251718 0.0016968891045180037 0.0044443127016956805 0.005983412496165037 -0.0003762108039367676 0.003640766565374708 0.004648267353336096 0.005641896487920189 -0.0024642604164612295 0.0027315758636909486 0.0008584747128047753 -0.0015424703835832593 0.003803998224178696 0.0013012328157644367 0.0013689392034480334 -0.0002728848897306441 0.0006490455989018727 0.0007967567512097121 -0.00019533434387141693 0.002131835934773827 -0.0018909629868445873 0.003771422574214315 0.00504284226885066 -0.0008641813793056487 0.005271234768717289 -0.0022418410593920707 8.986948441796312e-05 0.0032751384630521777 0.0008574194751806307 0.0056755909580951695 0.004617408446340752 5.5074410524988144e-05 0.00360350607650013 -0.0027863857045375344 -0.0008087031710506439 -0.0009640122660451412 0.005341964510310125 -0.0006820120677834034 -0.0008435251358938217 -0.0011293864694183347 0.004548925238138628 0.0038862607431516174 0.0025687642558365345 -0.003424106806249261 -0.003470022214939356 0.004883000364220477 0.004145399176601648 -0.001922045041700411 0.0023091515783755304 0.0033241483523534297 0.0028773567730139733 -0.00045227822513246537 -0.0014323570261342523 0.004161744786441517 0.0038390646464948174 0.00016450169642620105
吗 -0.002543073936447143 -0.003870647122035384 -0.0024520531310578105 -0.0025577816902463434 0.0008442464308259774 0.004080111714470291 -0.0006673176723668575 -0.0031074259514603615 0.0018248266366215704 -0.00018757296734957696 -0.0022314799756305696 0.00473642018533535 0.00608180065522399 -1.1509752588367427e-05 -0.00054017249462142 0.00535969042333889 -0.001182545363685417 -0.003183547456827641 -0.0035324850596523284 -0.00298458684529891 0.0015143232417014123 -0.0032235960298269035 0.004665467321729851 -0.0015820663788336992 -0.0007864537974757671 -0.003485234791932201 -0.0035147689197215794 -0.0035746550473802086 0.004561142267208815 -0.0013809828230614662 0.002014016075703087 0.0025999310774899483 0.003729437376996946 0.0007198109297884751 0.0022566439581171416 0.001959312146887808 0.00028819777452602385 0.0012950568426533127 0.0011958361604102804 0.005235546025262355 0.0012301470103389836 -0.0022761184611959457 0.002490036170347214 0.005694452624368072 0.0038160628419737818 -0.0029150191649870874 -0.0014706001143473622 0.0003887622576215267 -9.996977854704854e-05 -0.0028630206908278467 -9.512483678002356e-05 0.0047927416386573315 0.003078778592870617 -0.0018848579804195877 -0.0031958291371681448 0.001550704214504671 0.002795321538182783 0.002438778708058262 0.002517371412375879 -0.0005211878355121135 0.0014360180881038665 -0.003956672659355283 -0.0021113417509832618 0.005643337340254068 0.004722799227853251 -0.00022337687662224784 5.591006982784267e-05 -0.00399804092725296 -0.0030346580621378426 -0.002269883919319343 -0.0029721720462256907 0.0026681829519076823 0.0002610953124980212 0.006505570026742936 -0.0020957046785815238 0.005703102594594002 -0.003291006477889776 0.00492452429164052 -0.003403141411690235 0.00216672940077734 0.002547014144805384 -0.0018933218001677514 -0.003748676773532104 7.793341744050998e-05 -0.0002331172937085151 0.004968352376039386 -0.00039160967925305355 -0.004020039342931509 -0.0035195534900720115 -0.001977053789361429 -0.0029537429734966753 -0.0037386859338703156 -0.0019086119494211673 0.004614121057634831 0.0006295191198572159 0.0015483250868326666 0.004693641439924717 0.003125723102882242 0.0004250506219257356 0.0022790124592427254
