30 200
你 0.0020254832 0.0037129456 0.0024934546 0.0018163519 -0.0030175024 0.002274698 0.0039865514 0.0009852578 -0.0031361382 -0.0033622128 0.001615263 -0.0042046295 0.0023929984 0.0010830839 0.0017853524 0.0003575785 -0.00096476683 -0.0031874215 -0.0041753836 -0.0035827458 0.0011113356 -0.0028412216 0.0035209805 0.003406412 0.0031843465 0.0036772937 0.0030101603 0.003316531 0.00058432436 0.0026828009 -0.0025109993 -0.004939538 0.001928363 0.0036456743 0.0033890475 -0.0034085 -0.0019459717 0.0025293804 -0.0012932462 0.001512425 -0.0006426531 -0.00020229584 -6.462354e-05 0.0019105319 0.003873597 0.0019978052 -0.0012423885 -0.0002158219 -0.004068303 0.003560097 -0.004749892 0.0024793274 0.003320272 -0.0021971278 0.003272158 0.0038508317 -0.0031523567 -0.0004836591 -3.649667e-05 0.0019394546 0.0041453373 0.0033541638 0.004114546 -0.0039026872 0.004567668 0.003454674 -0.0046377485 -0.00054637436 -0.0036122876 0.00016229507 0.002425165 0.0010972638 0.0010487367 -0.0004167785 -0.001985036 -0.0026033323 0.0026791906 -0.0025620484 0.003141771 -0.0036237573 -0.0018999474 0.004351356 0.0027968758 -0.0039038956 0.0036545284 -0.0034690113 0.002854161 -0.0019037758 -0.001176402 -0.0034395508 -0.0027335791 -0.0038308627 0.0021165079 0.0019047111 0.003852266 0.0041222144 -0.004144484 -0.0010858248 0.0008810065 -0.0015750043 0.015122873708605766 0.007612384390085936 0.007308941334486008 0.007887671701610088 0.011987603269517422 0.010015010833740234 0.011482498608529568 0.009424565359950066 0.010708843357861042 0.009373189881443977 0.00632127420976758 0.011310811154544353 0.01124478317797184 0.008029080927371979 0.006910863798111677 0.01427996065467596 0.017437327653169632 0.012687379494309425 0.009226085618138313 0.007299091201275587 0.01652377098798752 0.006414317991584539 0.009699799120426178 0.006251224782317877 0.007352604065090418 0.006101546809077263 0.007246600463986397 0.01227401103824377 0.008459378033876419 0.013987993821501732 0.014754457399249077 0.012161633931100368 0.008767512626945972 0.008873917162418365 0.014672815799713135 0.009832175448536873 0.010144789703190327 0.009315317496657372 0.011690192855894566 0.006704892497509718 0.008658576756715775 0.009442479349672794 0.005938047543168068 0.00727618345990777 0.01079147681593895 0.011320582590997219 0.009709649719297886 0.012406996451318264 0.008826102130115032 0.009500023908913136 0.008303667418658733 0.009550605900585651 0.009105191566050053 0.011798374354839325 0.006437426898628473 0.00846425723284483 0.009488068521022797 0.009385067969560623 0.006067599169909954 0.008031063713133335 0.009168346412479877 0.0069984495639801025 0.00738882040604949 0.006695755757391453 0.012741322629153728 0.010616195388138294 0.007438049651682377 0.004984864965081215 0.0092079546302557 0.011370777152478695 0.010473036207258701 0.006823210511356592 0.006203047931194305 0.017017701640725136 0.012510104104876518 0.013515207916498184 0.008253922685980797 0.013443238101899624 0.008340999484062195 0.00861381646245718 0.0146584901958704 0.009174433536827564 0.007943163625895977 0.01059654913842678 0.009865130297839642 0.00757193099707365 0.012068565934896469 0.007349824532866478 0.014356175437569618 0.012750625610351562 0.01429583691060543 0.008074413053691387 0.00801960937678814 0.011219767853617668 0.010882006958127022 0.012362382374703884 0.009231328964233398 0.013446426019072533 0.011055493727326393 0.01587238721549511
拥有 -0.0034460896 -0.0043544383 -0.0018967146 -0.0015807545 -0.0008244687 0.0018265783 -0.0027492887 0.00091339275 -0.0016215295 -0.004897304 -0.0049967007 -0.0006972058 -0.002232871 -0.0035772817 -0.0022245555 0.0043697376 -0.0023262398 0.0012533488 0.00209005 0.0018290859 0.002192223 0.0036338614 -0.003908948 0.0019596363 -0.0025636696 0.00023817085 -0.0005128556 0.002336802 0.0024982826 0.0008611907 0.0006791246 0.0035121627 -0.0030024915 -0.0034806263 -0.00028970884 0.0017806012 -0.0010205694 0.003147875 -0.0028706805 -0.00014486536 0.00026408536 -0.0044990564 0.0018497091 -0.002789874 -0.0019205515 0.00034335908 0.0018148283 0.0013700817 0.0001142486 0.0012770002 0.0049361 0.0003702729 0.0023757215 0.001486721 0.0040668566 0.0022567967 -0.0025295215 0.003994068 0.0008165161 0.0023705019 -0.0025258034 0.0048515303 -0.002305262 0.001648495 -0.0046648895 -0.0018789417 -0.0031489474 -0.0035405767 -0.0014990901 0.001686092 -0.004968145 0.0035871956 0.00079578767 0.0028365245 0.0040243138 -0.0046091634 -0.0046452633 0.0007719081 -0.003583952 -0.0034418397 0.0034236163 -0.00086500356 0.0011575846 0.00070751365 0.000943311 8.843234e-05 -0.0047215973 -0.00496953 0.0026637502 -0.004658414 -0.0015567117 -0.0026504318 -0.001078052 0.0012920117 0.0013295696 -0.0020448565 0.0017244886 -0.0004815422 -0.0018713826 0.0040689763 0.015121991280466318 0.007614124100655317 0.007310927612707019 0.007888317573815584 0.011987286154180765 0.010016501415520906 0.011482234578579664 0.009421923197805882 0.010709582362324 0.009375999681651592 0.006323694251477718 0.01131153991445899 0.011247345712035894 0.008032776415348053 0.006914588855579495 0.014276863541454077 0.01743138302117586 0.012686416041105986 0.00922648562118411 0.007299591321498156 0.016519681550562382 0.006415351526811719 0.00970216654241085 0.006252719787880778 0.00735547742806375 0.0061036874540150166 0.007250112947076559 0.01227033231407404 0.008460046723484993 0.013986171688884497 0.01475006528198719 0.012158192228525877 0.008767364546656609 0.008875430095940828 0.01466983137652278 0.00983370654284954 0.010146098677068949 0.009313188958913088 0.01168947434052825 0.006706412183120847 0.008660065475851297 0.009444617200642824 0.0059402817860245705 0.0072768928948789835 0.010793494991958141 0.011322422418743372 0.009712108876556158 0.012406079564243555 0.008830212522298098 0.009499916806817055 0.008304558228701353 0.009551895782351494 0.009108157362788916 0.011796037200838327 0.006440535886213183 0.008463115431368351 0.009489446878433228 0.009387009777128696 0.0060684040654450655 0.008030622731894255 0.00916956178843975 0.006999670527875423 0.0073900429997593164 0.006696602562442422 0.012738104443997145 0.010611793026328087 0.007440089015290141 0.004985426552593708 0.009206665214151144 0.011368884239345789 0.010471499059349298 0.006823023781180382 0.006204374833032489 0.01701428834348917 0.012506714556366205 0.013514404185116291 0.00825587660074234 0.013442330062389374 0.008340497966855764 0.008613706100732088 0.014655454084277153 0.00917578861117363 0.007946296595036983 0.010599887929856777 0.009866602718830109 0.007572670234367251 0.012065568007528782 0.007352275075390935 0.014352676458656788 0.012748780194669962 0.014291482977569103 0.008072202559560537 0.0080179488286376 0.011218776926398277 0.01088271988555789 0.01235866453498602 0.009231282863765955 0.013440962880849838 0.011057812254875898 0.01586765982210636
哪些 -0.0015412979 0.00039282674 -0.00048941374 -0.0028566627 0.004943085 -0.0041364357 -0.004316588 -0.0014323734 0.0047008917 0.0015286449 0.002434182 0.00021263352 -0.00035700202 -0.0008480293 0.00016940339 0.004224683 -0.0036736124 0.0032151705 0.0009374027 -0.00077827554 -0.0033092385 0.0018902807 0.0026636366 0.0015601576 0.0016987734 -0.002777658 0.0033399798 0.0026894826 0.003422995 -0.003251283 -0.0016734088 0.0034971638 -0.0049706125 -0.0032936572 0.00032280246 -0.0010516588 0.0012042238 0.0048762783 0.0024024458 0.00075263483 -0.0014600896 -0.0009224266 0.0034255572 0.00425181 -0.0039049098 0.0037088348 -0.0009943168 0.00013970071 -0.0010054563 -0.004924573 -0.004138945 0.0009559407 -0.0029125027 -0.00079293316 -0.004183079 -0.0032649778 -0.00413167 -0.0015444821 0.004151388 -0.0029746448 0.0049332436 0.0039203856 0.0037691193 -0.004335945 -0.0043986407 -0.004746012 0.0027927565 0.0036129653 0.00064504286 -0.004048865 -0.0027142083 -0.0049246065 -0.002493105 -6.2580686e-05 -0.0035120796 0.002341135 -0.0021358286 0.0026194714 -0.00052754954 -0.0003106757 0.0028331438 -3.6774203e-05 0.0011748886 -0.0030190991 0.0026379651 0.0039096363 -0.0005775811 -0.00081141246 -0.003517522 -0.00030022068 -0.0030595076 -0.0013347012 -0.0012216668 0.004091515 0.0037177633 -0.0035840732 0.0010771248 0.004900108 0.0007477929 -0.002099679 0.015123073011636734 0.00761380884796381 0.0073108430951833725 0.007887155283242464 0.011987769976258278 0.010016304906457663 0.011482248548418283 0.009421213064342737 0.01071007177233696 0.009373568464070559 0.0063221191521734 0.01131013734266162 0.011248927097767591 0.008030791766941547 0.006912389770150185 0.01427664514631033 0.017434440553188324 0.01268841978162527 0.009226332418620586 0.007300737779587507 0.016519125550985336 0.0064154507126659155 0.009703130461275578 0.0062515269964933395 0.007355773122981191 0.0061032644007354975 0.007249857299029827 0.012270388659089804 0.008459930308163166 0.013987223152071238 0.014750969130545855 0.012161777820438147 0.008767515886574984 0.008875490166246891 0.014668797608464956 0.009833110496401787 0.010144541971385479 0.009314354043453932 0.011688057333230972 0.006707289256155491 0.008659075945615768 0.00944287283346057 0.00593880470842123 0.007276021409779787 0.010792146436870098 0.011323895305395126 0.009711336344480515 0.01240787049755454 0.008829800877720118 0.009500132407993078 0.008303209207952023 0.009551447350531816 0.009108581580221653 0.01179595198482275 0.0064379507675766945 0.008463793899863958 0.009488597512245178 0.0093855164013803 0.006068259943276644 0.008031231351196766 0.00916583277285099 0.006998009048402309 0.007388888159766793 0.006696552503854036 0.012741287238895893 0.010612002573907375 0.007437983760610223 0.004983746912330389 0.009205951821058989 0.011368028819561005 0.010469945147633553 0.006822727853432298 0.006203480064868927 0.01701362431049347 0.012507591396570206 0.013519140426069498 0.008255168329924345 0.013444803189486265 0.008340596221387386 0.008614361751824617 0.01465896237641573 0.00917578348889947 0.007945176213979721 0.01060133520513773 0.009864894207566977 0.007571740075945854 0.012066556140780449 0.007351109758019447 0.014354492072016 0.012750716879963875 0.014296099077910185 0.008071262389421463 0.008016262203454971 0.011217967141419649 0.0108829690143466 0.012360442895442247 0.009232338983565569 0.01344168372452259 0.011059743352234364 0.01586971338838339
藏品 0.0047055716 0.004854273 0.0012373803 0.004143744 -0.00050886394 0.0031983461 -0.0036079353 -0.0005825092 0.0027293842 -0.004846317 0.0049856408 -0.004674694 -0.0022129135 -0.00086005824 0.0034186598 0.0045585847 0.0038958779 -0.0025430238 -0.0010681744 0.00153002 -0.0024193828 0.0019738227 0.0029752841 0.003906466 0.003943176 0.0049950536 -0.0040672594 0.0031476738 0.0037858654 -0.00016417168 -0.0012958199 -0.00040932652 0.00021798769 0.002005171 -0.0015288554 0.00063636526 -0.004631598 0.002785434 0.0025653862 0.00482341 0.0037170136 0.00047483388 -0.0030539613 -0.004138389 0.0014275224 -0.0010890677 0.0032585151 0.0033421703 0.0010089441 0.0024844068 0.0033704974 -0.00080202334 -0.0028616206 -0.00238564 -0.002188714 0.00037240284 0.0017026626 0.0023772535 -0.003884465 0.0033767326 0.0025296486 -0.0032792562 0.0020480365 0.004812726 -0.003384708 -0.0029537624 0.0047760466 0.00051490264 0.0014623795 0.0034420416 -0.0018142413 0.002093438 -0.0028497684 -0.0030139731 -0.00097240787 -0.0041629504 0.003050806 -0.00436664 0.004600738 0.00060692476 0.003927635 0.0046016527 0.0011908822 0.0011649267 0.00075667724 0.0018437612 -0.0040791524 -0.00096791424 0.0039926497 0.0028269012 -0.00083413115 -0.00031040423 -0.0023509443 0.00034136698 0.001986052 0.0032902183 0.0039502224 -0.003735411 -0.0040663974 -0.0033674748 0.015122557990252972 0.007616495713591576 0.007309905719012022 0.007887172978371382 0.011985459364950657 0.010015230625867844 0.011481521185487509 0.00942228827625513 0.01070975698530674 0.009374917950481176 0.0063226495403796434 0.011309610214084387 0.011246659327298403 0.00803018594160676 0.006914005847647786 0.014277433510869741 0.01743160281330347 0.012687791604548693 0.0092236059717834 0.007300340570509434 0.016516638919711113 0.006415091920644045 0.009703790303319693 0.006252123275771737 0.007354555884376168 0.006103041581809521 0.007248421432450414 0.012271436862647533 0.008460538927465677 0.013985857367515564 0.014753549825400114 0.012160489335656166 0.008768501225858927 0.008874872699379921 0.014669215772300959 0.009833177551627159 0.01014468353241682 0.009315505623817444 0.011689357925206423 0.0067060941364616156 0.008658687584102154 0.009443624410778284 0.005939694819971919 0.007275717565789819 0.010793706402182579 0.011321916244924068 0.009712696075439453 0.012410372029989958 0.008830479811877012 0.009499117266386747 0.008305201772600412 0.009551362600177526 0.009107441641390324 0.011797217186540365 0.006439953576773405 0.008463257923722267 0.009488789830356836 0.009385765064507723 0.006069359369575977 0.008030361030250788 0.009168682154268026 0.006997231626883149 0.007389739155769348 0.006696335505694151 0.012741069309413433 0.010613457299768925 0.007437637774273753 0.004984618164598942 0.009206640534102917 0.011368506122380495 0.01046951487660408 0.006823513191193342 0.006203920813277364 0.017012236639857292 0.012508359272032976 0.013516633305698633 0.008253682404756546 0.013442650903016329 0.008339674212038517 0.008612938225269318 0.014655479229986668 0.009177433792501688 0.007946555502712727 0.010599460918456316 0.009864189196377993 0.007571877213194966 0.01206365181133151 0.0073516592383384705 0.014356562402099371 0.012752487324178219 0.014296135399490595 0.0080711729824543 0.008018922992050648 0.011219680309295654 0.010885667521506548 0.012357691768556833 0.009233003482222557 0.013442131225019693 0.011057475581765175 0.015870883129537106
为什么 0.0018984876 -0.001893705 -0.0047895317 -0.0027047908 0.0007380741 0.0022696382 0.002009713 -0.0012131536 0.0017595631 -1.7924234e-05 0.0006701695 0.0017982693 -0.0034083258 -0.0037597727 0.001021517 -0.0010275515 -0.0036977374 0.0013868045 -0.003747066 -0.004469084 -0.003087194 -0.004664998 -0.0046571563 -0.0023188435 -9.048171e-05 0.00022624386 0.0014104056 -0.0033954673 -0.0004358841 -0.0022169303 0.0015592217 0.003674795 0.0044947024 0.0020477618 -0.0031799083 -0.0015084064 0.0006328486 -0.00057292357 0.0014994633 0.0023323046 0.002127469 0.00490293 0.0023299986 0.000654357 -0.0029948847 -0.001813134 -0.00358801 0.0044591464 -0.0042159716 -0.004158235 -0.0037772018 -0.0031629424 -0.0011167878 0.0029374082 -0.0010764883 -0.0033149135 -0.004657887 -0.004760242 -0.0020804035 0.0035112668 -0.0034391205 -0.0037073337 -0.004931938 0.00059114397 0.00081824185 0.0031069014 -0.0043741614 0.0016841483 -0.0038150405 0.0010275664 0.0021947129 -6.1387196e-05 0.0040835133 -0.002940139 0.00079221 -0.002300335 -0.0038261234 0.002282728 0.0012913928 -0.00041279336 -0.0026267916 0.00010619406 -7.289043e-05 0.0036543254 0.0016058893 -0.003754599 -0.0034658413 0.003003424 0.0049960837 0.0016161078 -0.004931408 -0.0040384657 0.004061085 0.0024387115 0.0046029324 5.7107303e-05 -0.002120167 0.0012563234 -0.00471245 -0.0010828753 0.015121883402268091 0.0076132963101069135 0.007310959665725629 0.007887362192074457 0.011984125090142092 0.010017496533691883 0.011479112940529982 0.009421801194548607 0.010708820385237535 0.009375574688116709 0.006323611518989007 0.01131290290504694 0.011246927392979464 0.008030785558124384 0.006915216489384572 0.014275679364800453 0.017429210245609283 0.012684085095922152 0.009226342042287191 0.007298375169436137 0.016515646129846573 0.006416583123306434 0.00970058081050714 0.0062514714275797205 0.007355764042586088 0.006103793935229381 0.007249086319158475 0.01226914549867312 0.008461284140745798 0.013988245278596878 0.014752155480285486 0.012162900840242704 0.008769938722252846 0.008877183931569258 0.01466876920312643 0.009833275340497494 0.010144417795042196 0.009314519353210926 0.011688227765262127 0.006706475435445706 0.00865805863092343 0.009444687825938066 0.005940609611570835 0.007276375622798999 0.010791483335196972 0.011322463552157084 0.009713005584975084 0.012405783558885256 0.008829133585095406 0.00949972216039896 0.008305317722260952 0.009552076769371828 0.009107887744903564 0.011798067639271418 0.006441322776178519 0.008463668636977673 0.009489651148517927 0.009385460366805395 0.006070452742278576 0.008031665037075678 0.009167279427250227 0.00700001884251833 0.0073898169212043285 0.006697072337071101 0.012739801468948523 0.01061320056517919 0.007439771356681983 0.0049850236003597575 0.009205492834250132 0.01137131235251824 0.010468962912758192 0.006824383977800608 0.0062037996637324495 0.01701594516634941 0.012508788766960302 0.013514674889544645 0.008255702132980028 0.01344402569035689 0.008340906972686449 0.008614548792441687 0.014655262852708498 0.009176332813998064 0.007947412940363089 0.010598172433674335 0.009864990909894308 0.007573060225695372 0.012066047017772993 0.007353363403429587 0.014352659384409586 0.012752410645286242 0.014295357279479504 0.008070300333201885 0.00801832570383946 0.011217505360643068 0.010879055596888065 0.012360105601449808 0.009231564588844776 0.013443571515381336 0.011058868219455084 0.01586518871287505
接吻 0.0047416547 0.0028123674 -0.0017854034 0.00023057172 0.004113348 8.631172e-05 -0.0027027142 -0.0033885646 -0.004235657 0.00459346 -0.002614873 -0.00016652001 0.0013885908 0.0018723947 0.004201914 -0.0009484291 -0.0033621108 -0.0028979802 -0.0042977002 -0.0033482 -0.0007862812 -0.0041075614 -0.0033074305 -0.0029112631 -0.0031497804 -0.0012273819 -0.003444739 -0.0006244653 0.003077777 -0.0017303787 0.0045845434 0.00058382563 -0.0047723637 -0.0043364824 -0.0020327193 -0.004617065 0.00023028441 -0.001992814 -0.00029479852 1.8282328e-05 0.0015132264 0.0046294555 -0.0021338016 0.0026982273 -0.004648777 0.002975352 0.0018618405 0.0024500918 -0.0036534206 0.0038544526 0.002041479 -0.0031438195 0.0045226384 8.7890774e-05 0.004320355 0.0042145243 0.0022278894 0.004609976 0.0030345097 -0.004493095 0.0039565647 -0.00016861502 0.0026176227 -0.004073696 0.0038954597 0.004644489 0.004556383 0.0042243805 8.300412e-06 -0.0013109099 0.0047143055 0.0042392435 -0.0024827952 0.0042910306 0.0009926278 0.004663205 -0.0009277696 -0.0021781742 0.0027836584 0.0021170252 0.0011329949 -0.002600761 0.003367301 -0.00060880696 -0.004396584 8.732034e-05 -0.0007973658 -0.0016291726 0.0032523694 -0.004867314 0.0048251525 -0.0043625277 0.00471795 -0.00041636592 0.0009619058 -0.0037327658 -0.0001232461 -0.0010629296 -0.0048877792 0.0024715746 0.015121323987841606 0.007613092195242643 0.0073095334228128195 0.007886208593845367 0.011987276840955019 0.010016087908297777 0.011484112124890089 0.009423447772860527 0.01071092113852501 0.009372881148010492 0.006322012050077319 0.011311803478747606 0.011245239526033401 0.008031776174902916 0.0069102076813578606 0.014279435388743877 0.01743375975638628 0.012688319198787212 0.00922680413350463 0.007300443248823285 0.01651937887072563 0.006415217649191618 0.009702347684651613 0.006250939564779401 0.0073530946392565966 0.006101761944591999 0.007247832370921969 0.012271393090486526 0.008459507953375578 0.013989842962473631 0.014754677657037973 0.012159171048551798 0.008766775019466877 0.008875311352312565 0.014670669101178646 0.009834001772105694 0.010146723128855228 0.00931375939399004 0.011687041725963354 0.006706358399242163 0.008660418912768364 0.009443591348826885 0.005938870366662741 0.007275389274582267 0.010793048422783613 0.011321153957396746 0.00971236638724804 0.01240603532642126 0.008829579688608646 0.009500897955149412 0.008303848560899496 0.009552908595651388 0.009106388315558434 0.011796236503869295 0.006438534008339047 0.008464457001537085 0.009488703683018684 0.009385827463120222 0.006067760055884719 0.008028261363506317 0.00916726142168045 0.006998230703175068 0.0073876001406461 0.006696261698380113 0.012742232996970415 0.01061334228143096 0.007437725318595767 0.004983125254511833 0.009206594433635473 0.011370845139026642 0.010472648311406374 0.006821485469117761 0.0062010884284973145 0.017018062993884087 0.012509329710155725 0.013516346458345652 0.008252788335084915 0.013442876283079386 0.00833884859457612 0.008612734265625477 0.014662370551377535 0.009175428654998541 0.007944358512759209 0.010599432047456503 0.009863814804702997 0.007571482565253973 0.012066156603395939 0.007351727690547705 0.014358165208250284 0.012753503862768412 0.01429577125236392 0.008071418851613998 0.008017043117433786 0.011218597181141376 0.01088531594723463 0.012361737433820963 0.009232854470610619 0.01344281155616045 0.011055165436118841 0.015868693590164185
的 0.0022219894 -0.0048044464 0.0027909488 0.0019809525 0.00014394289 0.00041440828 -0.0008000522 0.0034494838 0.0045490833 0.0043268027 0.0044986904 -0.0004373514 -0.003820691 0.00082975347 0.0038546566 -0.0006415476 0.0037879236 -0.0018979078 -0.0037082825 -0.0028701467 0.00019312743 0.00029658852 0.0045481846 0.004455355 0.0010772431 0.00038653333 0.0023052734 -0.0029679048 -0.0046572713 0.0002020048 -0.0042830114 1.7374754e-05 0.004361354 -0.00055230316 0.0035086414 -0.0044723293 -0.0017456294 -8.061994e-05 -0.004251941 -0.0046405056 -0.0041267476 0.0013282401 0.0030754302 -0.004871612 0.0006254525 -0.002080434 0.004317523 0.0032726508 0.004619607 0.0031494312 0.00052675465 -0.0030511718 -0.004193619 0.0017753397 0.0016989405 0.0018266402 -0.0034925304 0.0038928147 -0.001304382 0.0043160357 -0.0041878177 -0.003299011 0.0019905758 0.0007686913 -0.0036580842 0.002349982 0.003074455 -0.0020040565 -0.00026467303 -0.004744101 -0.002290082 0.0036354903 0.004159007 0.003220234 0.0011779177 -0.0013348996 -0.0013692467 0.0026483722 0.00016871514 -0.0014302027 0.0031521274 -0.00092819333 -0.0006056917 0.0040861834 -0.0014752292 -0.002128825 0.0045131715 0.0022099973 0.0017651794 0.0020808615 0.004549876 0.0027554035 -0.0020275628 0.0013053995 0.002983314 -0.0038127606 0.004862286 0.0019836258 -0.0014386892 0.00064787315 0.015126007609069347 0.007613294757902622 0.007310164626687765 0.007886887528002262 0.0119859017431736 0.010012163780629635 0.011481814086437225 0.009421023540198803 0.010712924413383007 0.009372797794640064 0.006320302840322256 0.011311383917927742 0.011248782277107239 0.008030137047171593 0.006912256125360727 0.014279037714004517 0.017437176778912544 0.012688204646110535 0.009223041124641895 0.007298291195183992 0.01651960238814354 0.006415503565222025 0.00969917792826891 0.006250435020774603 0.00735320383682847 0.006102589424699545 0.007248011417686939 0.012271801009774208 0.008459774777293205 0.013990490697324276 0.014751543290913105 0.01216154545545578 0.008767702616751194 0.008873498067259789 0.014670715667307377 0.009834438562393188 0.010145796462893486 0.009317266754806042 0.011689283885061741 0.006705782376229763 0.008657528087496758 0.009442551992833614 0.0059393420815467834 0.007274657022207975 0.010791365057229996 0.011321162804961205 0.009711312130093575 0.012409880757331848 0.008828859776258469 0.009499168023467064 0.008303279988467693 0.009551946073770523 0.00910801999270916 0.011797250248491764 0.006440832745283842 0.008462970145046711 0.009487672708928585 0.00938560999929905 0.006067659240216017 0.00803009420633316 0.009167400188744068 0.006999220233410597 0.007388385944068432 0.006694039795547724 0.01274209562689066 0.010614489205181599 0.007436759304255247 0.004982152953743935 0.009205902926623821 0.011368506588041782 0.010472415015101433 0.00682163517922163 0.0062006269581615925 0.017022646963596344 0.012510444968938828 0.013516631908714771 0.008253348991274834 0.013440565206110477 0.00834115780889988 0.00861381646245718 0.01466153934597969 0.009176816791296005 0.00794392079114914 0.010599696077406406 0.009866025298833847 0.0075711640529334545 0.012061157263815403 0.007350723259150982 0.014362331479787827 0.012754284776747227 0.014300121925771236 0.008070976473391056 0.008015694096684456 0.011216470040380955 0.010883240029215813 0.012360349297523499 0.00923028402030468 0.013443992473185062 0.011057005263864994 0.01587107963860035
时候 0.000110619236 0.0048159882 -0.0027314643 0.0005880785 0.0028215218 0.00042006653 -0.0021558302 4.179962e-05 -0.0016622173 0.0008569248 -0.002256654 -0.0048378212 -0.004326596 -0.0035361485 -0.003359842 -0.0001526624 -0.0011950552 -0.0024593025 -0.00023682555 0.0025401688 -0.0019057696 0.0041515687 -0.0035442458 0.0043259794 0.0033740867 -0.00410288 -0.003528164 -0.0013827567 0.0037832186 0.0016621142 -0.0014898491 -0.00027022883 0.004929345 0.001117642 -0.0017733811 -0.0013918246 -0.00065229647 -0.0015685929 -0.0025680696 -0.0035117636 -0.0017807239 -0.004214224 -0.0006551021 -0.0030392886 0.0036578858 -0.0022027313 0.0020730142 0.0033978447 -0.0032579345 0.004919215 0.0007602377 -0.00094790896 -0.0046847155 -0.0019923942 -0.0006502592 0.0040272 0.00062593864 0.0033417447 0.0017136247 0.00023693778 -0.00060192216 0.0023492812 -0.002479487 0.0040791295 0.0012971484 0.00016552908 0.0035288325 -0.00047563156 0.0037229331 0.0036440752 -0.0015078348 0.0013798303 0.004654051 -0.000318876 0.0036650905 -0.0020660334 0.0041417424 0.004297941 -0.0024738084 -0.00053596357 0.0033004116 -0.0015737403 0.00023572752 0.00049112877 -0.0012395901 0.0012149722 -0.0020139986 -0.0048181824 0.0030247066 -0.0026550519 -0.00039679278 -0.00043419655 0.0015115123 -0.0013551861 0.004405277 0.000640098 0.004493881 -0.0019316708 0.0025977641 0.0036499351 0.015121175441890955 0.007614366011694074 0.007309710374101996 0.007886856328696012 0.011985544580966234 0.010015001986175776 0.011481915600597858 0.009420023765414953 0.010709778871387243 0.009373803157359362 0.006323751527816057 0.011310998816043139 0.011247326154261827 0.008029812015593052 0.006912565091624856 0.014278920367360115 0.017433308996260166 0.012686408590525389 0.009226418100297451 0.007299432530999184 0.01652011089026928 0.0064159713219851255 0.009701755829155445 0.006252111867070198 0.0073547582142055035 0.006102676969021559 0.0072476358618587255 0.012270968407392502 0.008461728226393461 0.013987596146762371 0.014753044582903385 0.012160753831267357 0.00876959366723895 0.008874744176864624 0.014668365009129047 0.009834032971411943 0.010145480278879404 0.009315034840255976 0.011687403544783592 0.006705201230943203 0.008659237530082464 0.009442656766623259 0.005939242197200656 0.00727579090744257 0.010792015586048365 0.011323441751301289 0.009712493512779474 0.01240719947963953 0.008829541504383087 0.00949963741004467 0.008303374517709017 0.009551464579999447 0.009106873534619808 0.011796800885349512 0.006440275115892291 0.008463702630251646 0.00948789855465293 0.009386300574988127 0.006067843874916434 0.008030638564378023 0.009168090764433146 0.006998469354584813 0.007388117024675012 0.00669638067483902 0.01274182554334402 0.010614606086164713 0.007438728353008628 0.004983500111848116 0.009205944370478392 0.011369380634278059 0.01047056121751666 0.006823678035289049 0.006203939206898212 0.017014462500810623 0.012512243818491697 0.013515509199351072 0.008253658656030893 0.013442686293274164 0.008342330809682608 0.008613407611846924 0.014657538384199142 0.00917605310678482 0.007946410216391087 0.01059950701892376 0.009866153821349144 0.007572162430733442 0.012066749855875969 0.007351809414103627 0.014355500228703022 0.012750545516610146 0.014296395238488913 0.008072438184171915 0.008019144646823406 0.01121580507606268 0.010882419999688864 0.01236005499958992 0.009233295451849699 0.013444312382489443 0.011057357303798199 0.015866310335695744
男生 0.00054961164 0.003909098 0.00074221333 -0.0044550267 -0.0014683325 0.003084071 -0.0042305556 -0.004971299 -0.0031040907 -0.0012204628 0.0012939293 -0.003914868 -0.0019884664 -0.0035544704 -0.0011962021 -0.003050413 -0.0033159535 0.0031869654 -0.0015712809 0.0043384163 0.0027048253 0.0047871675 -0.0033018708 0.0035784747 0.0011463827 0.00052713696 0.001872004 0.0014973106 0.0007884144 0.0026205508 -0.0046481113 -0.0037721049 -0.0025874258 0.0012631756 -0.004894866 0.0021858392 0.0026149834 -0.003520171 -0.0030155021 0.00033889897 -0.0029330277 -0.0024405038 -0.004662652 0.004177252 0.0019459995 0.0039498564 -0.0047851983 0.004093118 0.0041503655 0.0024129367 -0.0032589023 0.0035574632 -0.0033754096 -0.003893138 0.00064187776 -0.004927265 0.0010452499 -0.0040019583 0.0043094493 -0.0048270947 -0.0005055843 -0.0045413044 -0.0023810475 -0.0032103602 0.00018272735 0.003264987 -0.0024174738 -0.0016318881 0.00032361923 -0.00029856572 0.0043350253 -0.00021447847 0.0010362659 -0.0026617742 -0.0047235945 -0.0004921132 -0.002346565 0.0041764164 -0.004463781 0.0042591197 0.003605592 0.0034633977 0.0037797708 -0.0030524633 -0.0027395731 0.004046442 0.0024171341 0.0015002512 -0.0037892072 -0.0032923226 0.0031343503 -0.0036307615 -0.0008337223 -0.0015423214 -0.0016248513 -0.0041389815 5.810801e-05 -0.0038678176 -0.0018399686 -0.0035689771 0.015124335419386625 0.0076134970877319574 0.007310002809390426 0.007885865867137909 0.011988779064267874 0.0100171840749681 0.01148300664499402 0.009421925526112318 0.010710319969803095 0.009374269749969244 0.006321352673694491 0.01131146727129817 0.011247041635215282 0.008030957542359829 0.006913988385349512 0.014277742709964514 0.017438368871808052 0.012687747832387686 0.009224079549312592 0.0073000406846404076 0.016524026170372963 0.00641542999073863 0.009701187256723642 0.006251957034692168 0.00735341664403677 0.006102403858676553 0.007249054266139865 0.012271409388631582 0.00845979992300272 0.013988987542688847 0.014753020368516445 0.012162994127720594 0.00876834336668253 0.00887393532320857 0.014672116376459599 0.009830628987401724 0.010144219733774662 0.009313175920397043 0.011690638493746519 0.006704987259581685 0.008657465223222971 0.009443878661841154 0.005938430316746235 0.007275632815435529 0.010794627014547586 0.011323289014399052 0.009711820166558027 0.012406738009303808 0.00882826978340745 0.009500321932137012 0.008303676266223192 0.00955174257978797 0.009107549209147692 0.011796059552580118 0.006439517950639129 0.008462483063340187 0.009490011259913445 0.00938645750284195 0.0060685500502586365 0.008030707016587257 0.00916779600083828 0.006998209049925208 0.007387923775240779 0.006694758776575327 0.012742554303258657 0.010613193735480309 0.0074384978506714106 0.0049829797353595495 0.009205419570207596 0.011370701249688864 0.01046875398606062 0.006823978619650006 0.0062039566691964865 0.017020223662257195 0.012507688719779253 0.013516883831471205 0.008254849817603827 0.013443137519061565 0.008340739645063877 0.0086125573143363 0.014657807536423206 0.009174778126180172 0.007944769691675901 0.010599094443023205 0.009865675121545792 0.007571139372885227 0.012066553346812725 0.007351519772782922 0.014353512320667505 0.012748299166560173 0.014294716995209455 0.008072251919656992 0.008017920888960361 0.011217145714908838 0.010880385525524616 0.012359521351754665 0.009230193682014942 0.013440433889627457 0.011059023905545473 0.01586949173361063
会摸 0.00074723596 2.9516406e-05 -0.0034415666 -0.0022576326 -0.0031540822 -0.004535427 0.0010761633 0.0049673906 0.0004448085 -0.0028288136 0.0025768941 -0.0020114535 0.0018054675 0.0022370405 0.0037957942 0.0026791901 0.004385789 -0.0024344788 0.0042601833 0.0042168666 -0.0027493357 -0.0010096687 0.0005872608 0.004202974 0.0043427004 -0.0011272293 0.0015367605 -0.0025261045 -0.0042180885 0.003668148 -0.0036341674 0.004749641 -0.004955047 0.0009686174 0.0023635398 0.0008975165 -2.6645605e-05 0.0015758909 0.003689549 0.0009260662 -0.002466901 -0.0033424895 -0.0044076163 0.0042619146 0.0029513435 0.0025403947 0.0029078806 0.003450457 -0.0013730412 -0.003242495 0.0041598054 -0.0045208847 -0.0012972909 0.0029198881 -0.004374887 0.0030117817 0.0035615042 -0.0019415158 -0.002171626 -0.0018611623 -0.0033687663 0.0047267685 -0.003319074 -0.004377391 0.0032152021 0.004664912 -0.0012968092 0.0011654887 0.002936488 -6.893184e-06 -0.0014342295 0.0029688952 -0.0023043489 -0.00080991583 -0.0036760038 -0.0041968785 -0.0046226727 -0.0045925314 -0.0026130027 0.0036084326 -0.0019905013 0.0008015721 -0.00308914 -0.004762994 -0.0027813928 -0.0030328268 -0.0044165 -0.0016476153 -0.0042911787 0.0021817968 0.0031929137 -0.0018666964 0.0049318 0.0044926815 0.002632901 0.0024995883 -0.0031924807 -4.0940475e-05 -0.0025320076 -0.002071635 0.015122117474675179 0.007613546680659056 0.007309124106541276 0.00788598507642746 0.011986699886620045 0.010016752406954765 0.011481674388051033 0.009420741349458694 0.010709126945585012 0.009375939145684242 0.006320827407762408 0.011311106383800507 0.011246513109654188 0.008029005955904722 0.006911788135766983 0.0142768076620996 0.017435398884117603 0.012683631386607885 0.009227195288985968 0.007300034863874316 0.01652144454419613 0.006414840696379542 0.009701500181108713 0.006250832695513964 0.007353191263973713 0.006101167295128107 0.007247582310810685 0.012269305996596813 0.008459283504635096 0.013992270920425653 0.01475508976727724 0.012161448132246733 0.00876723974943161 0.008875053375959396 0.014671044889837503 0.009833736810833216 0.010143492370843887 0.009316453244537115 0.011688743252307177 0.00670444336719811 0.008657675702124834 0.009443219751119614 0.005939252441748977 0.007274065865203738 0.010792867746204138 0.0113223847001791 0.009711746126413345 0.012407784815877676 0.008829788770526648 0.009501814376562834 0.008304246235638857 0.009552567265927792 0.009106663521379232 0.011796653270721436 0.006439107703045011 0.008462575264275074 0.009489175397902727 0.009386480785906315 0.006067147944122553 0.008029988035559654 0.009167017415165901 0.006997524295002222 0.007386792451143265 0.006694976473227143 0.012743794359266758 0.010611614678055048 0.007436435669660568 0.004983301507309079 0.009204667992889881 0.011372198816388845 0.010470888577401638 0.00682090874761343 0.006201727315783501 0.017019650898873806 0.012510860804468393 0.013517222832888365 0.008253124542534351 0.013444941956549883 0.008338164538145065 0.008611676283180714 0.014660473447293043 0.009176874533295631 0.00794379785656929 0.010597899556159973 0.009864481166005135 0.007571535184979439 0.012066192459315062 0.007351279491558671 0.014359422959387302 0.012754109688103199 0.01429654285311699 0.008070104755461216 0.008016844745725393 0.011218400206416845 0.010886622127145529 0.012362873647361994 0.009233198594301939 0.013443655334413052 0.011059974320232868 0.015870820730924606
女生 0.0038080523 -0.00011734059 0.0048113978 0.00051890826 -0.0017010677 -0.0047096084 0.004121905 0.0007251487 -0.00305293 0.004838271 -0.003263861 -0.0013840096 -0.001080553 0.0014615557 -0.00086777564 -0.004015101 -0.0032133919 0.00367737 -0.0025786685 -0.0010708296 0.0021655816 0.0041816207 -0.003057348 -0.0020659696 -0.0013648593 0.00037374906 0.0037001465 0.00045462605 0.0031671086 -0.0047848574 0.003110719 -0.0024775243 -0.0036021632 -0.0037068198 0.004288162 -0.00270064 0.0021478976 0.00085414667 0.0034307241 0.0005465639 0.0030161114 0.00073997397 -0.0012788402 -0.0045531862 -0.0048537157 -0.003479343 -0.00441388 -0.004680148 0.0044134995 0.0032835826 0.004150519 -0.0041141175 0.0015288913 -0.0023943936 -0.0019450437 0.0044645714 -0.00073878467 -0.0040257312 0.0012035226 0.0047153803 0.0031133518 0.0016394891 -0.0022590195 0.00054227887 -0.0012933409 -0.0038932662 0.0046648523 -0.004045612 -0.003118245 0.0041517075 0.0029794592 -0.0040501463 -0.0038162272 0.00091922935 -0.00053495355 0.0039297836 0.00085712085 0.0002789367 -0.00088798534 0.00016712211 -0.0020353596 -0.0035798508 0.00014982652 -0.003082471 -0.0017980647 -0.00064042164 -0.0001295046 -0.0012060576 -0.0021065504 0.0003405516 -0.0043998016 -0.00097077107 -0.004689114 0.0035146344 0.0003309073 -0.0011477792 -0.00027056457 0.0006541256 -0.0028368395 0.0017372216 0.015125647652894258 0.007612212328240275 0.007309423992410302 0.007885027211159468 0.01198637019842863 0.01001704577356577 0.011480987071990967 0.009422428905963898 0.010709736496210098 0.0093738310970366 0.0063209496438503265 0.011312414426356554 0.011247067712247372 0.008028737735003233 0.0069132000207901 0.014277227688580751 0.017437121830880642 0.012686742004007101 0.009223702363669872 0.007298371521756053 0.016523152589797974 0.006414590869098902 0.009699380490928888 0.0062506229151040316 0.007352700922638178 0.0061014213133603334 0.007246990222483873 0.012272113468497992 0.008459148928523064 0.013991473708301783 0.014753459487110376 0.0121629205532372 0.00876760482788086 0.008875119034200907 0.01467279251664877 0.00983063317835331 0.010142795275896788 0.009315123315900564 0.011691143736243248 0.006705679930746555 0.00865713506937027 0.009444782976061106 0.005937061971053481 0.007275208132341504 0.010793250985443592 0.011323400773108006 0.009713177103549242 0.012406652793288231 0.008829148951917887 0.009501666761934757 0.00830324087291956 0.009551080409437418 0.009106212295591831 0.011798780877143145 0.006437783595174551 0.008462506346404552 0.009490555617958307 0.009386871475726366 0.006067539798095822 0.008030256256461143 0.009166110772639513 0.0069984199944883585 0.007387062534689903 0.006694005103781819 0.012743151281028986 0.010613348800688982 0.007437783759087324 0.004982494981959462 0.009204704314470291 0.011372036300599575 0.010469980537891388 0.006821272661909461 0.006201940588653088 0.017026853747665882 0.012509739492088556 0.013517784420400858 0.00825443584471941 0.013443125877529383 0.008339195512235165 0.008612400852143764 0.014661790803074837 0.009174168575555086 0.007943079341202974 0.010598289780318737 0.009864116087555885 0.007569838082417846 0.01206813519820571 0.007351999869570136 0.014358011074364185 0.012752374168485403 0.014297015964984894 0.008070697542279959 0.008017178624868393 0.011217479594051838 0.010882213711738586 0.012359776068478823 0.00923010939732194 0.013444794807583094 0.011057622265070677 0.015871998853981495
胸部 0.0028356053 0.0014409325 -0.0013560373 -0.000621276 0.0010742084 0.001123718 0.003998355 -0.0041065654 -0.004550991 -0.0025538444 -0.002306369 -0.0021238243 0.0005975943 0.0049381237 -0.004020042 0.0012254976 -0.0012264436 -0.00018095598 0.0007904265 0.0035610534 -0.0032591159 0.0047922833 0.0015057456 -0.0033263492 -0.0047382587 -0.0038398008 0.0010271524 0.0041161934 0.0010488252 0.0005679005 0.0012562643 -0.0010997772 -0.0034282021 0.0006866115 0.002746407 -0.00087694684 0.0024504839 0.0006123334 0.004730556 -0.004742495 -0.0029719109 -0.004705611 -0.0033021364 -0.0012147336 0.0018395428 0.00024977326 0.0012171818 0.004784515 0.0011115302 0.004292692 0.003259805 -0.004577279 -0.0037531238 0.0031878958 0.0011625527 -0.0010928679 0.0017854273 -0.0029787135 -0.0009830683 -0.0003142082 -0.0006875796 0.0018815361 0.0041613486 0.0020002825 -0.0040515917 0.00317341 -0.004899268 0.0028050658 0.0008890843 0.004970301 0.004049382 0.004494413 -0.00078592217 -0.002240382 -0.0012406183 -0.0028822236 -0.0017921103 -0.001385597 0.0033188835 0.0010515051 0.0018447787 -0.0017951364 0.0015491815 -0.0019068127 0.0036863592 0.0042146808 -0.000425776 0.003378288 0.0015304754 0.0010684724 -0.0010655401 -0.0014405781 -0.0023093992 -0.00026423344 -0.000568782 -0.0005269451 0.0019966532 0.0033105984 -0.002255324 0.0017367247 0.015122711658477783 0.007615526206791401 0.0073103944305330515 0.00788714736700058 0.01198509382084012 0.010016547981649637 0.011482486966997385 0.009423214476555586 0.010712251998484135 0.00937736826017499 0.006322658155113459 0.011308708228170872 0.011249008122831583 0.00802988512441516 0.006914158351719379 0.014278338756412268 0.01743478700518608 0.012686149682849646 0.009225666057318449 0.0072996283415704966 0.01652028877288103 0.006415967363864183 0.009703631047159433 0.006251281825825572 0.007355335401371121 0.00610304856672883 0.0072503897827118635 0.012268044520169497 0.00846243929117918 0.013983478769659996 0.014752265997231007 0.012159631587564945 0.008765459060668945 0.00887530529871583 0.014671390410512686 0.0098314736969769 0.010143504943698645 0.009313886053860188 0.011687112040817738 0.00670740008354187 0.008658021688461304 0.009441614151000977 0.0059400268364697695 0.0072768088430166245 0.010793202091008425 0.011322013568133116 0.00971177825704217 0.01240706816315651 0.00882700365036726 0.00949950609356165 0.008305616211146116 0.00955292908474803 0.009107498917728662 0.011794953607022762 0.00644133216701448 0.008461903315037489 0.009490055497735739 0.009385418612509966 0.006070240866392851 0.008030390366911888 0.009167450480163097 0.006998236058279872 0.00739089515991509 0.006697601638734341 0.012740875128656626 0.01061117323115468 0.007439175387844443 0.004985264968127012 0.009205276612192392 0.011368999723345041 0.010470682755112648 0.006823641713708639 0.006203870289027691 0.017015619203448296 0.01250821491703391 0.013514779973775148 0.008253192994743586 0.013442200608551502 0.008341249544173479 0.008612995501607656 0.014654978178441525 0.009176644030958414 0.007947113364934921 0.010600231122225523 0.009866143576800823 0.007572255562990904 0.012064643204212189 0.007351751439273357 0.01435561291873455 0.01274970406666398 0.01429347088560462 0.008071572985500097 0.00801742821931839 0.011219637002795935 0.010885662864893675 0.012360214721411467 0.00923215365037322 0.013439769856631756 0.011060173157602549 0.015869001857936382
汽车 0.0034995265 0.0047393227 0.000270837 -0.0015528845 0.0004976215 0.0023988234 -0.004848553 -0.003504166 -0.002585685 0.0016883998 0.0027682744 -0.0037689817 0.00436347 -0.0005707308 0.0038263518 0.003733362 -0.0013846243 -0.0035451066 0.0011081342 -0.00034490367 0.004079557 0.0011775522 -0.001395039 0.0022309232 -0.0015134513 0.0019125594 0.0042910418 -0.003624903 0.0018265084 -0.00017307978 0.0017228597 0.004856048 0.003597931 -0.00040877517 0.004197471 0.0045456067 -0.00089869974 -0.00067191897 -0.0013092547 0.0038289484 0.0017042835 -0.0031114845 0.0023428719 -0.0043297824 -0.0032673108 0.0008034664 -0.0028148924 0.004285101 -0.0045089796 -0.0024812906 -0.0046023717 -2.4563167e-05 0.0043148417 0.000647862 0.00043257093 0.0011972524 -0.0040087067 0.0034842538 0.001582439 0.001685081 -0.0046184286 -0.003387045 0.0024074567 -0.00052444683 0.0033966396 -0.0015580601 0.0045744674 -0.0011963267 -0.0035800324 0.0037350478 -0.0004414688 0.0007433151 0.0031806417 -0.0035413252 0.0029980196 0.0014655311 0.0009446386 -0.0022404867 0.0047833575 -0.00070388056 0.0024985755 -0.0015593213 -0.0025362568 0.0028202971 -0.0033934615 0.003334253 -0.0004866463 0.0028674826 -0.0034055775 0.003333983 -0.0049720095 0.0023673153 -0.0023243867 0.003354039 -0.0043415152 -0.0027919107 0.0005624108 -0.0031885474 -0.0040777666 0.0045844885 0.015124162193387747 0.0076134593691676855 0.007310337387025356 0.007885545026510954 0.011986440047621727 0.01001689676195383 0.011479782871901989 0.009422723203897476 0.010708991903811693 0.009375151246786118 0.00632297364063561 0.011314158327877522 0.011246861889958382 0.008029744494706392 0.006914559984579682 0.014275594614446163 0.017431077547371387 0.01268704328685999 0.009226341731846333 0.007299210410565138 0.016519568860530853 0.006416575284674764 0.009701410308480263 0.00625191442668438 0.007353988941758871 0.0061033302918076515 0.007249822374433279 0.012270350940525532 0.008459877222776413 0.013987323269248009 0.014748384710401297 0.01215934893116355 0.0087684765458107 0.008874941617250443 0.014669602736830711 0.009834291879087687 0.010146296583116055 0.009314579889178276 0.011687965597957373 0.006706474348902702 0.00865783030167222 0.009443265851587057 0.005941092502325773 0.007275455631315708 0.010793200694024563 0.011321583297103643 0.009714540559798479 0.012408598326146603 0.008828755933791399 0.009501042310148478 0.008304391521960497 0.009553350508213043 0.009107972029596567 0.01179494010284543 0.006440474884584546 0.008462365251034498 0.009489178191870451 0.009387418162077665 0.00606958381831646 0.00803059758618474 0.009167592041194439 0.006998974829912186 0.0073913398664444685 0.006696164608001709 0.012742040678858757 0.01061258651316166 0.007439243607223034 0.004985084291547537 0.00920621445402503 0.011369759682565928 0.01047084666788578 0.006823013769462705 0.006205023033544421 0.01701914705336094 0.012510094325989485 0.013512397650629282 0.008254863321781158 0.013442799914628267 0.00834084814414382 0.008614469319581985 0.014658927451819181 0.009177041705697775 0.00794663280248642 0.010598217137157917 0.009864728897809982 0.007571041816845536 0.012067027390003204 0.007352419663220644 0.014355908613651991 0.012749580200761557 0.014290959108620882 0.00807015085592866 0.008019009605050087 0.011217765975743532 0.010881091468036175 0.012358910404145718 0.009231730829924345 0.013440379872918129 0.011058948002755642 0.015865781344473362
行业 -0.0027779066 0.0017258059 0.0037154183 0.0036516562 -0.004079234 -0.0029683136 0.0037928196 0.0017845314 0.004502166 0.0035829376 -0.0038397282 0.0036438406 0.0042172624 0.00032137195 -0.004677667 0.002898273 0.0026432322 -0.00013009831 0.0015978939 -0.0018409567 -0.0032291114 0.0038632434 0.0049780877 -0.0028349608 0.0024222354 -0.0029266244 0.0019518635 0.0030098418 0.0031190673 6.483216e-05 -0.0039313585 0.004445495 0.0031671328 -0.0037953728 0.003848346 0.0005696099 0.0047441544 -0.0032702088 -0.0015910827 0.003944697 0.0015778458 -0.0020089513 -0.0013155479 -0.0044866567 -0.0014136373 0.0031275842 0.003543998 0.0012169485 0.004990382 0.0034408541 0.001993665 -0.004112687 0.00022302754 0.003282765 0.0025692587 -0.0038389103 -0.0028546357 0.0013416815 0.004490705 -0.0007486553 0.002757392 -0.0008890121 0.0010777712 -0.0048670014 -0.0033095102 -0.0048151 0.0015875478 -0.0005630865 0.0038677072 -0.0018888789 0.0046145283 0.0027152542 -0.0038131224 0.0022719353 -0.00022633793 0.0010367488 0.0012973724 -0.0006092824 -0.0011356336 0.0021847985 0.0039395066 -0.0044707465 0.0023606159 -1.8120278e-05 0.0016857409 -0.0046274224 0.004173151 0.004308111 0.0044488283 -0.0048555434 0.0028621145 0.0034496589 -4.2308588e-05 -0.0018239457 0.0031285975 0.0014651166 0.0021323734 -0.002734809 -0.0015985714 -0.0047267256 0.015121749602258205 0.007615014677867293 0.007312065688893199 0.00788811407983303 0.011983816977590322 0.010017318651080132 0.011478547938168049 0.009422465693205595 0.010707188863307238 0.009377740323543549 0.00632423791103065 0.011312336195260286 0.011247613001614809 0.008031750097870827 0.006916529266163707 0.01427342277020216 0.017425579018890858 0.012684997171163559 0.009226750582456589 0.0073001577984541655 0.016513368114829063 0.00641758949495852 0.009700941387563944 0.0062528857961297035 0.007355268811807036 0.006104550790041685 0.007249455666169524 0.012272246647626162 0.008462218567728996 0.01398670207709074 0.014750403352081776 0.01216105930507183 0.008768864907324314 0.008876006118953228 0.014669821131974459 0.009833410382270813 0.01014417177066207 0.00931675173342228 0.011686366517096758 0.006708541652187705 0.008657683618366718 0.009444152005016804 0.005941317183896899 0.007276824908331037 0.010792944114655256 0.011322605889290571 0.009714726358652115 0.012405253015458584 0.008830550126731396 0.009502043947577477 0.008305360097438097 0.009552957024425268 0.009108451195061207 0.011797648388892412 0.006442781770601869 0.0084635098464787 0.009488838724792004 0.009384927805513144 0.006070586619898677 0.008031024131923914 0.009169025346636772 0.007000456098467112 0.007390215992927551 0.0066978109534829855 0.012739003635942936 0.010613629594445229 0.007439724635332823 0.0049857101403176785 0.009206342976540327 0.011368796229362488 0.010471409186720848 0.0068253763020038605 0.006203604629263282 0.017011795192956924 0.012510478962212801 0.013513675890862942 0.008255290798842907 0.013442934025079012 0.008338762447237968 0.008615677710622549 0.01465553231537342 0.0091768903657794 0.007945680990815163 0.010596426669508219 0.009862797800451517 0.007572973147034645 0.012067547999322414 0.007353106513619423 0.014352625235915184 0.012749269139021635 0.014294519554823637 0.00807098438963294 0.008018552791327238 0.011216592974960804 0.010881562251597643 0.012356990948319435 0.009232371114194393 0.013442832510918379 0.011057929135859013 0.0158629072830081
有 0.0036384221 0.0008335458 -0.0015546447 0.0014820658 -0.0042638583 0.0020864182 0.0012969631 -0.0045709983 0.0041610524 -0.0030805082 -0.0048448574 -0.003984757 0.0031466968 0.0036706422 0.00041759154 0.003030097 0.0013969429 -0.0030969828 0.0038237823 -0.0045500044 0.0025586803 0.0020651175 -0.0036808967 -0.0022127728 0.004570502 0.00450264 -0.0004228265 -0.0002515493 -0.0021455062 -0.0036733774 -0.0011760814 0.0002985322 -0.0007271962 -0.0016485429 -0.0021268635 0.00033255108 0.0024773069 -0.0041241865 0.0011585029 -0.004861574 -0.004413943 -0.0022788136 -0.0045051337 0.0011023129 0.0029576588 -0.002144593 -0.0009937803 0.0009803534 -0.0032016258 -0.004115762 0.0010593478 0.0002041324 0.0009723995 -0.00017817505 0.0015492467 0.0031172587 -0.0028073567 0.002208883 0.004824925 -0.0020928788 -0.0012366737 -0.0046604406 0.00053027226 0.0040108124 -0.004391928 -0.0043125176 -0.0026267034 0.004959028 0.0006331713 0.000116121955 0.002312711 -0.00040428946 0.0015721074 0.0046451166 -0.0011313683 0.0012486922 -7.2761904e-05 0.003918172 0.00450111 0.0023748954 0.003057615 -0.0036645667 0.0027241642 -0.00037832558 -0.001973052 -0.004317244 -0.0009647487 -0.0035484915 0.0020971876 0.0022374238 0.0009946083 -0.0027308725 0.0038637687 -0.0031590539 -0.0025965297 -0.0006825179 -0.0041561555 -0.004960662 0.0043657133 0.0044545988 0.015120276249945164 0.00761290593072772 0.007312986999750137 0.007887382060289383 0.01198574062436819 0.01001683808863163 0.011479822918772697 0.009421833790838718 0.010709242895245552 0.009375314228236675 0.0063245962373912334 0.011312945745885372 0.011246902868151665 0.008033538237214088 0.006917268969118595 0.014276712201535702 0.017426874488592148 0.012686985544860363 0.00922777783125639 0.007300114259123802 0.016517795622348785 0.0064180875197052956 0.009702105075120926 0.006254842970520258 0.007356582209467888 0.006105378735810518 0.007250969298183918 0.012268487364053726 0.00846089981496334 0.01398470439016819 0.014749565161764622 0.01215729583054781 0.008768372237682343 0.008875706233084202 0.014665355905890465 0.009835492819547653 0.010143683291971684 0.009313082322478294 0.011688776314258575 0.006707955617457628 0.008660688064992428 0.00944625772535801 0.005941797513514757 0.007276897318661213 0.010793433524668217 0.011322169564664364 0.009714349173009396 0.012403985485434532 0.008830525912344456 0.009502488188445568 0.008305042050778866 0.00955148134380579 0.009108508937060833 0.011795290745794773 0.006442529149353504 0.008463555946946144 0.009489077143371105 0.009386622346937656 0.00606852350756526 0.0080301808193326 0.009168939664959908 0.007001587655395269 0.007391203660517931 0.006697260774672031 0.012738539837300777 0.010612049140036106 0.007443838287144899 0.004986238665878773 0.009206965565681458 0.011370545253157616 0.010471664369106293 0.0068247951567173 0.00620568823069334 0.01701570302248001 0.012507649138569832 0.01351119764149189 0.008257443085312843 0.0134409936144948 0.008341506123542786 0.008615853264927864 0.014655123464763165 0.009176387451589108 0.00794806145131588 0.010597459971904755 0.009866938926279545 0.007571563124656677 0.012066591531038284 0.007353525608778 0.014348620548844337 0.01274625863879919 0.014287429861724377 0.00807090476155281 0.008019456639885902 0.011216799728572369 0.010878858156502247 0.012356884777545929 0.009231622330844402 0.013441119343042374 0.01105773076415062 0.015864428132772446
笑话 0.0009482815 0.0037359865 0.00068215886 -0.004530396 -0.00015462935 0.0041425917 -0.00180979 0.0018300195 0.0038370034 -0.0007687006 -0.0043650065 -0.00055202143 -0.0017117846 0.0023064339 -0.00044200523 -0.004820616 -0.0019324995 0.001117962 0.0021838294 0.001218739 0.0025011492 -0.004477255 0.004501798 -0.0041401247 -0.0017921077 0.0021986673 -0.0008544596 0.0044111414 -0.0018041516 -0.0025551743 -0.0040733772 -0.0026652084 0.0031844946 0.003697929 -0.0009078807 -0.0021745746 -0.004825448 -0.0035094977 -0.002117943 0.0016272473 0.0028026276 0.003023806 -0.0001678504 -0.0030049032 0.0039864564 0.0007688836 0.0032799533 -0.001596021 0.0009356616 -0.0044874502 -0.0003438727 -0.0018590647 -0.0022237087 -0.0021975648 -0.0026711558 -0.0044922386 -0.0014809077 -0.0024824648 -0.00043498492 0.0017156778 -0.0022204316 -0.0008407999 -0.0014690685 -0.002929208 -0.0016836773 -0.00064172875 0.0010812199 -0.0037833063 -0.0022462248 0.00060773967 0.0047501978 -0.00028899917 0.0005765022 0.00033110334 -0.0037427736 0.0035124319 -0.0027246487 0.0034570703 -0.0023430132 -0.0031895798 -0.0034277623 -0.0034977961 -0.003174086 0.0037114294 0.0021026502 0.004989744 0.00069654454 0.0047540655 -0.0026494628 0.00030452292 -0.0002195877 0.0049528014 -0.0034525078 0.00070512015 -0.00043725967 -0.00079460256 0.0042031994 -0.00246903 0.00014603185 -0.0033063733 0.015123225282877684 0.0076133806724101305 0.007308306405320764 0.007886311504989862 0.011987087316811085 0.01001559104770422 0.011480872519314289 0.009420945774763823 0.010709348134696484 0.009375343099236488 0.006320942658931017 0.011311141308397055 0.011247101239860058 0.008029845543205738 0.006913641933351755 0.014280299190431833 0.0174337113276124 0.012686788104474545 0.009224758017808199 0.007300795055925846 0.01652391441166401 0.006414595991373062 0.00970133999362588 0.006251267855986953 0.0073549041990190744 0.006101065082475543 0.007248963927850127 0.012272279243916273 0.008459500037133694 0.0139893121086061 0.014755781274288893 0.012160690501332283 0.008768165949732065 0.008875797968357801 0.014671763870865107 0.009834831580519676 0.010144882369786501 0.009315418545156717 0.011690950021147728 0.0067063276655972 0.00865844776853919 0.009443676099181175 0.005938158603385091 0.007274739909917116 0.010792130138725042 0.011320804245769978 0.009711588267236948 0.012406967580318451 0.008831470739096403 0.009501414373517036 0.008301928173750639 0.009551968425512314 0.009108372032642365 0.011797097977250814 0.006438408279791474 0.008463214617222548 0.009488150011748075 0.009386297315359116 0.006068219197914004 0.008033855352550745 0.009165595285594463 0.006998655153438449 0.007388586411252618 0.0066956644877791405 0.012740249279886484 0.010613140184432268 0.007437409134581685 0.00498321745544672 0.009206388145685196 0.011371797882020473 0.010469959117472172 0.006821571616455913 0.006204045843333006 0.017019310034811497 0.01250706147402525 0.013518427032977343 0.008252935018390417 0.013442046474665403 0.008341101929545403 0.008612905628979206 0.014656161423772573 0.009175409562885761 0.007945149205625057 0.010599474422633648 0.009864492807537317 0.007573214592412114 0.012068262323737144 0.007350871106609702 0.014356447383761406 0.012751205824315548 0.014295651111751795 0.00807024585083127 0.008016909006983042 0.011216626036912203 0.010880834423005581 0.012359829619526863 0.009231332689523697 0.01344055449590087 0.011061951518058777 0.0158671448007226
如何 -0.00259868 0.000893482 0.0011704955 0.0048022354 0.0032173246 -0.0039859237 -0.0011104739 -0.0041078944 0.0020433883 0.0016414924 0.0030554011 0.00076755695 0.0033967784 0.0024213064 0.0005716975 -0.0010472857 0.0034484863 0.0032325191 -0.00196409 0.003496279 0.0018457789 -0.0028735178 0.0038135666 0.0013242243 0.0010312991 0.002044702 0.0023496896 0.0011714562 0.0013962323 -0.0042437054 -0.0030088031 -0.0030934631 -0.003505047 0.0014785868 0.0047655804 0.0036799563 0.0026282966 0.0016655214 0.0008002748 0.004632539 -0.003735752 -0.0021442669 -0.003943424 0.0019094031 0.0012442898 0.0027835332 -0.004083098 -0.00023335172 0.0033907164 0.002011754 0.004814443 -0.0011655504 -0.0013827228 0.0044933427 -0.0011149675 -0.00031914515 0.00056420686 0.00071496796 -0.0049419487 -0.0008469466 0.00043526106 -0.0035581738 -0.00013550417 -0.0024118274 0.00067569176 -0.0049857246 0.0040143197 0.00065505365 1.9482337e-05 0.0023038029 0.00088056736 -0.00071634306 0.0011796718 -0.0034042094 -0.0035371915 -0.00478987 0.0036531482 -0.0031037175 0.00384665 0.0027615242 0.0014679818 -0.004550528 -0.0027504181 -0.0035912762 0.0040262826 0.0013837544 0.0045680534 -0.0013568443 -0.003958343 0.0026664487 -0.003946146 -0.0025006633 0.0040333774 -0.0022829515 -0.0009922772 -0.0012544394 -0.0037418562 0.0023980583 0.0034292182 0.0006358903 0.015122596640139818 0.0076146668288856745 0.007310887798666954 0.007887084037065506 0.01198544166982174 0.010015364736318588 0.011479715816676617 0.009421361610293388 0.010709417052567005 0.009377800859510899 0.006321782013401389 0.011310724541544914 0.01124692102894187 0.008030861616134644 0.006913861958310008 0.01427884679287672 0.017435209825634956 0.012685715686529875 0.009224085602909327 0.0072978888638317585 0.016521009616553783 0.006415817653760314 0.009702365845441818 0.0062529295682907104 0.0073557328432798386 0.006103350548073649 0.0072500614915043116 0.012273473665118217 0.008459847420454025 0.013988808263093233 0.014752063434571028 0.012159524485468864 0.008768332656472921 0.008875978644937277 0.014673080295324326 0.009832696989178658 0.010144692845642567 0.009314845781773329 0.01168925128877163 0.0067061020527035 0.008657330181449652 0.009442901704460382 0.005940316012129188 0.007275995798408985 0.010790512897074223 0.011322037316858768 0.009709957521408796 0.012406768277287483 0.00883001321926713 0.009499596897512674 0.008305080700665712 0.009549025911837816 0.009107931517064571 0.011797927785664797 0.006440098164603114 0.008463168516755104 0.009489444084465504 0.009386887308210135 0.006068024318665266 0.008030286524444818 0.009169059805572033 0.006998890079557896 0.0073898055125027895 0.006696018856018782 0.012741217389702797 0.010615915525704622 0.0074390817899256945 0.004984714323654771 0.009207013994455338 0.011367671191692352 0.010470959357917309 0.006822345079854131 0.006203744560480118 0.017013235948979855 0.01250788290053606 0.013516690582036972 0.008254433516412973 0.013443276286125183 0.008340481668710709 0.00861268024891615 0.01465622428804636 0.009176620747894049 0.007944857235997915 0.010597639251500368 0.009865243453532457 0.007570690708234906 0.012065923307090998 0.007351383334025741 0.014353752136230469 0.012751086615025997 0.014295123517513275 0.008072399534285069 0.008018134627491236 0.011219111271202564 0.010884909890592098 0.012359760235995054 0.009231472853571177 0.013442602939903736 0.011056567542254925 0.01586788985878229
快速 0.0044848826 0.0018005753 0.0025918004 -0.003903929 0.0013761497 -0.0014945678 -0.0044170176 -0.0021369779 -0.003462892 0.004361526 -0.004566252 0.0041315267 -1.2620818e-05 0.004374344 -0.004380031 0.0019827834 -0.0011513317 0.0031634895 0.0047083786 0.00037556514 -0.00048327493 -0.0034462612 -0.0049410984 -0.0038024776 0.0037466064 0.0040687416 -0.0018396073 0.004703425 0.002333118 0.001435746 0.0035642553 -0.0036761514 0.0020346087 0.002017241 -0.0031016213 -0.0008858829 0.0048223836 -0.0018942582 0.0032681478 0.0041438034 -0.002692452 0.0008846079 -0.0028126729 -0.0002457602 0.00017332472 0.001482585 0.0031853523 0.003328667 -0.0026783335 -0.00015664892 -0.0005062707 -0.00161542 -0.0012806719 -0.0013695145 0.0038620168 -0.0010651499 0.0014017425 -0.003386762 0.0006885235 0.00041762693 -0.0011776984 -9.739399e-05 -0.002639082 -0.004324551 0.0036973096 -0.00050014677 0.0042764563 0.004987916 0.0029696776 0.0036122072 -0.0046039545 -0.0036655203 -0.0023585712 -0.0027222664 6.1626546e-05 -0.0043864087 -0.0024450754 -0.0004145936 -0.0011107433 0.0022849524 -0.0016491157 0.0020223712 -0.0017440866 0.0019935975 -0.002117769 0.0041997684 -7.906789e-05 -0.004347697 0.0038360097 0.0033168495 0.0025206213 -0.004532067 -0.0034450213 0.003988955 0.0022310517 0.0017855661 0.0036823275 0.0047176117 -0.0045194905 0.0026264042 0.015120556578040123 0.007613105932250619 0.0073106661438941956 0.0078872493468225 0.011984856333583593 0.010016048792749643 0.011481514666229486 0.009422142058610916 0.01070865010842681 0.009375681634992361 0.00632234220393002 0.01131021836772561 0.01124854851514101 0.00802896311506629 0.006913763238117099 0.014276803936809301 0.017433682456612587 0.01268499530851841 0.009224357549101114 0.007299454649910331 0.01651885826140642 0.006415688432753086 0.009702173061668873 0.0062508664559572935 0.007354700937867165 0.006102434126660228 0.007247707340866327 0.012273745145648718 0.008462897036224604 0.013988673221319914 0.014751579612493515 0.012162243947386742 0.008767317049205303 0.008876228705048561 0.014672042336314917 0.009833174757659435 0.010144863743335009 0.009315602481365204 0.011691121850162745 0.0067057388368994 0.008657579775899649 0.009443301241844893 0.0059386733919382095 0.0072757042944431305 0.010791101027280092 0.011323472019284964 0.009711386170238256 0.012407328002154827 0.008830037899315357 0.00950115779414773 0.008302112575620413 0.00955294631421566 0.009109820239245892 0.01179773360490799 0.0064406979363411665 0.00846297200769186 0.009489716961979866 0.009385605808347464 0.006068398477509618 0.008030748926103115 0.009167046286165714 0.006998919183388352 0.007387493038550019 0.006696613738313317 0.012741939630359411 0.010614885482937098 0.00743907131254673 0.00498421466909349 0.009203216526657343 0.011372037697583437 0.010469899512827396 0.00682365451939404 0.006204027682542801 0.01701661292463541 0.012505927588790655 0.013516370207071304 0.008254565298557281 0.01344115985557437 0.00833913590759039 0.008613486774265766 0.014658508356660604 0.009175021667033434 0.007945949211716652 0.010600252076983452 0.00986563740298152 0.0075711640529334545 0.012068118900060654 0.0073525807820260525 0.014356604777276516 0.012749996967613697 0.014294002205133438 0.008070660289376974 0.008018957916647196 0.011216408107429743 0.01088306913152337 0.012360700406134129 0.009230728726834059 0.01344261784106493 0.01105890003964305 0.015868068672716618
去除 0.002219758 0.001837628 -0.0003621336 0.0023557823 -0.0012597132 -0.00021267636 0.0007090061 -0.004865824 -0.0046617864 0.004325738 -0.0024705385 0.004131997 0.0005513085 0.0014769081 0.0025101234 0.0042747734 0.0017923331 0.0008076541 -0.00032164808 -0.0018067139 -0.0033490108 -0.0039232527 -0.0023727142 0.0040649483 0.004240662 0.0035164617 0.0028611822 -0.001094209 -0.00029403856 0.0034069484 -0.00092992187 0.0016653705 0.0010285014 -0.0016154826 0.00037941057 -0.001618443 -0.004069408 0.0015961574 -0.0010742391 0.0036094831 -0.000425803 0.00050841644 -0.00029129442 0.0035290485 0.0029840674 -0.004897156 0.0025551869 0.0021626865 -0.0035848068 0.0040801456 0.004570528 0.0014768504 0.0035046432 -0.0018181491 0.0019088131 0.004929971 0.000718358 0.0013311747 -0.00458924 -0.00024070498 0.0014345916 -0.00069810636 -0.004152296 -0.0012122851 -8.694455e-05 0.0025119744 0.00031528063 -0.004077313 0.0003716196 0.002514658 -0.0010539507 0.00071590766 -0.001387533 0.0025570323 -0.0024317412 0.0034188423 -0.0010227072 -0.0028289598 0.0028086137 -0.0013773162 -0.001851012 0.004748591 -0.001723703 -0.0038572792 -0.0018205326 -0.0023826044 -0.0016049927 -0.00018169591 0.0049237628 0.002697446 0.0041850414 -0.0005395366 -0.00011478318 -0.004436012 0.0046305116 -0.003806095 0.004001988 -0.001895573 0.0012127161 0.00081032095 0.01512171421200037 0.00761408475227654 0.007308439118787646 0.007886842358857393 0.011986539233475924 0.010015780571848154 0.01147924643009901 0.009422410745173693 0.010708977468311787 0.00937406113371253 0.0063230060040950775 0.011310257483273745 0.011247710790485144 0.008030365221202374 0.0069139155093580484 0.014275416731834412 0.017434113658964634 0.012685960624366999 0.009225691668689251 0.00730059202760458 0.016521126963198185 0.006414799951016903 0.009701340924948454 0.00625026342459023 0.007354741217568517 0.0061026818584650755 0.007249424932524562 0.012269278056919575 0.008461169432848692 0.013992019463330507 0.014749995898455381 0.012161190621554852 0.0087689608335495 0.008874869905412197 0.014669820666313171 0.009833819698542356 0.010143256280571222 0.009314581286162138 0.011688427068293095 0.006706734420731664 0.008657824248075485 0.00944479601457715 0.005938878748565912 0.0072750740218907595 0.010791347362101078 0.011322381906211376 0.009711953345686197 0.012406593654304743 0.008829494938254356 0.009500468149781227 0.008303511887788773 0.009551104623824358 0.009107428602874279 0.011796080507338047 0.006440147990360856 0.008463384583592415 0.00948829110711813 0.009385927580296993 0.006068408489227295 0.008030318655073643 0.009166263043880463 0.00699736806564033 0.007389069767668843 0.006695195334032178 0.01274121180176735 0.010614299681037664 0.007439107168465853 0.004983515944331884 0.009203558322042227 0.01136917294934392 0.010469341184943914 0.006822862662374973 0.006203469587489963 0.01701693143695593 0.012511121109127998 0.013516175094991922 0.008253857027739286 0.013442759867757559 0.00833919458091259 0.008615021128207445 0.014658748172223568 0.00917666731402278 0.007944919634610415 0.010597831569612026 0.009866646025329828 0.007571684196591377 0.012066815048456192 0.007351653883233666 0.014358091168105602 0.012753815855830908 0.014295869041234255 0.008071660995483398 0.008018548134714365 0.011218308936804533 0.010884088464081287 0.012361481785774231 0.009233198594301939 0.013443286996334791 0.011059566866606474 0.015870537608861923
前 -0.0022216171 0.0043893196 -0.0002710116 -0.004249769 -0.0003660526 -0.0019191427 0.0023945319 -0.0022645555 0.004324482 0.003979277 0.00038426276 -0.003896194 -0.004434681 -0.0015395349 0.00413128 0.003751806 0.0022521722 0.004468384 -0.0035942744 -0.00087133935 -0.0037722127 0.0003260821 -0.0037426585 0.00085668964 -0.0004646764 0.0033454169 0.00425463 -0.0005257409 -0.0047679073 0.004620604 -0.0013766873 -0.00286103 0.004599261 0.0047561163 0.00047353376 0.0012016702 0.0043961657 0.002865022 0.0011651297 -0.0039145504 -0.00080858124 -0.004432235 0.0025648521 -0.0005459632 -0.0011173314 0.0029917508 0.0012460146 -0.0012124525 0.0034236806 -0.00027427962 0.0013512871 0.00050652074 0.004352101 0.003519427 0.002184343 -0.0037930452 -0.0022645867 -0.0011433905 -0.00076876814 -0.000619201 -0.00152359 0.0025983802 4.5469496e-05 0.00036853412 0.003212125 -0.0028469376 -0.00014146371 -0.0041112015 0.0006533731 -0.0016245001 0.0038878713 0.00027581025 0.0022472995 0.0031148205 -0.0022294605 -0.0048626275 0.00092061283 -0.0028521537 0.0010515964 0.0030430742 -0.0025766129 0.003927502 -0.0044510085 0.004263511 -0.0005205171 0.0012758235 -0.0010791766 -0.00037871161 0.0009545381 0.0027618324 0.0032586344 -0.0033902908 0.0044829277 -0.0021080428 -0.0028336924 0.0042176424 -0.003053342 0.0033979425 -0.003758235 0.0029679257 0.015129395760595798 0.007612620946019888 0.0073068393394351006 0.007888581603765488 0.011982472613453865 0.010012980550527573 0.01147978100925684 0.009420646354556084 0.010708627291023731 0.009375088848173618 0.006320545449852943 0.011311725713312626 0.011247871443629265 0.00802859477698803 0.006912650540471077 0.014276715926826 0.01743507757782936 0.01268711220473051 0.009226183407008648 0.007298505865037441 0.01652010716497898 0.006413554772734642 0.009699717164039612 0.006250722333788872 0.007355019450187683 0.00610142108052969 0.007245022803544998 0.01227256003767252 0.008460918441414833 0.013994783163070679 0.014754806645214558 0.012162542901933193 0.008768655359745026 0.008874294348061085 0.014672611840069294 0.009833913296461105 0.01014283113181591 0.009315580129623413 0.011688663624227047 0.006706071086227894 0.008656322956085205 0.009441082365810871 0.005938580725342035 0.007276108954101801 0.010790900327265263 0.011323746293783188 0.009712982922792435 0.012409398332238197 0.008829976432025433 0.009498590603470802 0.008300215005874634 0.009551292285323143 0.009107161313295364 0.011797817423939705 0.006439864635467529 0.008461307734251022 0.009484663605690002 0.009386717341840267 0.0060683926567435265 0.00803160946816206 0.009164378978312016 0.006997545249760151 0.007387256715446711 0.0066946037113666534 0.012742128223180771 0.010613813996315002 0.00743787782266736 0.004981137812137604 0.009207075461745262 0.011369672603905201 0.010471378453075886 0.006821245886385441 0.006200506817549467 0.017022624611854553 0.012511196546256542 0.013519634492695332 0.008252936415374279 0.013442032039165497 0.008340542204678059 0.008612978272140026 0.014659419655799866 0.009176311083137989 0.007943455129861832 0.010596666485071182 0.009862283244729042 0.007571404334157705 0.012070653960108757 0.007349416613578796 0.014359592460095882 0.012755454517900944 0.014299740083515644 0.008069214411079884 0.008014637976884842 0.011217057704925537 0.010886295698583126 0.01236210111528635 0.009231329895555973 0.013448882848024368 0.011060972698032856 0.015872007235884666
挡风 0.0040265676 -0.002454574 -0.00078401854 0.0010194038 0.0019890936 -0.0015191138 0.001874866 0.004816887 -0.0004904764 0.002170932 0.0028028334 -0.0019958306 0.0010509989 7.0523005e-05 -0.0046800976 -0.002265077 0.0010904246 0.00095792953 -0.0033199142 0.0049335286 0.0011884505 0.004450622 0.0046851933 -0.0036600041 -0.0012222724 -0.003558042 -0.0019930082 0.0012841392 0.0029047318 -0.00041243667 0.0030856412 -0.002310322 0.0027449746 -0.0004990357 0.0020328606 -0.0014927946 -0.0016250932 -0.0042284513 -0.0036967886 -0.0021887731 -0.0038167583 0.004813255 -0.0012523567 0.004092877 -0.0012216985 0.003413191 0.002368765 0.00033926312 0.004354163 6.466545e-05 0.004670675 0.004418878 -0.004233784 -0.0034941607 0.00291879 -0.00023223506 -0.0016500074 -0.0015938259 -0.0047336183 -0.0021684587 -0.0041672513 -0.0045088455 -0.0016936408 -0.0011562908 0.0012654625 0.000638708 0.0009984924 -0.0009709876 0.00047444087 0.0037346696 0.0041337647 -0.0020766407 0.0012100772 0.0018887226 -0.0008874261 -0.0034754449 0.000568883 -0.0042834496 -0.0042747026 0.00024271244 0.00017319154 0.0012407042 -0.0049889046 0.0047342535 -0.0027728933 0.0010185959 -0.0010728659 8.217944e-05 0.0039523235 0.0022860514 -0.002415269 0.00031392276 -0.0027991736 -0.003591095 0.004848443 -0.0007289625 0.0019998811 0.0013297624 0.004672448 -2.9012095e-05 0.015121009666472673 0.007613919209688902 0.007308947388082743 0.007885839324444532 0.011986457742750645 0.010015657171607018 0.011483862530440092 0.009421865921467543 0.010709535796195269 0.009377116803079844 0.006321978056803346 0.011312473565340042 0.011249326169490814 0.008031384088099003 0.006913208868354559 0.014277676586061716 0.01743082981556654 0.012686950620263815 0.009223742876201868 0.007300124038010836 0.016517854295670986 0.006415355950593948 0.009702541399747133 0.006251198938116431 0.00735471211373806 0.006102229934185743 0.00724868243560195 0.012270142324268818 0.008462085388600826 0.013986891601234674 0.014750570990145206 0.012161088641732931 0.008768483530730009 0.008875465951859951 0.01466997666284442 0.00983277102932334 0.010145917534828186 0.00931459479033947 0.011688898783177137 0.006706638028845191 0.0086589097045362 0.009442569222301245 0.005940763978287578 0.007277948083356023 0.010792412795126438 0.011321954429149628 0.009713361039757729 0.012405857909470797 0.008829746395349503 0.009501021821051836 0.008304456248879433 0.009552386123687029 0.009106984362006187 0.011795343831181526 0.006441319594159722 0.008463205303996801 0.009489355143159628 0.009386683348566294 0.006068560294806957 0.008030624128878117 0.009167524985969067 0.0070000095292925835 0.007388325175270438 0.0066964763682335615 0.012742327991873026 0.01061336975544691 0.007440265500918031 0.004983897553756833 0.009207043796777725 0.011368047911673784 0.010472001507878304 0.006823070580139756 0.006203314056620002 0.017014656215906143 0.012508571613579988 0.01351443724706769 0.008254310581833124 0.013443104922771454 0.008339231833815575 0.008613014593720436 0.014656680636107922 0.009176451247185469 0.00794527493417263 0.010599081870168447 0.009867384564131498 0.007572474190965295 0.012064142152667046 0.007352524204179645 0.014355611056089401 0.012751462403684855 0.01429632818326354 0.008070533163845539 0.008018260356038809 0.011217433959245682 0.010883220471441746 0.012361044529825449 0.009231677744537592 0.013440597336739302 0.01105691958218813 0.01586841605603695
玻璃 0.0027103089 0.0036247214 -0.0014759772 0.000575793 -0.0042875917 0.0020313682 0.0020592343 0.0011584773 0.0024147248 0.0037196847 -0.00055317115 -0.0044834823 0.002090149 -0.0024158186 0.00063865306 0.00027789176 -0.000266294 -0.001442563 -0.002509455 0.0033324426 -0.0014781593 0.0029518977 -0.00041748444 0.004318582 -0.0049986313 0.0030118627 0.004253858 0.0048047863 0.00019464502 -0.00069123367 0.0037080208 0.0027804207 0.003925707 0.0027715708 -0.0030243765 -0.0025297874 -0.0047189323 0.003753176 -0.0033855224 -0.0010145158 0.004198285 0.0047933767 0.004319261 -0.0021025473 -0.0034974944 0.0037326273 -0.0044755326 -0.0008623623 0.0011215019 -0.0032880781 -0.001251027 0.0025130007 0.0021138596 0.0017452836 -0.0023548661 0.0046956213 -0.0034786903 -0.004615264 0.0035755895 0.0046187835 -0.0015829867 0.0036361702 0.0015357523 -0.0033645118 0.0028054086 0.00043821102 0.0015249983 0.0013535637 -0.0005699545 -0.0043519572 0.002773874 -0.0036960577 0.0009887978 0.0005424996 0.0005072332 0.0026033693 0.00082569895 0.004594802 0.0015988657 -0.0037106643 0.00017139502 0.001582487 0.0046106186 -0.003229674 0.0001779981 0.0024204175 -0.0005982085 0.0023501343 -0.0007837117 -0.002419163 -0.0010780771 0.0038177315 0.0034120167 0.0027602026 -0.0003694147 0.0035161097 0.001335118 0.0038732234 0.0043992624 -0.0029214162 0.015127263031899929 0.007613045629113913 0.007308270549401641 0.00788697274401784 0.011987141333520412 0.01001605112105608 0.01148358266800642 0.009422252885997295 0.010708948597311974 0.009375100024044514 0.00632214080542326 0.011310002766549587 0.011246897745877504 0.008030020631849766 0.006910464959219098 0.014277595560997725 0.017440329305827618 0.012687776703387499 0.009224331472069025 0.007298414828255773 0.016518820077180862 0.006413649534806609 0.00970174977555871 0.006249556550756097 0.007353855762630701 0.006101395469158888 0.007248365553095937 0.012274224776774645 0.008460567332804203 0.013991343788802624 0.014755922835320234 0.01216274406760931 0.008766871877014637 0.008874905295670033 0.014676654245704412 0.009831934235990047 0.010144011583179235 0.009315518196672201 0.011692056432366371 0.0067023616284132 0.008656853344291449 0.009444818831980228 0.00593732506968081 0.007272583432495594 0.010791788343340158 0.011323023587465286 0.009711341001093388 0.012408411595970392 0.008828273974359035 0.009500151500105858 0.008302059024572372 0.009551941882818937 0.009107218123972416 0.011796632781624794 0.006438234355300665 0.008463056292384863 0.009487669914960861 0.009386614430695772 0.006067629437893629 0.008029184769839048 0.009166484232991934 0.00699593941681087 0.0073874229565262794 0.0066942081321030855 0.012741107027977705 0.010615811683237553 0.007434844505041838 0.004982618615031242 0.009205099660903215 0.011367786210030317 0.010469699278473854 0.006820502458140254 0.00620184768922627 0.017017630860209465 0.012510881759226322 0.013520340900868177 0.008253983687609434 0.013445799238979816 0.008338680490851402 0.008612941950559616 0.014661296736449003 0.009175590239465237 0.007944369222968817 0.010600312147289515 0.00986436940729618 0.0075699156150221825 0.012068646494299173 0.00734943151473999 0.014358737971633673 0.012753773014992476 0.01429592352360487 0.008070497307926416 0.008016102947294712 0.011221024207770824 0.010882839560508728 0.012359906919300556 0.009231601376086473 0.01344529539346695 0.0110559924505651 0.015872838906943798
上 -0.0016103815 -0.0014724648 -0.0019548624 0.0047763893 0.0021185307 0.00043717446 -0.0012017894 -0.004730412 0.0023434656 0.0041497117 0.0011080056 0.0038275542 0.0037230384 -0.0031873635 -0.0032289238 0.0013515954 0.002699337 -0.001802579 0.0024864501 0.0010043452 -0.0037903283 -0.0020039422 -0.00195788 0.0019455464 -0.0022790218 -0.0011413442 0.0007289909 -0.0007116194 -0.00073841587 -0.0025993627 0.0015721 -0.0012761909 -0.0032248823 -0.0026277816 -0.0024221146 -0.0030167305 0.0042539444 -0.0014140285 -0.0044548297 -0.0044525317 0.0047394475 0.0030648997 -0.003947029 -5.0497707e-05 -0.004591652 0.003914751 0.00060397666 -0.004933071 0.00034706434 -0.0017336213 0.0018707253 0.0012760675 -0.004105076 0.00044406904 0.0044861175 0.0005198526 0.0007786625 0.0008559348 -0.004212085 0.0029180022 -0.0010147281 0.0016325982 -0.0018185996 0.0026473342 -0.0016993915 0.00343116 0.0036907448 -0.0047766105 0.0025437046 -0.003230409 -0.0044696094 -0.00040238025 -0.0013095951 0.0009195828 -0.00044940598 -0.0035271687 0.001508119 0.0020505092 0.0011769356 0.0038126558 0.004534022 0.002263466 0.004892857 -0.004871614 0.0023440127 -0.004166358 0.0032471893 0.0010874234 0.0036560483 0.002546311 0.00476496 0.001920064 0.0017527179 -0.0049355333 -0.0035163283 -0.0026420217 -0.003458073 0.0034892783 -0.0029816453 0.004933661 0.015116346068680286 0.007615239359438419 0.007314092479646206 0.007888945750892162 0.011986887082457542 0.01002003438770771 0.011477196589112282 0.009425289928913116 0.010707734152674675 0.009373304434120655 0.006325379014015198 0.011310592293739319 0.011247435584664345 0.008033374324440956 0.006916821468621492 0.014270505867898464 0.017421090975403786 0.012686273083090782 0.009227370843291283 0.007302377372980118 0.016514748334884644 0.006420278921723366 0.009700612165033817 0.00625413004308939 0.007356827612966299 0.006104231812059879 0.007250647526234388 0.01226657535880804 0.008464320562779903 0.013983417302370071 0.014748241752386093 0.012162318453192711 0.008772891014814377 0.008878961205482483 0.014664197340607643 0.00983346812427044 0.01014572475105524 0.009314551949501038 0.011688568629324436 0.006708894390612841 0.008660620078444481 0.009444672614336014 0.005942131858319044 0.00727883679792285 0.010790582746267319 0.011322425678372383 0.009715626016259193 0.012403815984725952 0.008831105194985867 0.009500869549810886 0.00830482691526413 0.009550921618938446 0.009109480306506157 0.01179523952305317 0.006442774087190628 0.008465401828289032 0.009491587989032269 0.009384038858115673 0.0060729035176336765 0.00803346000611782 0.009168237447738647 0.007002513390034437 0.0073933289386332035 0.006698072422295809 0.01273746695369482 0.010613588616251945 0.0074410997331142426 0.004987594671547413 0.009205096401274204 0.011367082595825195 0.01046812254935503 0.00682784803211689 0.006206687539815903 0.01700843684375286 0.01250973530113697 0.01351320743560791 0.008256616070866585 0.013441172428429127 0.008340500295162201 0.008615165948867798 0.014655436389148235 0.009175309911370277 0.007947412319481373 0.010597043670713902 0.009861811995506287 0.007574427407234907 0.012067214585840702 0.0073538427241146564 0.014349817298352718 0.012747183442115784 0.014292070642113686 0.008071220479905605 0.008019763045012951 0.011213205754756927 0.010879302397370338 0.012357961386442184 0.009232480078935623 0.013441182672977448 0.011058780364692211 0.015861751511693
冰 -0.0022883934 0.0020466167 -0.0008191215 0.004390559 0.0042927302 0.003437722 0.0047382945 -0.0036504166 -0.004148177 -0.0042394325 0.0019890717 0.0013739737 0.0013771849 -0.003774215 0.00123354 -0.0036804508 -0.0013426787 -0.0040993956 -0.0020800994 -0.0015286184 0.0039122757 0.004943908 -0.0015233445 0.0030912189 0.00082700886 -0.002707424 -0.001674149 -0.0036075623 -0.0005008108 0.0049750805 0.0022051316 0.0033060703 -0.0004644231 0.003278995 0.001229953 0.0006581568 -0.00015827361 0.0032294448 0.0015515466 -0.0019889772 0.003984196 -0.004434733 -0.0008322359 0.0005776244 -0.00093348604 -0.004124221 -0.0025652242 0.001365771 -0.002520091 -0.0029675518 -0.00090111606 0.003152839 0.0038131485 0.004946648 0.002720309 0.00039316015 -0.004655594 -0.0035475106 0.0034822868 -0.0027828496 -0.0006605517 -0.0036890863 0.0005810899 0.0009908811 0.0040351935 -0.00017985329 0.004775136 -0.00061969506 0.0016926588 0.0031165779 -0.0041452684 0.0021224562 0.004093225 -0.00070337486 0.00012014527 0.00392872 0.004092442 -0.0046974747 -0.0049615917 0.0007285513 0.003807363 -0.0016158682 -0.0047825966 -0.0006032819 -0.00014840718 -0.0021341569 -0.0027780586 0.0037977714 0.0027545476 -0.0022298961 -0.00061460957 -0.00158997 0.0047217617 -0.0028696512 0.00060384907 0.00202765 -0.0045712953 -0.004159484 0.0012304103 0.00019889046 0.015122052282094955 0.007613908965140581 0.007310164626687765 0.007887173444032669 0.011985572054982185 0.010017394088208675 0.011479930952191353 0.009423402138054371 0.010708313435316086 0.009375236928462982 0.006323151756078005 0.011308642104268074 0.01124823372811079 0.008029402233660221 0.006914881989359856 0.014279678463935852 0.017429493367671967 0.012687609530985355 0.009227283298969269 0.0073008001782000065 0.016516273841261864 0.006416690535843372 0.009700249880552292 0.006250500679016113 0.007354255765676498 0.0061024553142488 0.007247905246913433 0.012270370498299599 0.008463653735816479 0.013987465761601925 0.014754105359315872 0.01216113567352295 0.008767504245042801 0.008877287618815899 0.014672449789941311 0.009833171032369137 0.010144606232643127 0.009314898401498795 0.011686170473694801 0.006707934197038412 0.00865956861525774 0.00944248866289854 0.005938729736953974 0.007276627700775862 0.010792119428515434 0.011325716972351074 0.00971235428005457 0.012404818087816238 0.008828960359096527 0.009500482119619846 0.00830299686640501 0.009551211260259151 0.009106826037168503 0.011796081438660622 0.006439367774873972 0.00846585351973772 0.009487384930253029 0.009386084973812103 0.006068884395062923 0.008031132631003857 0.00916798785328865 0.006998924072831869 0.007389489561319351 0.006696594413369894 0.012739742174744606 0.010614720173180103 0.007438295055180788 0.004984643310308456 0.009203999303281307 0.011370223015546799 0.010472645983099937 0.006823517382144928 0.006203347351402044 0.017015790566802025 0.012511317618191242 0.013514510355889797 0.008254805579781532 0.013444716110825539 0.008339467458426952 0.008612917736172676 0.014658220112323761 0.009175503626465797 0.007944519631564617 0.010598434135317802 0.00986421573907137 0.00757275614887476 0.012064333073794842 0.007352099288254976 0.014358066953718662 0.012751700356602669 0.014293639920651913 0.008070144802331924 0.00801986176520586 0.011216124519705772 0.010881450027227402 0.01236079353839159 0.009231708012521267 0.013441982679069042 0.011060039512813091 0.01586764119565487
发动机 0.0028003422 0.0027609933 0.00075999135 -0.0019936012 0.0021479176 -0.0042440356 0.0020619044 0.003993191 0.0027004373 -0.0022484749 0.003722026 0.0036356077 0.0007851296 -0.0037555671 0.0035378626 0.0041633276 -0.003601679 0.0026120562 0.0019050562 0.0045797806 -0.0044126445 0.0022447119 0.004318835 -0.003407347 0.0042036744 0.0037863087 -0.0018119055 0.0021819319 -0.003328811 0.0025865934 -0.0038711778 0.0041185888 -0.0037423025 -0.0024940502 0.0018215952 -0.00023190724 -0.0028646432 0.004833894 -0.0004490437 -0.0021396012 0.0013654651 0.00035111187 0.0006877496 -0.0031757737 -0.0010731029 -0.0009827502 -0.0044807224 0.00465486 0.0042133303 0.00073283445 0.0045074215 0.00014897576 -0.0009147427 -0.0037216854 -0.002335078 0.0009844056 -0.0008587567 0.0017461358 -0.0030485652 -0.0017110247 0.0015539997 -0.0031603626 4.028203e-05 0.0039859107 0.0046716016 0.004345716 -0.003663073 -0.0034779124 -0.0024801004 0.0047175214 -0.0006958698 0.0015824586 -0.0005203886 -0.003715195 -0.0022085207 -0.0018740396 -0.00013555028 -0.0019913346 0.003192435 -0.0011001611 -0.0008354215 -0.0027144337 0.003766913 0.004419813 -4.5103952e-06 0.0038433224 -0.0035726302 -0.0014963578 0.000563717 0.0039444026 -0.0006418014 0.0010701823 0.0009210133 0.0028069746 -0.0026850568 0.0038387263 -0.0019004475 -0.0017185896 0.0043454496 0.0013397224 0.015124836626152197 0.007612472244848807 0.007309049678345521 0.007886541696886221 0.01198400060335795 0.010016448485354582 0.011481020599603653 0.009421420594056448 0.010709088606139025 0.009375032968819141 0.006321969131628673 0.011311562110980352 0.011247495499749979 0.008029757998883724 0.006912356708198786 0.014277095285554727 0.017434732988476753 0.012685280914107958 0.009225455423196157 0.0072987245706220465 0.016519264007608097 0.006415668874979019 0.009701385473211607 0.006250039829562108 0.007353878890474637 0.006102065245310466 0.007247793022543192 0.012271991930902004 0.008460877773662409 0.013989733221630255 0.014753045203785101 0.012161629584928354 0.008767848213513693 0.00887605951478084 0.014671768993139267 0.009832894119123617 0.010144663043320179 0.00931563942382733 0.011688019769887129 0.006706036627292633 0.0086578872675697 0.0094441007822752 0.005939012548575799 0.007274743479986985 0.010792965069413185 0.011324086226522923 0.009714026935398579 0.01240885661294063 0.008829082983235518 0.009500575562318167 0.008304513059556484 0.009552327605585257 0.009107102639973164 0.011796390327314535 0.0064407164851824445 0.008461877703666687 0.009487596961359182 0.00938737578690052 0.006067665293812752 0.008030741785963377 0.009166745779414972 0.006998361709217231 0.007387992615501086 0.006695307946453492 0.012741369816164175 0.010613616555929184 0.007437361404299736 0.00498352541277806 0.009206021515031656 0.011369914437333742 0.01047055951009194 0.00682247926791509 0.006202527632315953 0.017019296064972878 0.012508740648627281 0.013514263244966665 0.008254272242387136 0.013443285909791788 0.008339695322016874 0.008613787901898226 0.01465919055044651 0.009176750977834066 0.007945660191277662 0.010600818631549677 0.009866033991177877 0.007571341159443061 0.012067797593772411 0.007352673293401797 0.014357265084981918 0.012753952605028948 0.014296697452664375 0.008070246937374273 0.008018052515884241 0.0112162164101998 0.010882640567918619 0.012359105671445528 0.009231295436620712 0.013441356209417185 0.011058194873233637 0.015869290257493656
漏 0.0017739367 0.002324434 0.00076699257 -0.0040175375 -0.0020879225 0.004037734 0.003475654 -0.0024596036 0.0011225869 -0.0018885243 -5.767215e-05 0.0044993553 -0.0042931233 -0.0049069193 0.0013198699 -0.002027561 -0.0010522879 -0.0015071153 0.0030146176 0.0023850221 -4.17782e-05 0.0008975826 -0.0007717926 -0.004900517 0.00031901337 0.0020000082 0.0016286187 -0.003560856 -0.0017909056 0.0013300735 -0.0034137452 0.0032048002 -0.00037338212 -0.0033184153 0.0010557496 -0.0015285492 0.0037440136 -0.0010181684 -0.0036690056 -0.0022502083 -0.0018308049 0.0019533574 -0.0030647807 0.0012343903 0.004188764 -0.0003308719 -0.0011565571 -0.0037119184 0.003106285 -0.0010258169 -0.0016140197 0.0025090943 0.0013126866 -0.00012913067 0.0017434526 -0.0032241635 1.0422431e-05 -0.0003979425 0.0039069923 0.0032694228 0.003188488 0.0048842384 0.001564777 -1.6169157e-05 -0.004158176 0.0035244282 -0.00448749 0.0028416254 0.00012299279 -0.0042311233 0.0041855527 0.0025948142 -0.0027582215 0.0030588927 0.0019977568 -0.0018690221 -6.7325775e-05 6.3914806e-05 -0.00040498096 -0.004071231 0.0043455204 -0.003068 -0.004167964 -0.0019443643 0.0023940136 -0.0029440396 -0.0014827317 -0.0028781795 0.0047659893 -0.002993602 -0.00337685 0.003437005 -0.0001533241 -0.0025429546 -0.0031594776 0.0038287146 0.003823691 0.0032304628 0.0016410165 0.00034266757 0.015123152174055576 0.007615974172949791 0.007310374639928341 0.007889005355536938 0.011985894292593002 0.010014338418841362 0.01148240827023983 0.00942187663167715 0.010708214715123177 0.009374333545565605 0.0063228365033864975 0.011307694017887115 0.011246712878346443 0.00803021527826786 0.006912367884069681 0.014279143884778023 0.01743428222835064 0.012687635608017445 0.009224668145179749 0.007299220189452171 0.016519049182534218 0.006416094023734331 0.009701595641672611 0.006251896265894175 0.007355456706136465 0.006103102117776871 0.007250640541315079 0.012273087166249752 0.008460763841867447 0.013986610807478428 0.014755042269825935 0.01215934008359909 0.008766272105276585 0.00887377094477415 0.014673693105578423 0.009834148921072483 0.010146609507501125 0.009311963804066181 0.01168910227715969 0.006704594939947128 0.008656525984406471 0.009441900998353958 0.005940021947026253 0.007276406046003103 0.01079501211643219 0.011323339305818081 0.009713281877338886 0.012408577837049961 0.008829561993479729 0.009497328661382198 0.008304785937070847 0.00955241546034813 0.009107183665037155 0.011794558726251125 0.0064409393817186356 0.008463062345981598 0.00949038565158844 0.009386029094457626 0.006069446448236704 0.008030534721910954 0.009171110577881336 0.006998393218964338 0.00739080086350441 0.006696011405438185 0.012739109806716442 0.010614362545311451 0.007436535321176052 0.004985204432159662 0.009204612113535404 0.011369454674422741 0.010470821522176266 0.006822492927312851 0.006203598342835903 0.017016006633639336 0.012507357634603977 0.013514099642634392 0.00825442187488079 0.013441539369523525 0.008341961540281773 0.008613734506070614 0.01465719286352396 0.00917450338602066 0.007945617660880089 0.010602547787129879 0.009863965213298798 0.007572951726615429 0.012065126560628414 0.0073514957912266254 0.014354703947901726 0.012749386951327324 0.014292072504758835 0.008071592077612877 0.008016407489776611 0.011222109198570251 0.01088403258472681 0.012358269654214382 0.009230012074112892 0.013441660441458225 0.011058850213885307 0.01587134785950184
油 -0.0021850902 0.0028167125 -0.001971824 0.0024467069 -0.0034051389 0.002214998 -0.0044402573 -0.00093067065 0.0019424702 0.004524282 0.00052055577 -0.0021453595 -0.0009367955 -0.0010071192 -0.0047283573 0.002231724 -0.0006878758 0.004988701 -0.0036132014 -0.0031925838 -0.0022927313 0.0035038097 -0.0016392868 -0.0028355042 -0.002567377 -0.0030922191 0.0018721395 0.0011807666 -0.00039082114 0.0033651236 0.00039744098 -0.0037203478 0.0025256146 -0.0034389305 0.001416062 0.002737817 -0.0008515166 0.002549274 0.0012752572 0.0005384837 0.0031038066 -0.0031249165 -0.0011409353 0.0012618275 -0.0026177627 -0.0029732727 0.0027884692 0.0048624035 0.0022816774 -0.0014017439 -0.0018711274 -0.0013340777 0.00087217335 7.775612e-05 0.003340127 -0.0042770747 -0.0013371783 -0.004949585 -0.0015051544 0.0035749497 0.0044500194 -0.0011600065 -0.0004006843 0.00023347279 -0.0038449925 -2.7384609e-05 -0.00014569098 -0.0007299823 -0.0011706615 -0.004886308 0.002119224 -0.0006819926 -0.00047841435 -0.002455067 0.0048503717 0.0025327336 -0.0017234294 0.0012807231 -0.0048934603 0.0010421146 -0.0047354507 0.000110118184 0.002146402 0.0031932453 0.0025165384 0.0033427002 0.000818389 -0.0025268393 -0.0029896158 -0.0029188793 -0.0017279123 -0.00033846777 -8.305721e-05 0.003537775 0.0015138322 -0.0024266487 0.0034595616 -0.0011249934 -0.002304366 0.0017101951 0.015126924961805344 0.007615217473357916 0.0073077743873000145 0.007885584607720375 0.011989605613052845 0.01001619640737772 0.011483757756650448 0.009422524832189083 0.010707295499742031 0.009376590140163898 0.006322926841676235 0.011308860965073109 0.01124956738203764 0.008029934018850327 0.006909601390361786 0.014283288270235062 0.01743893139064312 0.012692955322563648 0.009223328903317451 0.007298904005438089 0.016526581719517708 0.006413192953914404 0.009700154885649681 0.006250162608921528 0.0073539866134524345 0.006100897211581469 0.007246577180922031 0.012273306027054787 0.00845965463668108 0.013989471830427647 0.014751681126654148 0.012158368714153767 0.00876521971076727 0.008875585161149502 0.014676217921078205 0.009832230396568775 0.010146877728402615 0.00931037962436676 0.011690341867506504 0.006705696694552898 0.00865794625133276 0.009443291462957859 0.005938418209552765 0.007274008821696043 0.010791569016873837 0.011318571865558624 0.009711452759802341 0.012407097034156322 0.00882897898554802 0.009498953819274902 0.00830155424773693 0.009552635252475739 0.00910811685025692 0.011792679317295551 0.006439052987843752 0.008462226949632168 0.009489327669143677 0.009387390688061714 0.006068585440516472 0.008027265779674053 0.009170085191726685 0.006997465156018734 0.007387671619653702 0.006692140828818083 0.012747353874146938 0.01061526220291853 0.007436294108629227 0.004983013030141592 0.009207713417708874 0.011369828134775162 0.010470503941178322 0.006820578593760729 0.0062024760991334915 0.017020612955093384 0.012509834952652454 0.013510746881365776 0.008254336193203926 0.013443243689835072 0.008339537307620049 0.008610980585217476 0.014659630134701729 0.009173214435577393 0.007942480966448784 0.010597484186291695 0.009865215048193932 0.007572666741907597 0.012066537514328957 0.00735093466937542 0.014361487701535225 0.012752030044794083 0.014295258559286594 0.008070096373558044 0.008017468266189098 0.011220136657357216 0.010885770432651043 0.012359535321593285 0.00923250988125801 0.013442485593259335 0.011056666262447834 0.0158732607960701
问题 -0.00057273544 0.0006079632 0.0011470737 -0.0048488234 0.0013585258 0.0031025894 0.0019221525 -0.0007899152 -0.0017676973 -0.0031578266 0.0011013043 -0.004937722 0.004588167 0.00080912095 -0.0034634685 -0.00079923496 -0.0020757604 -0.004703465 0.004020826 0.0012648227 0.0015545143 -0.0045899427 -0.00044841506 -0.0011421579 -0.002251295 -0.0022819059 0.003399115 0.0010254532 -0.0022498232 0.0029693237 -0.001057067 -0.0013185227 0.0024669487 -0.004781593 0.0027615665 0.0027931617 0.003564599 -0.000291151 6.756466e-05 -0.0027642373 0.0010582809 0.0045471275 0.0009983475 0.00059384387 -0.0006541945 -0.0032795863 -0.0015306163 0.003710756 -0.002649647 -0.0047872346 0.0028409604 -0.0019788241 -0.0021369339 0.0045132004 -0.0025386612 0.0008148523 0.0031449953 0.0047792634 0.004516812 7.5874384e-05 -0.0033754907 -0.001558407 -0.0013737201 0.0029054293 -0.0011600798 -0.0016988604 -0.002678634 0.004878967 -0.0026349062 0.002947485 -0.0027046078 0.0013093846 -0.000106639694 -0.0022656582 -0.0005045724 -0.0043108696 0.0036043832 -0.0038455622 0.0046322597 0.0010642987 -0.00028666854 0.0016495464 -0.0016351372 -0.0014647734 0.0009944043 -0.00068195025 -0.0009493083 -0.002654423 -0.0039095175 -0.003108861 0.0022888086 -0.00022479892 0.00061245495 0.0013788128 -0.0034445417 -0.0035989964 -0.002287904 -0.0013451278 0.004981839 -0.0035345047 0.015122069977223873 0.0076137271244078875 0.007309426087886095 0.007887078914791346 0.011986669152975082 0.010016194079071283 0.011481227818876505 0.009422291535884142 0.010709277354180813 0.009375001769512892 0.006322807166725397 0.01131154177710414 0.011247138492763042 0.008030910976231098 0.006913429358974099 0.014279747381806374 0.017433324828743935 0.012689029332250357 0.009225362446159124 0.007299553602933884 0.016521260142326355 0.00641580019146204 0.009703377727419138 0.006252439925447106 0.0073554678820073605 0.006102178245782852 0.007250971393659711 0.012271108571439981 0.008459612727165222 0.013988396618515253 0.014751237351447344 0.012161110993474722 0.008768079802393913 0.008874067571014166 0.014669515658169985 0.009834145195782185 0.010144020896404982 0.009313302114605904 0.011688163969665766 0.006704903207719326 0.00865982798859477 0.009443349670618773 0.005939921364188194 0.007277656113728881 0.010794776491820812 0.011323293671011925 0.009710849728435278 0.012406672351062298 0.00882874708622694 0.00950109213590622 0.008303813636302948 0.009550118818879128 0.009108234662562609 0.011794807389378548 0.006440225290134549 0.008462965488433838 0.009489752352237701 0.009386333171278238 0.006068077869713306 0.008030842524021864 0.009166211821138859 0.0069989769253879786 0.007389888865873218 0.006696654949337244 0.012741225305944681 0.010614034719765186 0.007439805194735527 0.004984335508197546 0.009206244256347418 0.011370088439434767 0.010470743291079998 0.006822626804932952 0.006203909637406468 0.017015700228512287 0.012508869171142578 0.013517495710402727 0.008254142012447119 0.013443835079669952 0.008339639287441969 0.008615019731223583 0.01465625036507845 0.00917364889755845 0.007946481462568045 0.010600770823657513 0.009866725653409958 0.007573219249024987 0.012063804548233747 0.007352425949648023 0.01435284223407507 0.012747999746352434 0.01429476123303175 0.008071362972259521 0.008017473854124546 0.011218864936381578 0.010879735928028822 0.012360448017716408 0.009230659808963537 0.013440126087516546 0.011059057898819447 0.01586756855249405
大 0.00038361084 0.0015800227 -0.0024465055 0.0038053105 -0.00018463796 0.00403932 -0.0027985 0.00032514613 -0.0006604241 -0.00031523826 -0.003239608 0.0018487792 -0.0026209145 -0.00382398 -0.00023964513 0.0021870718 -0.0045860074 -0.0015617369 -0.00041747512 0.0044114618 -0.004137262 -0.0034890007 -0.00026379526 -0.0023548382 0.00011451915 -0.00084332284 0.0043506175 0.0046811765 0.00060922746 -0.0033218227 -0.0023139566 0.00021095201 -0.0048664636 -0.0030198537 0.0036313925 -9.23248e-05 0.0020093615 -0.0012167466 -0.0016918206 0.001466 -0.0048852926 -0.0019714343 -0.002431758 0.0040199067 -0.0041459603 0.00056466507 0.003473062 0.00474286 -0.0012593013 0.0026906906 0.0038177855 0.0046868874 -0.003375045 0.0015518256 0.00021448173 -0.0023888962 0.0028550364 0.00036252476 0.0007617716 -0.0010763067 -0.00026743812 9.64771e-05 -0.00093455194 0.0014621364 -0.0031648898 0.0027098781 0.0042988136 -0.0013628018 0.004350655 -0.0033786106 -0.0009571607 0.0025926284 0.00023685163 0.0039743306 0.0033666277 -0.0012962956 0.0027779322 -0.0041304724 -0.0016426176 -0.0018254768 0.0038766917 -0.0015997093 -0.00163827 -0.0021894968 0.0035623852 0.0031289272 0.0013621743 -0.004159404 -0.004905071 0.0036081616 0.0027161855 -0.0027292673 0.0015071817 0.0022023786 0.0017893524 -0.001688459 -0.002355417 0.0028179102 0.0027331542 -0.0014218532 0.015116078779101372 0.007615533657371998 0.007312467787414789 0.007886561565101147 0.011986796744167805 0.010017546825110912 0.011476819403469563 0.009423271752893925 0.010710353031754494 0.009375443682074547 0.006325181573629379 0.011307952925562859 0.011248031631112099 0.00803099200129509 0.006915680132806301 0.014273589476943016 0.01742963120341301 0.012683819979429245 0.00922737829387188 0.007302046287804842 0.016519803553819656 0.006419455166906118 0.009701088070869446 0.006253623403608799 0.007356803864240646 0.006104563362896442 0.0072524514980614185 0.012266082689166069 0.008462822064757347 0.013983700424432755 0.014750488102436066 0.012162693776190281 0.008770139887928963 0.008878527209162712 0.014665812253952026 0.009832285344600677 0.010144573636353016 0.009313973598182201 0.011687819845974445 0.006707754917442799 0.008658834733068943 0.009444101713597775 0.005942318122833967 0.0072781085036695 0.010791031643748283 0.011322240345180035 0.009712507016956806 0.012405524961650372 0.008830904960632324 0.009500759653747082 0.008304818533360958 0.009550090879201889 0.009107845835387707 0.011797502636909485 0.006439929828047752 0.008464258164167404 0.009489618241786957 0.009387080557644367 0.006071676034480333 0.008034218102693558 0.009164837189018726 0.00700279651209712 0.0073921759612858295 0.006696995347738266 0.012739268131554127 0.010615444742143154 0.007440286688506603 0.004986204206943512 0.00920579768717289 0.011367695406079292 0.01047030184417963 0.006825100630521774 0.006205678451806307 0.01701260358095169 0.012507807463407516 0.013513700105249882 0.008255738765001297 0.013440866954624653 0.00833914428949356 0.008614645339548588 0.014652728103101254 0.009176972322165966 0.007947448641061783 0.01060110330581665 0.00986540038138628 0.0075733354315161705 0.012065899558365345 0.007352971937507391 0.014350487850606441 0.012748387642204762 0.014292136766016483 0.008072222582995892 0.008019698783755302 0.011217697523534298 0.010880043730139732 0.012361807748675346 0.009230599738657475 0.013438345864415169 0.011059104464948177 0.01586354896426201
