32 100
你 0.0020254832 0.0037129456 0.0024934546 0.0018163519 -0.0030175024 0.002274698 0.0039865514 0.0009852578 -0.0031361382 -0.0033622128 0.001615263 -0.0042046295 0.0023929984 0.0010830839 0.0017853524 0.0003575785 -0.00096476683 -0.0031874215 -0.0041753836 -0.0035827458 0.0011113356 -0.0028412216 0.0035209805 0.003406412 0.0031843465 0.0036772937 0.0030101603 0.003316531 0.00058432436 0.0026828009 -0.0025109993 -0.004939538 0.001928363 0.0036456743 0.0033890475 -0.0034085 -0.0019459717 0.0025293804 -0.0012932462 0.001512425 -0.0006426531 -0.00020229584 -6.462354e-05 0.0019105319 0.003873597 0.0019978052 -0.0012423885 -0.0002158219 -0.004068303 0.003560097 -0.004749892 0.0024793274 0.003320272 -0.0021971278 0.003272158 0.0038508317 -0.0031523567 -0.0004836591 -3.649667e-05 0.0019394546 0.0041453373 0.0033541638 0.004114546 -0.0039026872 0.004567668 0.003454674 -0.0046377485 -0.00054637436 -0.0036122876 0.00016229507 0.002425165 0.0010972638 0.0010487367 -0.0004167785 -0.001985036 -0.0026033323 0.0026791906 -0.0025620484 0.003141771 -0.0036237573 -0.0018999474 0.004351356 0.0027968758 -0.0039038956 0.0036545284 -0.0034690113 0.002854161 -0.0019037758 -0.001176402 -0.0034395508 -0.0027335791 -0.0038308627 0.0021165079 0.0019047111 0.003852266 0.0041222144 -0.004144484 -0.0010858248 0.0008810065 -0.0015750043
拥有 -0.0034460896 -0.0043544383 -0.0018967146 -0.0015807545 -0.0008244687 0.0018265783 -0.0027492887 0.00091339275 -0.0016215295 -0.004897304 -0.0049967007 -0.0006972058 -0.002232871 -0.0035772817 -0.0022245555 0.0043697376 -0.0023262398 0.0012533488 0.00209005 0.0018290859 0.002192223 0.0036338614 -0.003908948 0.0019596363 -0.0025636696 0.00023817085 -0.0005128556 0.002336802 0.0024982826 0.0008611907 0.0006791246 0.0035121627 -0.0030024915 -0.0034806263 -0.00028970884 0.0017806012 -0.0010205694 0.003147875 -0.0028706805 -0.00014486536 0.00026408536 -0.0044990564 0.0018497091 -0.002789874 -0.0019205515 0.00034335908 0.0018148283 0.0013700817 0.0001142486 0.0012770002 0.0049361 0.0003702729 0.0023757215 0.001486721 0.0040668566 0.0022567967 -0.0025295215 0.003994068 0.0008165161 0.0023705019 -0.0025258034 0.0048515303 -0.002305262 0.001648495 -0.0046648895 -0.0018789417 -0.0031489474 -0.0035405767 -0.0014990901 0.001686092 -0.004968145 0.0035871956 0.00079578767 0.0028365245 0.0040243138 -0.0046091634 -0.0046452633 0.0007719081 -0.003583952 -0.0034418397 0.0034236163 -0.00086500356 0.0011575846 0.00070751365 0.000943311 8.843234e-05 -0.0047215973 -0.00496953 0.0026637502 -0.004658414 -0.0015567117 -0.0026504318 -0.001078052 0.0012920117 0.0013295696 -0.0020448565 0.0017244886 -0.0004815422 -0.0018713826 0.0040689763
哪些 -0.0015412979 0.00039282674 -0.00048941374 -0.0028566627 0.004943085 -0.0041364357 -0.004316588 -0.0014323734 0.0047008917 0.0015286449 0.002434182 0.00021263352 -0.00035700202 -0.0008480293 0.00016940339 0.004224683 -0.0036736124 0.0032151705 0.0009374027 -0.00077827554 -0.0033092385 0.0018902807 0.0026636366 0.0015601576 0.0016987734 -0.002777658 0.0033399798 0.0026894826 0.003422995 -0.003251283 -0.0016734088 0.0034971638 -0.0049706125 -0.0032936572 0.00032280246 -0.0010516588 0.0012042238 0.0048762783 0.0024024458 0.00075263483 -0.0014600896 -0.0009224266 0.0034255572 0.00425181 -0.0039049098 0.0037088348 -0.0009943168 0.00013970071 -0.0010054563 -0.004924573 -0.004138945 0.0009559407 -0.0029125027 -0.00079293316 -0.004183079 -0.0032649778 -0.00413167 -0.0015444821 0.004151388 -0.0029746448 0.0049332436 0.0039203856 0.0037691193 -0.004335945 -0.0043986407 -0.004746012 0.0027927565 0.0036129653 0.00064504286 -0.004048865 -0.0027142083 -0.0049246065 -0.002493105 -6.2580686e-05 -0.0035120796 0.002341135 -0.0021358286 0.0026194714 -0.00052754954 -0.0003106757 0.0028331438 -3.6774203e-05 0.0011748886 -0.0030190991 0.0026379651 0.0039096363 -0.0005775811 -0.00081141246 -0.003517522 -0.00030022068 -0.0030595076 -0.0013347012 -0.0012216668 0.004091515 0.0037177633 -0.0035840732 0.0010771248 0.004900108 0.0007477929 -0.002099679
藏品 0.0047055716 0.004854273 0.0012373803 0.004143744 -0.00050886394 0.0031983461 -0.0036079353 -0.0005825092 0.0027293842 -0.004846317 0.0049856408 -0.004674694 -0.0022129135 -0.00086005824 0.0034186598 0.0045585847 0.0038958779 -0.0025430238 -0.0010681744 0.00153002 -0.0024193828 0.0019738227 0.0029752841 0.003906466 0.003943176 0.0049950536 -0.0040672594 0.0031476738 0.0037858654 -0.00016417168 -0.0012958199 -0.00040932652 0.00021798769 0.002005171 -0.0015288554 0.00063636526 -0.004631598 0.002785434 0.0025653862 0.00482341 0.0037170136 0.00047483388 -0.0030539613 -0.004138389 0.0014275224 -0.0010890677 0.0032585151 0.0033421703 0.0010089441 0.0024844068 0.0033704974 -0.00080202334 -0.0028616206 -0.00238564 -0.002188714 0.00037240284 0.0017026626 0.0023772535 -0.003884465 0.0033767326 0.0025296486 -0.0032792562 0.0020480365 0.004812726 -0.003384708 -0.0029537624 0.0047760466 0.00051490264 0.0014623795 0.0034420416 -0.0018142413 0.002093438 -0.0028497684 -0.0030139731 -0.00097240787 -0.0041629504 0.003050806 -0.00436664 0.004600738 0.00060692476 0.003927635 0.0046016527 0.0011908822 0.0011649267 0.00075667724 0.0018437612 -0.0040791524 -0.00096791424 0.0039926497 0.0028269012 -0.00083413115 -0.00031040423 -0.0023509443 0.00034136698 0.001986052 0.0032902183 0.0039502224 -0.003735411 -0.0040663974 -0.0033674748
？ -0.002613786 0.0022031008 0.0033130394 -0.00039719976 0.00474412 0.0008555297 -0.00047432957 0.001899532 0.0013182149 0.0016770051 0.003959582 0.004047376 -0.0008094162 0.0011081519 -0.00071137585 -0.0038899677 -0.001648519 0.0014450643 -0.00030395575 -0.003076383 0.0016517662 0.0029030712 8.220365e-05 -0.0011384678 0.0042305496 -0.0040468634 0.00080892025 -0.0035583847 -0.0049295104 -0.00066273706 0.0027753804 -0.0005931882 0.0039782412 5.145557e-06 -0.0026812463 -0.0034747142 0.0020775427 -0.0030695312 -0.0031937705 -0.0049018366 0.0038182978 -0.00013463572 0.0010252367 -1.8611085e-05 -0.002482894 0.00446009 0.004854994 -0.0030798535 0.001990811 -0.0042421096 -0.0020063685 -0.002069795 -0.004254114 -0.0014844656 0.004830542 0.00030365214 -0.0038042634 -0.0020558154 0.0025844835 -0.002928093 -0.00043874513 -0.0021468156 -0.0015145242 0.0041546198 -0.0001645647 0.003980917 0.004088535 -0.0005682651 0.00037405128 -0.0029142988 0.004118286 0.0046264734 0.004725796 -0.0014194339 0.002804567 0.0030910298 0.0042506075 0.0009847479 -0.0027675396 -9.313691e-06 0.001565293 -0.00035016285 0.004626613 0.0038661994 0.0047089066 0.0027652434 -0.004124201 -0.001706938 -0.00028516632 -0.0023787462 -0.0005212985 -0.0037665032 0.00032915222 0.0023142598 -0.0020034057 -0.0016333067 -0.00068235165 -0.0029208267 -0.0022556228 -0.0017726468
为什么 0.0018984876 -0.001893705 -0.0047895317 -0.0027047908 0.0007380741 0.0022696382 0.002009713 -0.0012131536 0.0017595631 -1.7924234e-05 0.0006701695 0.0017982693 -0.0034083258 -0.0037597727 0.001021517 -0.0010275515 -0.0036977374 0.0013868045 -0.003747066 -0.004469084 -0.003087194 -0.004664998 -0.0046571563 -0.0023188435 -9.048171e-05 0.00022624386 0.0014104056 -0.0033954673 -0.0004358841 -0.0022169303 0.0015592217 0.003674795 0.0044947024 0.0020477618 -0.0031799083 -0.0015084064 0.0006328486 -0.00057292357 0.0014994633 0.0023323046 0.002127469 0.00490293 0.0023299986 0.000654357 -0.0029948847 -0.001813134 -0.00358801 0.0044591464 -0.0042159716 -0.004158235 -0.0037772018 -0.0031629424 -0.0011167878 0.0029374082 -0.0010764883 -0.0033149135 -0.004657887 -0.004760242 -0.0020804035 0.0035112668 -0.0034391205 -0.0037073337 -0.004931938 0.00059114397 0.00081824185 0.0031069014 -0.0043741614 0.0016841483 -0.0038150405 0.0010275664 0.0021947129 -6.1387196e-05 0.0040835133 -0.002940139 0.00079221 -0.002300335 -0.0038261234 0.002282728 0.0012913928 -0.00041279336 -0.0026267916 0.00010619406 -7.289043e-05 0.0036543254 0.0016058893 -0.003754599 -0.0034658413 0.003003424 0.0049960837 0.0016161078 -0.004931408 -0.0040384657 0.004061085 0.0024387115 0.0046029324 5.7107303e-05 -0.002120167 0.0012563234 -0.00471245 -0.0010828753
接吻 0.0047416547 0.0028123674 -0.0017854034 0.00023057172 0.004113348 8.631172e-05 -0.0027027142 -0.0033885646 -0.004235657 0.00459346 -0.002614873 -0.00016652001 0.0013885908 0.0018723947 0.004201914 -0.0009484291 -0.0033621108 -0.0028979802 -0.0042977002 -0.0033482 -0.0007862812 -0.0041075614 -0.0033074305 -0.0029112631 -0.0031497804 -0.0012273819 -0.003444739 -0.0006244653 0.003077777 -0.0017303787 0.0045845434 0.00058382563 -0.0047723637 -0.0043364824 -0.0020327193 -0.004617065 0.00023028441 -0.001992814 -0.00029479852 1.8282328e-05 0.0015132264 0.0046294555 -0.0021338016 0.0026982273 -0.004648777 0.002975352 0.0018618405 0.0024500918 -0.0036534206 0.0038544526 0.002041479 -0.0031438195 0.0045226384 8.7890774e-05 0.004320355 0.0042145243 0.0022278894 0.004609976 0.0030345097 -0.004493095 0.0039565647 -0.00016861502 0.0026176227 -0.004073696 0.0038954597 0.004644489 0.004556383 0.0042243805 8.300412e-06 -0.0013109099 0.0047143055 0.0042392435 -0.0024827952 0.0042910306 0.0009926278 0.004663205 -0.0009277696 -0.0021781742 0.0027836584 0.0021170252 0.0011329949 -0.002600761 0.003367301 -0.00060880696 -0.004396584 8.732034e-05 -0.0007973658 -0.0016291726 0.0032523694 -0.004867314 0.0048251525 -0.0043625277 0.00471795 -0.00041636592 0.0009619058 -0.0037327658 -0.0001232461 -0.0010629296 -0.0048877792 0.0024715746
的 0.0022219894 -0.0048044464 0.0027909488 0.0019809525 0.00014394289 0.00041440828 -0.0008000522 0.0034494838 0.0045490833 0.0043268027 0.0044986904 -0.0004373514 -0.003820691 0.00082975347 0.0038546566 -0.0006415476 0.0037879236 -0.0018979078 -0.0037082825 -0.0028701467 0.00019312743 0.00029658852 0.0045481846 0.004455355 0.0010772431 0.00038653333 0.0023052734 -0.0029679048 -0.0046572713 0.0002020048 -0.0042830114 1.7374754e-05 0.004361354 -0.00055230316 0.0035086414 -0.0044723293 -0.0017456294 -8.061994e-05 -0.004251941 -0.0046405056 -0.0041267476 0.0013282401 0.0030754302 -0.004871612 0.0006254525 -0.002080434 0.004317523 0.0032726508 0.004619607 0.0031494312 0.00052675465 -0.0030511718 -0.004193619 0.0017753397 0.0016989405 0.0018266402 -0.0034925304 0.0038928147 -0.001304382 0.0043160357 -0.0041878177 -0.003299011 0.0019905758 0.0007686913 -0.0036580842 0.002349982 0.003074455 -0.0020040565 -0.00026467303 -0.004744101 -0.002290082 0.0036354903 0.004159007 0.003220234 0.0011779177 -0.0013348996 -0.0013692467 0.0026483722 0.00016871514 -0.0014302027 0.0031521274 -0.00092819333 -0.0006056917 0.0040861834 -0.0014752292 -0.002128825 0.0045131715 0.0022099973 0.0017651794 0.0020808615 0.004549876 0.0027554035 -0.0020275628 0.0013053995 0.002983314 -0.0038127606 0.004862286 0.0019836258 -0.0014386892 0.00064787315
时候 0.000110619236 0.0048159882 -0.0027314643 0.0005880785 0.0028215218 0.00042006653 -0.0021558302 4.179962e-05 -0.0016622173 0.0008569248 -0.002256654 -0.0048378212 -0.004326596 -0.0035361485 -0.003359842 -0.0001526624 -0.0011950552 -0.0024593025 -0.00023682555 0.0025401688 -0.0019057696 0.0041515687 -0.0035442458 0.0043259794 0.0033740867 -0.00410288 -0.003528164 -0.0013827567 0.0037832186 0.0016621142 -0.0014898491 -0.00027022883 0.004929345 0.001117642 -0.0017733811 -0.0013918246 -0.00065229647 -0.0015685929 -0.0025680696 -0.0035117636 -0.0017807239 -0.004214224 -0.0006551021 -0.0030392886 0.0036578858 -0.0022027313 0.0020730142 0.0033978447 -0.0032579345 0.004919215 0.0007602377 -0.00094790896 -0.0046847155 -0.0019923942 -0.0006502592 0.0040272 0.00062593864 0.0033417447 0.0017136247 0.00023693778 -0.00060192216 0.0023492812 -0.002479487 0.0040791295 0.0012971484 0.00016552908 0.0035288325 -0.00047563156 0.0037229331 0.0036440752 -0.0015078348 0.0013798303 0.004654051 -0.000318876 0.0036650905 -0.0020660334 0.0041417424 0.004297941 -0.0024738084 -0.00053596357 0.0033004116 -0.0015737403 0.00023572752 0.00049112877 -0.0012395901 0.0012149722 -0.0020139986 -0.0048181824 0.0030247066 -0.0026550519 -0.00039679278 -0.00043419655 0.0015115123 -0.0013551861 0.004405277 0.000640098 0.004493881 -0.0019316708 0.0025977641 0.0036499351
男生 0.00054961164 0.003909098 0.00074221333 -0.0044550267 -0.0014683325 0.003084071 -0.0042305556 -0.004971299 -0.0031040907 -0.0012204628 0.0012939293 -0.003914868 -0.0019884664 -0.0035544704 -0.0011962021 -0.003050413 -0.0033159535 0.0031869654 -0.0015712809 0.0043384163 0.0027048253 0.0047871675 -0.0033018708 0.0035784747 0.0011463827 0.00052713696 0.001872004 0.0014973106 0.0007884144 0.0026205508 -0.0046481113 -0.0037721049 -0.0025874258 0.0012631756 -0.004894866 0.0021858392 0.0026149834 -0.003520171 -0.0030155021 0.00033889897 -0.0029330277 -0.0024405038 -0.004662652 0.004177252 0.0019459995 0.0039498564 -0.0047851983 0.004093118 0.0041503655 0.0024129367 -0.0032589023 0.0035574632 -0.0033754096 -0.003893138 0.00064187776 -0.004927265 0.0010452499 -0.0040019583 0.0043094493 -0.0048270947 -0.0005055843 -0.0045413044 -0.0023810475 -0.0032103602 0.00018272735 0.003264987 -0.0024174738 -0.0016318881 0.00032361923 -0.00029856572 0.0043350253 -0.00021447847 0.0010362659 -0.0026617742 -0.0047235945 -0.0004921132 -0.002346565 0.0041764164 -0.004463781 0.0042591197 0.003605592 0.0034633977 0.0037797708 -0.0030524633 -0.0027395731 0.004046442 0.0024171341 0.0015002512 -0.0037892072 -0.0032923226 0.0031343503 -0.0036307615 -0.0008337223 -0.0015423214 -0.0016248513 -0.0041389815 5.810801e-05 -0.0038678176 -0.0018399686 -0.0035689771
会摸 0.00074723596 2.9516406e-05 -0.0034415666 -0.0022576326 -0.0031540822 -0.004535427 0.0010761633 0.0049673906 0.0004448085 -0.0028288136 0.0025768941 -0.0020114535 0.0018054675 0.0022370405 0.0037957942 0.0026791901 0.004385789 -0.0024344788 0.0042601833 0.0042168666 -0.0027493357 -0.0010096687 0.0005872608 0.004202974 0.0043427004 -0.0011272293 0.0015367605 -0.0025261045 -0.0042180885 0.003668148 -0.0036341674 0.004749641 -0.004955047 0.0009686174 0.0023635398 0.0008975165 -2.6645605e-05 0.0015758909 0.003689549 0.0009260662 -0.002466901 -0.0033424895 -0.0044076163 0.0042619146 0.0029513435 0.0025403947 0.0029078806 0.003450457 -0.0013730412 -0.003242495 0.0041598054 -0.0045208847 -0.0012972909 0.0029198881 -0.004374887 0.0030117817 0.0035615042 -0.0019415158 -0.002171626 -0.0018611623 -0.0033687663 0.0047267685 -0.003319074 -0.004377391 0.0032152021 0.004664912 -0.0012968092 0.0011654887 0.002936488 -6.893184e-06 -0.0014342295 0.0029688952 -0.0023043489 -0.00080991583 -0.0036760038 -0.0041968785 -0.0046226727 -0.0045925314 -0.0026130027 0.0036084326 -0.0019905013 0.0008015721 -0.00308914 -0.004762994 -0.0027813928 -0.0030328268 -0.0044165 -0.0016476153 -0.0042911787 0.0021817968 0.0031929137 -0.0018666964 0.0049318 0.0044926815 0.002632901 0.0024995883 -0.0031924807 -4.0940475e-05 -0.0025320076 -0.002071635
女生 0.0038080523 -0.00011734059 0.0048113978 0.00051890826 -0.0017010677 -0.0047096084 0.004121905 0.0007251487 -0.00305293 0.004838271 -0.003263861 -0.0013840096 -0.001080553 0.0014615557 -0.00086777564 -0.004015101 -0.0032133919 0.00367737 -0.0025786685 -0.0010708296 0.0021655816 0.0041816207 -0.003057348 -0.0020659696 -0.0013648593 0.00037374906 0.0037001465 0.00045462605 0.0031671086 -0.0047848574 0.003110719 -0.0024775243 -0.0036021632 -0.0037068198 0.004288162 -0.00270064 0.0021478976 0.00085414667 0.0034307241 0.0005465639 0.0030161114 0.00073997397 -0.0012788402 -0.0045531862 -0.0048537157 -0.003479343 -0.00441388 -0.004680148 0.0044134995 0.0032835826 0.004150519 -0.0041141175 0.0015288913 -0.0023943936 -0.0019450437 0.0044645714 -0.00073878467 -0.0040257312 0.0012035226 0.0047153803 0.0031133518 0.0016394891 -0.0022590195 0.00054227887 -0.0012933409 -0.0038932662 0.0046648523 -0.004045612 -0.003118245 0.0041517075 0.0029794592 -0.0040501463 -0.0038162272 0.00091922935 -0.00053495355 0.0039297836 0.00085712085 0.0002789367 -0.00088798534 0.00016712211 -0.0020353596 -0.0035798508 0.00014982652 -0.003082471 -0.0017980647 -0.00064042164 -0.0001295046 -0.0012060576 -0.0021065504 0.0003405516 -0.0043998016 -0.00097077107 -0.004689114 0.0035146344 0.0003309073 -0.0011477792 -0.00027056457 0.0006541256 -0.0028368395 0.0017372216
胸部 0.0028356053 0.0014409325 -0.0013560373 -0.000621276 0.0010742084 0.001123718 0.003998355 -0.0041065654 -0.004550991 -0.0025538444 -0.002306369 -0.0021238243 0.0005975943 0.0049381237 -0.004020042 0.0012254976 -0.0012264436 -0.00018095598 0.0007904265 0.0035610534 -0.0032591159 0.0047922833 0.0015057456 -0.0033263492 -0.0047382587 -0.0038398008 0.0010271524 0.0041161934 0.0010488252 0.0005679005 0.0012562643 -0.0010997772 -0.0034282021 0.0006866115 0.002746407 -0.00087694684 0.0024504839 0.0006123334 0.004730556 -0.004742495 -0.0029719109 -0.004705611 -0.0033021364 -0.0012147336 0.0018395428 0.00024977326 0.0012171818 0.004784515 0.0011115302 0.004292692 0.003259805 -0.004577279 -0.0037531238 0.0031878958 0.0011625527 -0.0010928679 0.0017854273 -0.0029787135 -0.0009830683 -0.0003142082 -0.0006875796 0.0018815361 0.0041613486 0.0020002825 -0.0040515917 0.00317341 -0.004899268 0.0028050658 0.0008890843 0.004970301 0.004049382 0.004494413 -0.00078592217 -0.002240382 -0.0012406183 -0.0028822236 -0.0017921103 -0.001385597 0.0033188835 0.0010515051 0.0018447787 -0.0017951364 0.0015491815 -0.0019068127 0.0036863592 0.0042146808 -0.000425776 0.003378288 0.0015304754 0.0010684724 -0.0010655401 -0.0014405781 -0.0023093992 -0.00026423344 -0.000568782 -0.0005269451 0.0019966532 0.0033105984 -0.002255324 0.0017367247
汽车 0.0034995265 0.0047393227 0.000270837 -0.0015528845 0.0004976215 0.0023988234 -0.004848553 -0.003504166 -0.002585685 0.0016883998 0.0027682744 -0.0037689817 0.00436347 -0.0005707308 0.0038263518 0.003733362 -0.0013846243 -0.0035451066 0.0011081342 -0.00034490367 0.004079557 0.0011775522 -0.001395039 0.0022309232 -0.0015134513 0.0019125594 0.0042910418 -0.003624903 0.0018265084 -0.00017307978 0.0017228597 0.004856048 0.003597931 -0.00040877517 0.004197471 0.0045456067 -0.00089869974 -0.00067191897 -0.0013092547 0.0038289484 0.0017042835 -0.0031114845 0.0023428719 -0.0043297824 -0.0032673108 0.0008034664 -0.0028148924 0.004285101 -0.0045089796 -0.0024812906 -0.0046023717 -2.4563167e-05 0.0043148417 0.000647862 0.00043257093 0.0011972524 -0.0040087067 0.0034842538 0.001582439 0.001685081 -0.0046184286 -0.003387045 0.0024074567 -0.00052444683 0.0033966396 -0.0015580601 0.0045744674 -0.0011963267 -0.0035800324 0.0037350478 -0.0004414688 0.0007433151 0.0031806417 -0.0035413252 0.0029980196 0.0014655311 0.0009446386 -0.0022404867 0.0047833575 -0.00070388056 0.0024985755 -0.0015593213 -0.0025362568 0.0028202971 -0.0033934615 0.003334253 -0.0004866463 0.0028674826 -0.0034055775 0.003333983 -0.0049720095 0.0023673153 -0.0023243867 0.003354039 -0.0043415152 -0.0027919107 0.0005624108 -0.0031885474 -0.0040777666 0.0045844885
行业 -0.0027779066 0.0017258059 0.0037154183 0.0036516562 -0.004079234 -0.0029683136 0.0037928196 0.0017845314 0.004502166 0.0035829376 -0.0038397282 0.0036438406 0.0042172624 0.00032137195 -0.004677667 0.002898273 0.0026432322 -0.00013009831 0.0015978939 -0.0018409567 -0.0032291114 0.0038632434 0.0049780877 -0.0028349608 0.0024222354 -0.0029266244 0.0019518635 0.0030098418 0.0031190673 6.483216e-05 -0.0039313585 0.004445495 0.0031671328 -0.0037953728 0.003848346 0.0005696099 0.0047441544 -0.0032702088 -0.0015910827 0.003944697 0.0015778458 -0.0020089513 -0.0013155479 -0.0044866567 -0.0014136373 0.0031275842 0.003543998 0.0012169485 0.004990382 0.0034408541 0.001993665 -0.004112687 0.00022302754 0.003282765 0.0025692587 -0.0038389103 -0.0028546357 0.0013416815 0.004490705 -0.0007486553 0.002757392 -0.0008890121 0.0010777712 -0.0048670014 -0.0033095102 -0.0048151 0.0015875478 -0.0005630865 0.0038677072 -0.0018888789 0.0046145283 0.0027152542 -0.0038131224 0.0022719353 -0.00022633793 0.0010367488 0.0012973724 -0.0006092824 -0.0011356336 0.0021847985 0.0039395066 -0.0044707465 0.0023606159 -1.8120278e-05 0.0016857409 -0.0046274224 0.004173151 0.004308111 0.0044488283 -0.0048555434 0.0028621145 0.0034496589 -4.2308588e-05 -0.0018239457 0.0031285975 0.0014651166 0.0021323734 -0.002734809 -0.0015985714 -0.0047267256
有 0.0036384221 0.0008335458 -0.0015546447 0.0014820658 -0.0042638583 0.0020864182 0.0012969631 -0.0045709983 0.0041610524 -0.0030805082 -0.0048448574 -0.003984757 0.0031466968 0.0036706422 0.00041759154 0.003030097 0.0013969429 -0.0030969828 0.0038237823 -0.0045500044 0.0025586803 0.0020651175 -0.0036808967 -0.0022127728 0.004570502 0.00450264 -0.0004228265 -0.0002515493 -0.0021455062 -0.0036733774 -0.0011760814 0.0002985322 -0.0007271962 -0.0016485429 -0.0021268635 0.00033255108 0.0024773069 -0.0041241865 0.0011585029 -0.004861574 -0.004413943 -0.0022788136 -0.0045051337 0.0011023129 0.0029576588 -0.002144593 -0.0009937803 0.0009803534 -0.0032016258 -0.004115762 0.0010593478 0.0002041324 0.0009723995 -0.00017817505 0.0015492467 0.0031172587 -0.0028073567 0.002208883 0.004824925 -0.0020928788 -0.0012366737 -0.0046604406 0.00053027226 0.0040108124 -0.004391928 -0.0043125176 -0.0026267034 0.004959028 0.0006331713 0.000116121955 0.002312711 -0.00040428946 0.0015721074 0.0046451166 -0.0011313683 0.0012486922 -7.2761904e-05 0.003918172 0.00450111 0.0023748954 0.003057615 -0.0036645667 0.0027241642 -0.00037832558 -0.001973052 -0.004317244 -0.0009647487 -0.0035484915 0.0020971876 0.0022374238 0.0009946083 -0.0027308725 0.0038637687 -0.0031590539 -0.0025965297 -0.0006825179 -0.0041561555 -0.004960662 0.0043657133 0.0044545988
笑话 0.0009482815 0.0037359865 0.00068215886 -0.004530396 -0.00015462935 0.0041425917 -0.00180979 0.0018300195 0.0038370034 -0.0007687006 -0.0043650065 -0.00055202143 -0.0017117846 0.0023064339 -0.00044200523 -0.004820616 -0.0019324995 0.001117962 0.0021838294 0.001218739 0.0025011492 -0.004477255 0.004501798 -0.0041401247 -0.0017921077 0.0021986673 -0.0008544596 0.0044111414 -0.0018041516 -0.0025551743 -0.0040733772 -0.0026652084 0.0031844946 0.003697929 -0.0009078807 -0.0021745746 -0.004825448 -0.0035094977 -0.002117943 0.0016272473 0.0028026276 0.003023806 -0.0001678504 -0.0030049032 0.0039864564 0.0007688836 0.0032799533 -0.001596021 0.0009356616 -0.0044874502 -0.0003438727 -0.0018590647 -0.0022237087 -0.0021975648 -0.0026711558 -0.0044922386 -0.0014809077 -0.0024824648 -0.00043498492 0.0017156778 -0.0022204316 -0.0008407999 -0.0014690685 -0.002929208 -0.0016836773 -0.00064172875 0.0010812199 -0.0037833063 -0.0022462248 0.00060773967 0.0047501978 -0.00028899917 0.0005765022 0.00033110334 -0.0037427736 0.0035124319 -0.0027246487 0.0034570703 -0.0023430132 -0.0031895798 -0.0034277623 -0.0034977961 -0.003174086 0.0037114294 0.0021026502 0.004989744 0.00069654454 0.0047540655 -0.0026494628 0.00030452292 -0.0002195877 0.0049528014 -0.0034525078 0.00070512015 -0.00043725967 -0.00079460256 0.0042031994 -0.00246903 0.00014603185 -0.0033063733
如何 -0.00259868 0.000893482 0.0011704955 0.0048022354 0.0032173246 -0.0039859237 -0.0011104739 -0.0041078944 0.0020433883 0.0016414924 0.0030554011 0.00076755695 0.0033967784 0.0024213064 0.0005716975 -0.0010472857 0.0034484863 0.0032325191 -0.00196409 0.003496279 0.0018457789 -0.0028735178 0.0038135666 0.0013242243 0.0010312991 0.002044702 0.0023496896 0.0011714562 0.0013962323 -0.0042437054 -0.0030088031 -0.0030934631 -0.003505047 0.0014785868 0.0047655804 0.0036799563 0.0026282966 0.0016655214 0.0008002748 0.004632539 -0.003735752 -0.0021442669 -0.003943424 0.0019094031 0.0012442898 0.0027835332 -0.004083098 -0.00023335172 0.0033907164 0.002011754 0.004814443 -0.0011655504 -0.0013827228 0.0044933427 -0.0011149675 -0.00031914515 0.00056420686 0.00071496796 -0.0049419487 -0.0008469466 0.00043526106 -0.0035581738 -0.00013550417 -0.0024118274 0.00067569176 -0.0049857246 0.0040143197 0.00065505365 1.9482337e-05 0.0023038029 0.00088056736 -0.00071634306 0.0011796718 -0.0034042094 -0.0035371915 -0.00478987 0.0036531482 -0.0031037175 0.00384665 0.0027615242 0.0014679818 -0.004550528 -0.0027504181 -0.0035912762 0.0040262826 0.0013837544 0.0045680534 -0.0013568443 -0.003958343 0.0026664487 -0.003946146 -0.0025006633 0.0040333774 -0.0022829515 -0.0009922772 -0.0012544394 -0.0037418562 0.0023980583 0.0034292182 0.0006358903
快速 0.0044848826 0.0018005753 0.0025918004 -0.003903929 0.0013761497 -0.0014945678 -0.0044170176 -0.0021369779 -0.003462892 0.004361526 -0.004566252 0.0041315267 -1.2620818e-05 0.004374344 -0.004380031 0.0019827834 -0.0011513317 0.0031634895 0.0047083786 0.00037556514 -0.00048327493 -0.0034462612 -0.0049410984 -0.0038024776 0.0037466064 0.0040687416 -0.0018396073 0.004703425 0.002333118 0.001435746 0.0035642553 -0.0036761514 0.0020346087 0.002017241 -0.0031016213 -0.0008858829 0.0048223836 -0.0018942582 0.0032681478 0.0041438034 -0.002692452 0.0008846079 -0.0028126729 -0.0002457602 0.00017332472 0.001482585 0.0031853523 0.003328667 -0.0026783335 -0.00015664892 -0.0005062707 -0.00161542 -0.0012806719 -0.0013695145 0.0038620168 -0.0010651499 0.0014017425 -0.003386762 0.0006885235 0.00041762693 -0.0011776984 -9.739399e-05 -0.002639082 -0.004324551 0.0036973096 -0.00050014677 0.0042764563 0.004987916 0.0029696776 0.0036122072 -0.0046039545 -0.0036655203 -0.0023585712 -0.0027222664 6.1626546e-05 -0.0043864087 -0.0024450754 -0.0004145936 -0.0011107433 0.0022849524 -0.0016491157 0.0020223712 -0.0017440866 0.0019935975 -0.002117769 0.0041997684 -7.906789e-05 -0.004347697 0.0038360097 0.0033168495 0.0025206213 -0.004532067 -0.0034450213 0.003988955 0.0022310517 0.0017855661 0.0036823275 0.0047176117 -0.0045194905 0.0026264042
去除 0.002219758 0.001837628 -0.0003621336 0.0023557823 -0.0012597132 -0.00021267636 0.0007090061 -0.004865824 -0.0046617864 0.004325738 -0.0024705385 0.004131997 0.0005513085 0.0014769081 0.0025101234 0.0042747734 0.0017923331 0.0008076541 -0.00032164808 -0.0018067139 -0.0033490108 -0.0039232527 -0.0023727142 0.0040649483 0.004240662 0.0035164617 0.0028611822 -0.001094209 -0.00029403856 0.0034069484 -0.00092992187 0.0016653705 0.0010285014 -0.0016154826 0.00037941057 -0.001618443 -0.004069408 0.0015961574 -0.0010742391 0.0036094831 -0.000425803 0.00050841644 -0.00029129442 0.0035290485 0.0029840674 -0.004897156 0.0025551869 0.0021626865 -0.0035848068 0.0040801456 0.004570528 0.0014768504 0.0035046432 -0.0018181491 0.0019088131 0.004929971 0.000718358 0.0013311747 -0.00458924 -0.00024070498 0.0014345916 -0.00069810636 -0.004152296 -0.0012122851 -8.694455e-05 0.0025119744 0.00031528063 -0.004077313 0.0003716196 0.002514658 -0.0010539507 0.00071590766 -0.001387533 0.0025570323 -0.0024317412 0.0034188423 -0.0010227072 -0.0028289598 0.0028086137 -0.0013773162 -0.001851012 0.004748591 -0.001723703 -0.0038572792 -0.0018205326 -0.0023826044 -0.0016049927 -0.00018169591 0.0049237628 0.002697446 0.0041850414 -0.0005395366 -0.00011478318 -0.004436012 0.0046305116 -0.003806095 0.004001988 -0.001895573 0.0012127161 0.00081032095
前 -0.0022216171 0.0043893196 -0.0002710116 -0.004249769 -0.0003660526 -0.0019191427 0.0023945319 -0.0022645555 0.004324482 0.003979277 0.00038426276 -0.003896194 -0.004434681 -0.0015395349 0.00413128 0.003751806 0.0022521722 0.004468384 -0.0035942744 -0.00087133935 -0.0037722127 0.0003260821 -0.0037426585 0.00085668964 -0.0004646764 0.0033454169 0.00425463 -0.0005257409 -0.0047679073 0.004620604 -0.0013766873 -0.00286103 0.004599261 0.0047561163 0.00047353376 0.0012016702 0.0043961657 0.002865022 0.0011651297 -0.0039145504 -0.00080858124 -0.004432235 0.0025648521 -0.0005459632 -0.0011173314 0.0029917508 0.0012460146 -0.0012124525 0.0034236806 -0.00027427962 0.0013512871 0.00050652074 0.004352101 0.003519427 0.002184343 -0.0037930452 -0.0022645867 -0.0011433905 -0.00076876814 -0.000619201 -0.00152359 0.0025983802 4.5469496e-05 0.00036853412 0.003212125 -0.0028469376 -0.00014146371 -0.0041112015 0.0006533731 -0.0016245001 0.0038878713 0.00027581025 0.0022472995 0.0031148205 -0.0022294605 -0.0048626275 0.00092061283 -0.0028521537 0.0010515964 0.0030430742 -0.0025766129 0.003927502 -0.0044510085 0.004263511 -0.0005205171 0.0012758235 -0.0010791766 -0.00037871161 0.0009545381 0.0027618324 0.0032586344 -0.0033902908 0.0044829277 -0.0021080428 -0.0028336924 0.0042176424 -0.003053342 0.0033979425 -0.003758235 0.0029679257
挡风 0.0040265676 -0.002454574 -0.00078401854 0.0010194038 0.0019890936 -0.0015191138 0.001874866 0.004816887 -0.0004904764 0.002170932 0.0028028334 -0.0019958306 0.0010509989 7.0523005e-05 -0.0046800976 -0.002265077 0.0010904246 0.00095792953 -0.0033199142 0.0049335286 0.0011884505 0.004450622 0.0046851933 -0.0036600041 -0.0012222724 -0.003558042 -0.0019930082 0.0012841392 0.0029047318 -0.00041243667 0.0030856412 -0.002310322 0.0027449746 -0.0004990357 0.0020328606 -0.0014927946 -0.0016250932 -0.0042284513 -0.0036967886 -0.0021887731 -0.0038167583 0.004813255 -0.0012523567 0.004092877 -0.0012216985 0.003413191 0.002368765 0.00033926312 0.004354163 6.466545e-05 0.004670675 0.004418878 -0.004233784 -0.0034941607 0.00291879 -0.00023223506 -0.0016500074 -0.0015938259 -0.0047336183 -0.0021684587 -0.0041672513 -0.0045088455 -0.0016936408 -0.0011562908 0.0012654625 0.000638708 0.0009984924 -0.0009709876 0.00047444087 0.0037346696 0.0041337647 -0.0020766407 0.0012100772 0.0018887226 -0.0008874261 -0.0034754449 0.000568883 -0.0042834496 -0.0042747026 0.00024271244 0.00017319154 0.0012407042 -0.0049889046 0.0047342535 -0.0027728933 0.0010185959 -0.0010728659 8.217944e-05 0.0039523235 0.0022860514 -0.002415269 0.00031392276 -0.0027991736 -0.003591095 0.004848443 -0.0007289625 0.0019998811 0.0013297624 0.004672448 -2.9012095e-05
玻璃 0.0027103089 0.0036247214 -0.0014759772 0.000575793 -0.0042875917 0.0020313682 0.0020592343 0.0011584773 0.0024147248 0.0037196847 -0.00055317115 -0.0044834823 0.002090149 -0.0024158186 0.00063865306 0.00027789176 -0.000266294 -0.001442563 -0.002509455 0.0033324426 -0.0014781593 0.0029518977 -0.00041748444 0.004318582 -0.0049986313 0.0030118627 0.004253858 0.0048047863 0.00019464502 -0.00069123367 0.0037080208 0.0027804207 0.003925707 0.0027715708 -0.0030243765 -0.0025297874 -0.0047189323 0.003753176 -0.0033855224 -0.0010145158 0.004198285 0.0047933767 0.004319261 -0.0021025473 -0.0034974944 0.0037326273 -0.0044755326 -0.0008623623 0.0011215019 -0.0032880781 -0.001251027 0.0025130007 0.0021138596 0.0017452836 -0.0023548661 0.0046956213 -0.0034786903 -0.004615264 0.0035755895 0.0046187835 -0.0015829867 0.0036361702 0.0015357523 -0.0033645118 0.0028054086 0.00043821102 0.0015249983 0.0013535637 -0.0005699545 -0.0043519572 0.002773874 -0.0036960577 0.0009887978 0.0005424996 0.0005072332 0.0026033693 0.00082569895 0.004594802 0.0015988657 -0.0037106643 0.00017139502 0.001582487 0.0046106186 -0.003229674 0.0001779981 0.0024204175 -0.0005982085 0.0023501343 -0.0007837117 -0.002419163 -0.0010780771 0.0038177315 0.0034120167 0.0027602026 -0.0003694147 0.0035161097 0.001335118 0.0038732234 0.0043992624 -0.0029214162
上 -0.0016103815 -0.0014724648 -0.0019548624 0.0047763893 0.0021185307 0.00043717446 -0.0012017894 -0.004730412 0.0023434656 0.0041497117 0.0011080056 0.0038275542 0.0037230384 -0.0031873635 -0.0032289238 0.0013515954 0.002699337 -0.001802579 0.0024864501 0.0010043452 -0.0037903283 -0.0020039422 -0.00195788 0.0019455464 -0.0022790218 -0.0011413442 0.0007289909 -0.0007116194 -0.00073841587 -0.0025993627 0.0015721 -0.0012761909 -0.0032248823 -0.0026277816 -0.0024221146 -0.0030167305 0.0042539444 -0.0014140285 -0.0044548297 -0.0044525317 0.0047394475 0.0030648997 -0.003947029 -5.0497707e-05 -0.004591652 0.003914751 0.00060397666 -0.004933071 0.00034706434 -0.0017336213 0.0018707253 0.0012760675 -0.004105076 0.00044406904 0.0044861175 0.0005198526 0.0007786625 0.0008559348 -0.004212085 0.0029180022 -0.0010147281 0.0016325982 -0.0018185996 0.0026473342 -0.0016993915 0.00343116 0.0036907448 -0.0047766105 0.0025437046 -0.003230409 -0.0044696094 -0.00040238025 -0.0013095951 0.0009195828 -0.00044940598 -0.0035271687 0.001508119 0.0020505092 0.0011769356 0.0038126558 0.004534022 0.002263466 0.004892857 -0.004871614 0.0023440127 -0.004166358 0.0032471893 0.0010874234 0.0036560483 0.002546311 0.00476496 0.001920064 0.0017527179 -0.0049355333 -0.0035163283 -0.0026420217 -0.003458073 0.0034892783 -0.0029816453 0.004933661
冰 -0.0022883934 0.0020466167 -0.0008191215 0.004390559 0.0042927302 0.003437722 0.0047382945 -0.0036504166 -0.004148177 -0.0042394325 0.0019890717 0.0013739737 0.0013771849 -0.003774215 0.00123354 -0.0036804508 -0.0013426787 -0.0040993956 -0.0020800994 -0.0015286184 0.0039122757 0.004943908 -0.0015233445 0.0030912189 0.00082700886 -0.002707424 -0.001674149 -0.0036075623 -0.0005008108 0.0049750805 0.0022051316 0.0033060703 -0.0004644231 0.003278995 0.001229953 0.0006581568 -0.00015827361 0.0032294448 0.0015515466 -0.0019889772 0.003984196 -0.004434733 -0.0008322359 0.0005776244 -0.00093348604 -0.004124221 -0.0025652242 0.001365771 -0.002520091 -0.0029675518 -0.00090111606 0.003152839 0.0038131485 0.004946648 0.002720309 0.00039316015 -0.004655594 -0.0035475106 0.0034822868 -0.0027828496 -0.0006605517 -0.0036890863 0.0005810899 0.0009908811 0.0040351935 -0.00017985329 0.004775136 -0.00061969506 0.0016926588 0.0031165779 -0.0041452684 0.0021224562 0.004093225 -0.00070337486 0.00012014527 0.00392872 0.004092442 -0.0046974747 -0.0049615917 0.0007285513 0.003807363 -0.0016158682 -0.0047825966 -0.0006032819 -0.00014840718 -0.0021341569 -0.0027780586 0.0037977714 0.0027545476 -0.0022298961 -0.00061460957 -0.00158997 0.0047217617 -0.0028696512 0.00060384907 0.00202765 -0.0045712953 -0.004159484 0.0012304103 0.00019889046
发动机 0.0028003422 0.0027609933 0.00075999135 -0.0019936012 0.0021479176 -0.0042440356 0.0020619044 0.003993191 0.0027004373 -0.0022484749 0.003722026 0.0036356077 0.0007851296 -0.0037555671 0.0035378626 0.0041633276 -0.003601679 0.0026120562 0.0019050562 0.0045797806 -0.0044126445 0.0022447119 0.004318835 -0.003407347 0.0042036744 0.0037863087 -0.0018119055 0.0021819319 -0.003328811 0.0025865934 -0.0038711778 0.0041185888 -0.0037423025 -0.0024940502 0.0018215952 -0.00023190724 -0.0028646432 0.004833894 -0.0004490437 -0.0021396012 0.0013654651 0.00035111187 0.0006877496 -0.0031757737 -0.0010731029 -0.0009827502 -0.0044807224 0.00465486 0.0042133303 0.00073283445 0.0045074215 0.00014897576 -0.0009147427 -0.0037216854 -0.002335078 0.0009844056 -0.0008587567 0.0017461358 -0.0030485652 -0.0017110247 0.0015539997 -0.0031603626 4.028203e-05 0.0039859107 0.0046716016 0.004345716 -0.003663073 -0.0034779124 -0.0024801004 0.0047175214 -0.0006958698 0.0015824586 -0.0005203886 -0.003715195 -0.0022085207 -0.0018740396 -0.00013555028 -0.0019913346 0.003192435 -0.0011001611 -0.0008354215 -0.0027144337 0.003766913 0.004419813 -4.5103952e-06 0.0038433224 -0.0035726302 -0.0014963578 0.000563717 0.0039444026 -0.0006418014 0.0010701823 0.0009210133 0.0028069746 -0.0026850568 0.0038387263 -0.0019004475 -0.0017185896 0.0043454496 0.0013397224
漏 0.0017739367 0.002324434 0.00076699257 -0.0040175375 -0.0020879225 0.004037734 0.003475654 -0.0024596036 0.0011225869 -0.0018885243 -5.767215e-05 0.0044993553 -0.0042931233 -0.0049069193 0.0013198699 -0.002027561 -0.0010522879 -0.0015071153 0.0030146176 0.0023850221 -4.17782e-05 0.0008975826 -0.0007717926 -0.004900517 0.00031901337 0.0020000082 0.0016286187 -0.003560856 -0.0017909056 0.0013300735 -0.0034137452 0.0032048002 -0.00037338212 -0.0033184153 0.0010557496 -0.0015285492 0.0037440136 -0.0010181684 -0.0036690056 -0.0022502083 -0.0018308049 0.0019533574 -0.0030647807 0.0012343903 0.004188764 -0.0003308719 -0.0011565571 -0.0037119184 0.003106285 -0.0010258169 -0.0016140197 0.0025090943 0.0013126866 -0.00012913067 0.0017434526 -0.0032241635 1.0422431e-05 -0.0003979425 0.0039069923 0.0032694228 0.003188488 0.0048842384 0.001564777 -1.6169157e-05 -0.004158176 0.0035244282 -0.00448749 0.0028416254 0.00012299279 -0.0042311233 0.0041855527 0.0025948142 -0.0027582215 0.0030588927 0.0019977568 -0.0018690221 -6.7325775e-05 6.3914806e-05 -0.00040498096 -0.004071231 0.0043455204 -0.003068 -0.004167964 -0.0019443643 0.0023940136 -0.0029440396 -0.0014827317 -0.0028781795 0.0047659893 -0.002993602 -0.00337685 0.003437005 -0.0001533241 -0.0025429546 -0.0031594776 0.0038287146 0.003823691 0.0032304628 0.0016410165 0.00034266757
油 -0.0021850902 0.0028167125 -0.001971824 0.0024467069 -0.0034051389 0.002214998 -0.0044402573 -0.00093067065 0.0019424702 0.004524282 0.00052055577 -0.0021453595 -0.0009367955 -0.0010071192 -0.0047283573 0.002231724 -0.0006878758 0.004988701 -0.0036132014 -0.0031925838 -0.0022927313 0.0035038097 -0.0016392868 -0.0028355042 -0.002567377 -0.0030922191 0.0018721395 0.0011807666 -0.00039082114 0.0033651236 0.00039744098 -0.0037203478 0.0025256146 -0.0034389305 0.001416062 0.002737817 -0.0008515166 0.002549274 0.0012752572 0.0005384837 0.0031038066 -0.0031249165 -0.0011409353 0.0012618275 -0.0026177627 -0.0029732727 0.0027884692 0.0048624035 0.0022816774 -0.0014017439 -0.0018711274 -0.0013340777 0.00087217335 7.775612e-05 0.003340127 -0.0042770747 -0.0013371783 -0.004949585 -0.0015051544 0.0035749497 0.0044500194 -0.0011600065 -0.0004006843 0.00023347279 -0.0038449925 -2.7384609e-05 -0.00014569098 -0.0007299823 -0.0011706615 -0.004886308 0.002119224 -0.0006819926 -0.00047841435 -0.002455067 0.0048503717 0.0025327336 -0.0017234294 0.0012807231 -0.0048934603 0.0010421146 -0.0047354507 0.000110118184 0.002146402 0.0031932453 0.0025165384 0.0033427002 0.000818389 -0.0025268393 -0.0029896158 -0.0029188793 -0.0017279123 -0.00033846777 -8.305721e-05 0.003537775 0.0015138322 -0.0024266487 0.0034595616 -0.0011249934 -0.002304366 0.0017101951
， 0.00029705744 -0.0044358573 0.001161701 -0.0024874704 0.0026285578 0.00043031108 -8.396339e-06 -0.0026217222 -0.0049765483 0.0013803313 0.0027344534 -0.002216743 0.0012929635 0.0039040688 -0.0027359629 -0.0029622256 -0.0046033026 -0.0016199748 -0.0019031267 0.0038158419 -0.0005239211 0.0004854207 0.00282312 0.0007743938 -0.0037069 -0.0035516869 -0.00486182 -0.001336813 0.0023414013 -0.003187092 -0.0022204411 0.004923648 -0.0038116318 -0.0021833659 0.002363571 0.0048956973 -0.0019935332 0.0035139723 -0.0037054163 0.004995486 0.003293165 -0.001898557 -0.0011930214 -0.0046087145 -0.0038934718 0.003933469 -0.0011035006 0.0028448133 -6.1435625e-05 -0.0041839825 0.004735114 -0.0012347924 -0.004644534 0.0036827745 0.0046093296 -0.0035356735 -0.001077415 0.0045032585 0.0024415795 0.0040762797 -0.00036386214 0.0037025353 -0.0016099471 -0.0010066186 0.0038446346 -0.000250421 -0.0016548813 -0.0036001424 0.004130816 -0.0039089834 -0.002431265 0.0026457189 -0.0025916058 0.00037516607 0.002735653 -0.0039349543 -0.0005103927 0.00094958534 0.00051323604 -7.678149e-05 0.0019575674 0.0006796918 0.003886436 -0.0027450633 -0.0036781423 0.0013495074 0.004472442 -0.0019741922 -0.0012452835 0.0005312036 0.0038963128 -0.0012723964 -0.004744063 -0.0011555594 -0.0013804184 0.0027190167 -0.0017425912 0.002589217 -0.0039362013 0.0043020155
问题 -0.00057273544 0.0006079632 0.0011470737 -0.0048488234 0.0013585258 0.0031025894 0.0019221525 -0.0007899152 -0.0017676973 -0.0031578266 0.0011013043 -0.004937722 0.004588167 0.00080912095 -0.0034634685 -0.00079923496 -0.0020757604 -0.004703465 0.004020826 0.0012648227 0.0015545143 -0.0045899427 -0.00044841506 -0.0011421579 -0.002251295 -0.0022819059 0.003399115 0.0010254532 -0.0022498232 0.0029693237 -0.001057067 -0.0013185227 0.0024669487 -0.004781593 0.0027615665 0.0027931617 0.003564599 -0.000291151 6.756466e-05 -0.0027642373 0.0010582809 0.0045471275 0.0009983475 0.00059384387 -0.0006541945 -0.0032795863 -0.0015306163 0.003710756 -0.002649647 -0.0047872346 0.0028409604 -0.0019788241 -0.0021369339 0.0045132004 -0.0025386612 0.0008148523 0.0031449953 0.0047792634 0.004516812 7.5874384e-05 -0.0033754907 -0.001558407 -0.0013737201 0.0029054293 -0.0011600798 -0.0016988604 -0.002678634 0.004878967 -0.0026349062 0.002947485 -0.0027046078 0.0013093846 -0.000106639694 -0.0022656582 -0.0005045724 -0.0043108696 0.0036043832 -0.0038455622 0.0046322597 0.0010642987 -0.00028666854 0.0016495464 -0.0016351372 -0.0014647734 0.0009944043 -0.00068195025 -0.0009493083 -0.002654423 -0.0039095175 -0.003108861 0.0022888086 -0.00022479892 0.00061245495 0.0013788128 -0.0034445417 -0.0035989964 -0.002287904 -0.0013451278 0.004981839 -0.0035345047
大 0.00038361084 0.0015800227 -0.0024465055 0.0038053105 -0.00018463796 0.00403932 -0.0027985 0.00032514613 -0.0006604241 -0.00031523826 -0.003239608 0.0018487792 -0.0026209145 -0.00382398 -0.00023964513 0.0021870718 -0.0045860074 -0.0015617369 -0.00041747512 0.0044114618 -0.004137262 -0.0034890007 -0.00026379526 -0.0023548382 0.00011451915 -0.00084332284 0.0043506175 0.0046811765 0.00060922746 -0.0033218227 -0.0023139566 0.00021095201 -0.0048664636 -0.0030198537 0.0036313925 -9.23248e-05 0.0020093615 -0.0012167466 -0.0016918206 0.001466 -0.0048852926 -0.0019714343 -0.002431758 0.0040199067 -0.0041459603 0.00056466507 0.003473062 0.00474286 -0.0012593013 0.0026906906 0.0038177855 0.0046868874 -0.003375045 0.0015518256 0.00021448173 -0.0023888962 0.0028550364 0.00036252476 0.0007617716 -0.0010763067 -0.00026743812 9.64771e-05 -0.00093455194 0.0014621364 -0.0031648898 0.0027098781 0.0042988136 -0.0013628018 0.004350655 -0.0033786106 -0.0009571607 0.0025926284 0.00023685163 0.0039743306 0.0033666277 -0.0012962956 0.0027779322 -0.0041304724 -0.0016426176 -0.0018254768 0.0038766917 -0.0015997093 -0.00163827 -0.0021894968 0.0035623852 0.0031289272 0.0013621743 -0.004159404 -0.004905071 0.0036081616 0.0027161855 -0.0027292673 0.0015071817 0.0022023786 0.0017893524 -0.001688459 -0.002355417 0.0028179102 0.0027331542 -0.0014218532
吗 -0.004055059 -0.004632201 -0.0031831902 -0.003346688 -0.00035450747 0.0030785324 -0.0018156385 -0.004049466 0.0007539396 -0.0011249578 -0.0028639918 0.0036053807 0.0049569784 -0.00081487885 -0.0012315589 0.003932243 -0.0029256493 -0.0044523655 -0.0044553475 -0.0037148474 -0.0001371447 -0.0038652574 0.0036950102 -0.0022073388 -0.0015221082 -0.0040955776 -0.0042398116 -0.004801768 0.003714987 -0.002779587 0.00053918594 0.0013841526 0.0028525507 -0.00016785087 0.00078996364 0.00097588403 -0.0007266961 0.00036359904 2.7043745e-05 0.004564573 0.00036423746 -0.003220167 0.0018959455 0.004966815 0.002736798 -0.004047033 -0.0024420219 -0.0008520335 -0.0009831535 -0.003812993 -0.0009256052 0.0038374905 0.0021679304 -0.0030642427 -0.0038398746 0.0007044072 0.0018464928 0.0015001134 0.0019102697 -0.0013242387 0.0005193441 -0.004656528 -0.0028503959 0.0049735755 0.0034490367 -0.0012845898 -0.0006881552 -0.0044964952 -0.003955283 -0.0034063817 -0.0040189694 0.0019857758 -0.0003592777 0.004804712 -0.0033464383 0.004351929 -0.004116516 0.0035800375 -0.004237192 0.0013052495 0.0010815072 -0.0028110927 -0.0045433557 -0.0009820564 -0.0012194652 0.0042108735 -0.0015980862 -0.004755335 -0.004955162 -0.0032520872 -0.004383196 -0.004545744 -0.00271057 0.003492468 -0.0004587816 0.0003122394 0.003770223 0.0017817016 -0.0006805686 0.0006922204
