30 100
你 0.003538 0.004474 0.003224 0.002605 -0.001819 0.003276 0.005135 0.001928 -0.002065 -0.002425 0.002247 -0.003074 0.003517 0.001886 0.002476 0.001786 0.000779 -0.001919 -0.003253 -0.002853 0.002764 -0.002200 0.004491 0.004032 0.003920 0.004287 0.003735 0.004544 0.001430 0.004082 -0.001036 -0.003723 0.002805 0.004533 0.004856 -0.002425 -0.000931 0.003461 -0.000124 0.002183 0.000223 0.000742 0.000529 0.002638 0.004953 0.003130 -0.000271 0.001025 -0.003186 0.004510 -0.003920 0.003434 0.004231 -0.001017 0.003916 0.004697 -0.002204 0.000455 0.000570 0.002743 0.005062 0.004054 0.004853 -0.003233 0.005842 0.004516 -0.003894 -0.000048 -0.002691 0.001299 0.003472 0.001780 0.001669 0.001285 -0.000734 -0.001252 0.003505 -0.001218 0.003976 -0.002762 -0.000434 0.005269 0.003591 -0.002844 0.004641 -0.002712 0.004061 -0.001169 0.000259 -0.002164 -0.001304 -0.003023 0.002918 0.003027 0.004940 0.005358 -0.003221 0.000259 0.001987 0.000012
拥有 -0.001934 -0.003593 -0.001166 -0.000792 0.000374 0.002828 -0.001601 0.001856 -0.000551 -0.003960 -0.004364 0.000434 -0.001108 -0.002774 -0.001533 0.005797 -0.000583 0.002522 0.003013 0.002559 0.003844 0.004275 -0.002939 0.002585 -0.001828 0.000849 0.000212 0.003564 0.003344 0.002260 0.002154 0.004728 -0.002126 -0.002593 0.001177 0.002764 -0.000006 0.004079 -0.001702 0.000526 0.001130 -0.003555 0.002444 -0.002062 -0.000841 0.001476 0.002786 0.002611 0.000997 0.002227 0.005767 0.001325 0.003287 0.002666 0.004711 0.003103 -0.001581 0.004933 0.001423 0.003174 -0.001609 0.005551 -0.001566 0.002318 -0.003391 -0.000818 -0.002405 -0.003042 -0.000578 0.002823 -0.003921 0.004269 0.001416 0.004538 0.005275 -0.003258 -0.003820 0.002116 -0.002750 -0.002580 0.004889 0.000053 0.001952 0.001768 0.001930 0.000846 -0.003515 -0.004234 0.004099 -0.003384 -0.000128 -0.001843 -0.000276 0.002414 0.002418 -0.000809 0.002648 0.000863 -0.000766 0.005656
哪些 -0.000029 0.001154 0.000242 -0.002068 0.006142 -0.003135 -0.003168 -0.000490 0.005772 0.002466 0.003066 0.001344 0.000768 -0.000045 0.000861 0.005652 -0.001930 0.004484 0.001860 -0.000048 -0.001657 0.002532 0.003634 0.002185 0.002434 -0.002167 0.004065 0.003917 0.004269 -0.001853 -0.000198 0.004713 -0.004094 -0.002406 0.001790 -0.000068 0.002219 0.005808 0.003571 0.001423 -0.000594 0.000022 0.004019 0.004979 -0.002826 0.004841 -0.000023 0.001380 -0.000122 -0.003975 -0.003309 0.001911 -0.002002 0.000387 -0.003539 -0.002419 -0.003183 -0.000606 0.004758 -0.002172 0.005850 0.004620 0.004508 -0.003666 -0.003125 -0.003685 0.003537 0.004111 0.001566 -0.002912 -0.001667 -0.004242 -0.001873 0.001639 -0.002261 0.003693 -0.001310 0.003964 0.000307 0.000551 0.004299 0.000881 0.001969 -0.001959 0.003624 0.004667 0.000629 -0.000076 -0.002082 0.000975 -0.001630 -0.000528 -0.000420 0.005213 0.004806 -0.002348 0.002000 0.006244 0.001854 -0.000513
藏品 0.006218 0.005616 0.001968 0.004932 0.000690 0.004200 -0.002460 0.000360 0.003800 -0.003909 0.005618 -0.003544 -0.001088 -0.000057 0.004110 0.005986 0.005639 -0.001274 -0.000146 0.002260 -0.000768 0.002615 0.003946 0.004532 0.004679 0.005605 -0.003342 0.004375 0.004632 0.001234 0.000180 0.000807 0.001095 0.002893 -0.000062 0.001620 -0.003617 0.003717 0.003734 0.005494 0.004583 0.001419 -0.002460 -0.003411 0.002507 0.000043 0.004230 0.004583 0.001892 0.003434 0.004201 0.000153 -0.001951 -0.001206 -0.001545 0.001219 0.002652 0.003316 -0.003278 0.004180 0.003447 -0.002580 0.002787 0.005482 -0.002111 -0.001892 0.005520 0.001013 0.002383 0.004579 -0.000767 0.002776 -0.002229 -0.001313 0.000278 -0.002811 0.003876 -0.003022 0.005435 0.001468 0.005393 0.005519 0.001986 0.002225 0.001743 0.002601 -0.002873 -0.000233 0.005428 0.004102 0.000595 0.000497 -0.001549 0.001463 0.003075 0.004526 0.004874 -0.002391 -0.002961 -0.001780
为什么 0.003411 -0.001132 -0.004058 -0.001916 0.001936 0.003271 0.003158 -0.000271 0.002830 0.000920 0.001303 0.002930 -0.002284 -0.002957 0.001713 0.000400 -0.001955 0.002655 -0.002824 -0.003739 -0.001436 -0.004023 -0.003687 -0.001694 0.000645 0.000837 0.002135 -0.002169 0.000410 -0.000818 0.003034 0.004891 0.005372 0.002935 -0.001713 -0.000525 0.001647 0.000359 0.002668 0.003003 0.002993 0.005847 0.002924 0.001382 -0.001916 -0.000681 -0.002617 0.005700 -0.003333 -0.003208 -0.002947 -0.002208 -0.000206 0.004117 -0.000432 -0.002469 -0.003709 -0.003822 -0.001473 0.004314 -0.002522 -0.003007 -0.004193 0.001261 0.002092 0.004168 -0.003630 0.002183 -0.002894 0.002165 0.003242 0.000621 0.004704 -0.001239 0.002043 -0.000949 -0.003001 0.003627 0.002125 0.000449 -0.001161 0.001024 0.000722 0.004714 0.002592 -0.002997 -0.002259 0.003739 0.006431 0.002891 -0.003502 -0.003231 0.004863 0.003560 0.005691 0.001293 -0.001197 0.002601 -0.003607 0.000504
接吻 0.006254 0.003574 -0.001054 0.001019 0.005312 0.001088 -0.001554 -0.002446 -0.003165 0.005531 -0.001983 0.000965 0.002513 0.002676 0.004893 0.000480 -0.001619 -0.001629 -0.003375 -0.002618 0.000866 -0.003466 -0.002337 -0.002286 -0.002414 -0.000617 -0.002720 0.000603 0.003924 -0.000331 0.006060 0.001800 -0.003896 -0.003449 -0.000566 -0.003634 0.001245 -0.001061 0.000874 0.000689 0.002379 0.005574 -0.001540 0.003426 -0.003569 0.004107 0.002833 0.003691 -0.002770 0.004805 0.002872 -0.002189 0.005433 0.001268 0.004964 0.005061 0.003177 0.005549 0.003641 -0.003690 0.004873 0.000531 0.003356 -0.003404 0.005170 0.005706 0.005300 0.004723 0.000929 -0.000174 0.005762 0.004921 -0.001863 0.005993 0.002244 0.006015 -0.000102 -0.000834 0.003618 0.002978 0.002599 -0.001683 0.004162 0.000451 -0.003410 0.000844 0.000409 -0.000894 0.004688 -0.003592 0.006255 -0.003555 0.005520 0.000705 0.002050 -0.002497 0.000800 0.000281 -0.003782 0.004058
的 0.003735 -0.004043 0.003522 0.002770 0.001343 0.001416 0.000348 0.004392 0.005620 0.005264 0.005131 0.000694 -0.002696 0.001633 0.004546 0.000786 0.005532 -0.000629 -0.002786 -0.002140 0.001845 0.000938 0.005518 0.005080 0.001813 0.000997 0.003030 -0.001741 -0.003811 0.001601 -0.002808 0.001234 0.005238 0.000335 0.004976 -0.003489 -0.000731 0.000851 -0.003083 -0.003970 -0.003261 0.002272 0.003669 -0.004144 0.001705 -0.000948 0.005289 0.004514 0.005502 0.004099 0.001357 -0.002096 -0.003283 0.002955 0.002343 0.002673 -0.002544 0.004831 -0.000698 0.005119 -0.003271 -0.002599 0.002729 0.001438 -0.002384 0.003411 0.003818 -0.001506 0.000656 -0.003607 -0.001243 0.004318 0.004779 0.004922 0.002429 0.000017 -0.000544 0.003992 0.001003 -0.000569 0.004618 -0.000011 0.000189 0.005146 -0.000489 -0.001372 0.005719 0.002945 0.003201 0.003356 0.005980 0.003563 -0.001226 0.002427 0.004072 -0.002577 0.005785 0.003328 -0.000333 0.002235
时候 0.001623 0.005577 -0.002000 0.001377 0.004020 0.001422 -0.001008 0.000984 -0.000591 0.001794 -0.001624 -0.003707 -0.003202 -0.002733 -0.002669 0.001275 0.000548 -0.001191 0.000686 0.003270 -0.000254 0.004793 -0.002574 0.004951 0.004110 -0.003493 -0.002803 -0.000156 0.004629 0.003061 -0.000015 0.000946 0.005806 0.002005 -0.000307 -0.000408 0.000362 -0.000637 -0.001399 -0.002841 -0.000915 -0.003270 -0.000061 -0.002312 0.004737 -0.001070 0.003044 0.004639 -0.002375 0.005869 0.001591 0.000007 -0.003774 -0.000813 -0.000006 0.004874 0.001575 0.004280 0.002320 0.001040 0.000315 0.003049 -0.001741 0.004749 0.002571 0.001227 0.004273 0.000023 0.004644 0.004781 -0.000461 0.002062 0.005274 0.001383 0.004916 -0.000714 0.004967 0.005642 -0.001640 0.000325 0.004766 -0.000656 0.001030 0.001551 -0.000253 0.001972 -0.000807 -0.004083 0.004460 -0.001380 0.001033 0.000373 0.002313 -0.000234 0.005494 0.001876 0.005417 -0.000587 0.003703 0.005237
男生 0.002062 0.004670 0.001473 -0.003666 -0.000269 0.004086 -0.003082 -0.004029 -0.002033 -0.000283 0.001926 -0.002784 -0.000864 -0.002751 -0.000505 -0.001623 -0.001572 0.004456 -0.000649 0.005068 0.004357 0.005429 -0.002332 0.004204 0.001882 0.001137 0.002597 0.002724 0.001634 0.004019 -0.003173 -0.002556 -0.001711 0.002151 -0.003428 0.003169 0.003629 -0.002589 -0.001846 0.001009 -0.002067 -0.001496 -0.004069 0.004905 0.003025 0.005082 -0.003814 0.005334 0.005033 0.003363 -0.002429 0.004513 -0.002465 -0.002714 0.001286 -0.004081 0.001994 -0.003063 0.004916 -0.004024 0.000411 -0.003841 -0.001642 -0.002541 0.001457 0.004326 -0.001674 -0.001134 0.001244 0.000839 0.005382 0.000468 0.001657 -0.000960 -0.003473 0.000860 -0.001521 0.005521 -0.003630 0.005120 0.005071 0.004381 0.004574 -0.001993 -0.001753 0.004804 0.003624 0.002235 -0.002354 -0.002017 0.004564 -0.002824 -0.000032 -0.000421 -0.000537 -0.002903 0.000981 -0.002524 -0.000734 -0.001982
会摸 0.002259 0.000791 -0.002711 -0.001469 -0.001955 -0.003534 0.002224 0.005909 0.001516 -0.001891 0.003209 -0.000880 0.002930 0.003040 0.004487 0.004107 0.006129 -0.001166 0.005183 0.004947 -0.001097 -0.000368 0.001557 0.004828 0.005078 -0.000517 0.002262 -0.001299 -0.003372 0.005067 -0.002159 0.005966 -0.004078 0.001856 0.003831 0.001881 0.000988 0.002508 0.004858 0.001597 -0.001601 -0.002398 -0.003814 0.004989 0.004031 0.003673 0.003879 0.004691 -0.000490 -0.002292 0.004990 -0.003566 -0.000387 0.004100 -0.003731 0.003858 0.004510 -0.001003 -0.001565 -0.001058 -0.002452 0.005427 -0.002580 -0.003708 0.004490 0.005726 -0.000553 0.001664 0.003857 0.001130 -0.000387 0.003651 -0.001684 0.000892 -0.002425 -0.002845 -0.003797 -0.003248 -0.001779 0.004470 -0.000524 0.001719 -0.002295 -0.003703 -0.001795 -0.002276 -0.003210 -0.000912 -0.002855 0.003457 0.004623 -0.001060 0.005733 0.005615 0.003722 0.003736 -0.002269 0.001303 -0.001426 -0.000485
女生 0.005321 0.000644 0.005542 0.001307 -0.000502 -0.003708 0.005270 0.001667 -0.001982 0.005776 -0.002632 -0.000253 0.000044 0.002264 -0.000176 -0.002587 -0.001470 0.004946 -0.001656 -0.000341 0.003818 0.004823 -0.002087 -0.001441 -0.000630 0.000984 0.004425 0.001682 0.004013 -0.003386 0.004586 -0.001261 -0.002725 -0.002819 0.005755 -0.001718 0.003162 0.001786 0.004600 0.001217 0.003882 0.001684 -0.000685 -0.003826 -0.003774 -0.002347 -0.003443 -0.003439 0.005296 0.004234 0.004981 -0.003159 0.002440 -0.001215 -0.001301 0.005311 0.000210 -0.003087 0.001810 0.005518 0.004030 0.002339 -0.001520 0.001212 -0.000019 -0.002832 0.005409 -0.003547 -0.002198 0.005289 0.004026 -0.003368 -0.003196 0.002622 0.000716 0.005282 0.001683 0.001623 -0.000054 0.001028 -0.000569 -0.002662 0.000944 -0.002023 -0.000812 0.000117 0.001077 -0.000471 -0.000671 0.001616 -0.002970 -0.000164 -0.003887 0.004636 0.001419 0.000088 0.000652 0.001999 -0.001731 0.003324
胸部 0.004348 0.002202 -0.000625 0.000167 0.002273 0.002125 0.005147 -0.003164 -0.003480 -0.001616 -0.001674 -0.000993 0.001722 0.005741 -0.003329 0.002653 0.000517 0.001088 0.001713 0.004291 -0.001607 0.005434 0.002476 -0.002701 -0.004003 -0.003229 0.001752 0.005343 0.001895 0.001966 0.002731 0.000116 -0.002552 0.001574 0.004214 0.000106 0.003465 0.001544 0.005899 -0.004072 -0.002106 -0.003761 -0.002708 -0.000487 0.002919 0.001382 0.002188 0.006025 0.001994 0.005243 0.004090 -0.003622 -0.002842 0.004367 0.001807 -0.000247 0.002734 -0.002040 -0.000376 0.000489 0.000229 0.002581 0.004900 0.002670 -0.002778 0.004235 -0.004155 0.003304 0.001810 0.006107 0.005096 0.005177 -0.000166 -0.000539 0.000010 -0.001531 -0.000967 -0.000041 0.004153 0.001913 0.003310 -0.000877 0.002344 -0.000847 0.004673 0.004972 0.000781 0.004113 0.002966 0.002343 0.000364 -0.000633 -0.001508 0.000858 0.000520 0.000709 0.002920 0.004655 -0.001149 0.003324
汽车 0.005012 0.005501 0.001002 -0.000764 0.001696 0.003401 -0.003701 -0.002562 -0.001515 0.002626 0.003401 -0.002638 0.005488 0.000232 0.004518 0.005161 0.000358 -0.002276 0.002031 0.000385 0.005732 0.001819 -0.000425 0.002856 -0.000778 0.002523 0.005016 -0.002398 0.002672 0.001226 0.003198 0.006072 0.004475 0.000479 0.005664 0.005529 0.000116 0.000260 -0.000140 0.004500 0.002570 -0.002167 0.002937 -0.003602 -0.002188 0.001936 -0.001843 0.005526 -0.003626 -0.001531 -0.003772 0.000931 0.005226 0.001827 0.001077 0.002043 -0.003060 0.004423 0.002189 0.002488 -0.003702 -0.002687 0.003147 0.000145 0.004671 -0.000497 0.005318 -0.000698 -0.002659 0.004872 0.000606 0.001426 0.003801 -0.001839 0.004249 0.002817 0.001770 -0.000896 0.005617 0.000158 0.003964 -0.000642 -0.001742 0.003880 -0.002407 0.004091 0.000720 0.003603 -0.001970 0.004609 -0.003543 0.003174 -0.001522 0.004476 -0.003253 -0.001556 0.001486 -0.001845 -0.002972 0.006171
行业 -0.001266 0.002487 0.004447 0.004440 -0.002881 -0.001967 0.004941 0.002727 0.005573 0.004521 -0.003207 0.004775 0.005342 0.001125 -0.003986 0.004326 0.004386 0.001138 0.002521 -0.001111 -0.001578 0.004505 0.005948 -0.002210 0.003158 -0.002316 0.002677 0.004237 0.003965 0.001464 -0.002456 0.005662 0.004044 -0.002908 0.005315 0.001553 0.005759 -0.002339 -0.000422 0.004616 0.002444 -0.001065 -0.000721 -0.003759 -0.000334 0.004260 0.004515 0.002457 0.005873 0.004391 0.002824 -0.003157 0.001134 0.004463 0.003214 -0.002993 -0.001906 0.002280 0.005098 0.000054 0.003674 -0.000189 0.001817 -0.004197 -0.002036 -0.003754 0.002332 -0.000065 0.004788 -0.000752 0.005662 0.003398 -0.003193 0.003973 0.001025 0.002388 0.002123 0.000735 -0.000302 0.003046 0.005405 -0.003553 0.003155 0.001042 0.002672 -0.003870 0.005380 0.005043 0.005884 -0.003581 0.004292 0.004257 0.000760 -0.000702 0.004217 0.002701 0.003056 -0.001391 -0.000493 -0.003140
有 0.005150 0.001595 -0.000823 0.002271 -0.003065 0.003088 0.002445 -0.003629 0.005232 -0.002143 -0.004212 -0.002853 0.004271 0.004474 0.001109 0.004458 0.003140 -0.001828 0.004747 -0.003820 0.004210 0.002707 -0.002711 -0.001587 0.005306 0.005113 0.000302 0.000975 -0.001299 -0.002275 0.000299 0.001514 0.000150 -0.000761 -0.000660 0.001316 0.003492 -0.003193 0.002327 -0.004191 -0.003548 -0.001334 -0.003911 0.001830 0.004037 -0.001012 -0.000022 0.002221 -0.002319 -0.003166 0.001890 0.001159 0.001883 0.001001 0.002193 0.003964 -0.001858 0.003148 0.005432 -0.001290 -0.000320 -0.003960 0.001269 0.004681 -0.003118 -0.003251 -0.001882 0.005458 0.001554 0.001253 0.003360 0.000278 0.002193 0.006347 0.000119 0.002600 0.000753 0.005262 0.005335 0.003236 0.004523 -0.002747 0.003519 0.000681 -0.000986 -0.003560 0.000242 -0.002813 0.003532 0.003512 0.002423 -0.001924 0.004666 -0.002037 -0.001509 0.000553 -0.003233 -0.003617 0.005471 0.006041
笑话 0.002461 0.004497 0.001413 -0.003742 0.001044 0.005144 -0.000662 0.002772 0.004908 0.000169 -0.003733 0.000579 -0.000587 0.003109 0.000249 -0.003393 -0.000189 0.002387 0.003106 0.001949 0.004154 -0.003836 0.005472 -0.003515 -0.001057 0.002809 -0.000130 0.005638 -0.000958 -0.001156 -0.002598 -0.001449 0.004061 0.004586 0.000559 -0.001191 -0.003811 -0.002578 -0.000949 0.002298 0.003668 0.003968 0.000426 -0.002277 0.005066 0.001901 0.004251 -0.000355 0.001819 -0.003537 0.000486 -0.000904 -0.001313 -0.001018 -0.002027 -0.003646 -0.000532 -0.001544 0.000172 0.002519 -0.001304 -0.000141 -0.000730 -0.002260 -0.000410 0.000420 0.001825 -0.003285 -0.001326 0.001745 0.005797 0.000393 0.001197 0.002033 -0.002492 0.004864 -0.001899 0.004801 -0.001509 -0.002328 -0.001962 -0.002580 -0.002380 0.004771 0.003089 0.005747 0.001903 0.005489 -0.001214 0.001580 0.001210 0.005760 -0.002651 0.001827 0.000651 0.000441 0.005126 -0.001125 0.001252 -0.001720
如何 -0.001086 0.001655 0.001902 0.005591 0.004416 -0.002984 0.000037 -0.003166 0.003114 0.002579 0.003688 0.001899 0.004521 0.003224 0.001263 0.000381 0.005192 0.004501 -0.001042 0.004226 0.003498 -0.002232 0.004784 0.001950 0.001767 0.002655 0.003075 0.002399 0.002242 -0.002845 -0.001534 -0.001878 -0.002628 0.002366 0.006233 0.004663 0.003643 0.002597 0.001969 0.005303 -0.002870 -0.001200 -0.003349 0.002637 0.002323 0.003916 -0.003112 0.001007 0.004274 0.002962 0.005645 -0.000211 -0.000472 0.005673 -0.000471 0.000527 0.001513 0.001654 -0.004335 -0.000044 0.001352 -0.002858 0.000603 -0.001742 0.001950 -0.003924 0.004758 0.001154 0.000940 0.003441 0.001928 -0.000034 0.001800 -0.001703 -0.002286 -0.003438 0.004479 -0.001759 0.004681 0.003623 0.002934 -0.003633 -0.001956 -0.002532 0.005013 0.002141 0.005775 -0.000622 -0.002523 0.003942 -0.002517 -0.001693 0.004835 -0.001161 0.000096 -0.000018 -0.002819 0.003742 0.004535 0.002223
快速 0.005997 0.002562 0.003323 -0.003115 0.002575 -0.000493 -0.003269 -0.001195 -0.002392 0.005299 -0.003934 0.005263 0.001112 0.005177 -0.003689 0.003410 0.000592 0.004432 0.005631 0.001106 0.001169 -0.002805 -0.003971 -0.003177 0.004482 0.004679 -0.001115 0.005931 0.003179 0.002835 0.005039 -0.002460 0.002911 0.002905 -0.001634 0.000097 0.005837 -0.000963 0.004437 0.004814 -0.001827 0.001829 -0.002219 0.000482 0.001252 0.002615 0.004156 0.004569 -0.001795 0.000793 0.000324 -0.000660 -0.000370 -0.000190 0.004506 -0.000219 0.002351 -0.002448 0.001295 0.001221 -0.000261 0.000602 -0.001900 -0.003655 0.004972 0.000561 0.005020 0.005486 0.003890 0.004749 -0.003557 -0.002983 -0.001738 -0.001021 0.001312 -0.003035 -0.001620 0.000930 -0.000277 0.003146 -0.000183 0.002940 -0.000949 0.003054 -0.001131 0.004957 0.001128 -0.003612 0.005272 0.004592 0.003950 -0.003725 -0.002643 0.005111 0.003319 0.003022 0.004605 0.006062 -0.003414 0.004213
去除 0.003732 0.002599 0.000369 0.003144 -0.000061 0.000789 0.001857 -0.003924 -0.003591 0.005263 -0.001838 0.005263 0.001676 0.002280 0.003202 0.005702 0.003536 0.002076 0.000601 -0.001077 -0.001697 -0.003282 -0.001403 0.004690 0.004976 0.004127 0.003586 0.000133 0.000552 0.004806 0.000545 0.002881 0.001905 -0.000728 0.001846 -0.000635 -0.003055 0.002528 0.000095 0.004280 0.000440 0.001453 0.000303 0.004257 0.004063 -0.003765 0.003526 0.003403 -0.002702 0.005030 0.005401 0.002432 0.004415 -0.000639 0.002553 0.005776 0.001667 0.002270 -0.003982 0.000562 0.002351 0.000002 -0.003413 -0.000543 0.001187 0.003573 0.001059 -0.003579 0.001292 0.003652 -0.000007 0.001398 -0.000767 0.004259 -0.001181 0.004770 -0.000197 -0.001485 0.003643 -0.000516 -0.000385 0.005666 -0.000929 -0.002797 -0.000834 -0.001625 -0.000398 0.000553 0.006360 0.003973 0.005615 0.000268 0.000687 -0.003314 0.005719 -0.002570 0.004925 -0.000551 0.002319 0.002397
前 -0.000709 0.005151 0.000460 -0.003461 0.000832 -0.000918 0.003543 -0.001322 0.005395 0.004917 0.001016 -0.002765 -0.003310 -0.000737 0.004823 0.005179 0.003996 0.005737 -0.002672 -0.000141 -0.002120 0.000967 -0.002773 0.001482 0.000271 0.003956 0.004979 0.000702 -0.003922 0.006020 0.000099 -0.001645 0.005476 0.005644 0.001941 0.002185 0.005410 0.003797 0.002334 -0.003244 0.000057 -0.003488 0.003159 0.000182 -0.000038 0.004124 0.002217 0.000028 0.004307 0.000676 0.002181 0.001462 0.005263 0.004699 0.002828 -0.002947 -0.001316 -0.000205 -0.000162 0.000184 -0.000607 0.003298 0.000784 0.001038 0.004486 -0.001786 0.000602 -0.003613 0.001574 -0.000488 0.004935 0.000958 0.002867 0.004817 -0.000978 -0.003511 0.001746 -0.001508 0.001886 0.003904 -0.001111 0.004845 -0.003657 0.005323 0.000466 0.002033 0.000128 0.000356 0.002390 0.004037 0.004689 -0.002583 0.005284 -0.000986 -0.001745 0.005454 -0.002130 0.004743 -0.002652 0.004555
挡风 0.005539 -0.001693 -0.000053 0.001808 0.003188 -0.000518 0.003023 0.005759 0.000580 0.003109 0.003435 -0.000865 0.002176 0.000874 -0.003989 -0.000837 0.002834 0.002227 -0.002398 0.005664 0.002840 0.005092 0.005655 -0.003035 -0.000487 -0.002948 -0.001268 0.002511 0.003751 0.000986 0.004561 -0.001094 0.003622 0.000389 0.003500 -0.000510 -0.000611 -0.003297 -0.002528 -0.001518 -0.002951 0.005758 -0.000658 0.004821 -0.000142 0.004545 0.003340 0.001580 0.005237 0.001015 0.005501 0.005374 -0.003323 -0.002315 0.003563 0.000614 -0.000701 -0.000655 -0.004127 -0.001365 -0.003250 -0.003809 -0.000955 -0.000487 0.002540 0.001700 0.001743 -0.000473 0.001395 0.004871 0.005181 -0.001394 0.001830 0.003590 0.000363 -0.002124 0.001394 -0.002939 -0.003441 0.001104 0.001639 0.002158 -0.004194 0.005794 -0.001786 0.001776 0.000134 0.000817 0.005388 0.003561 -0.000986 0.001121 -0.001997 -0.002469 0.005937 0.000507 0.002923 0.002674 0.005778 0.001558
玻璃 0.004223 0.004386 -0.000745 0.001364 -0.003089 0.003033 0.003208 0.002101 0.003486 0.004657 0.000079 -0.003352 0.003215 -0.001613 0.001330 0.001706 0.001478 -0.000174 -0.001587 0.004062 0.000174 0.003593 0.000553 0.004944 -0.004263 0.003622 0.004979 0.006032 0.001041 0.000708 0.005184 0.003997 0.004802 0.003659 -0.001557 -0.001547 -0.003705 0.004685 -0.002216 -0.000344 0.005064 0.005738 0.004913 -0.001375 -0.002418 0.004865 -0.003504 0.000378 0.002004 -0.002338 -0.000421 0.003468 0.003025 0.002925 -0.001711 0.005542 -0.002530 -0.003677 0.004182 0.005422 -0.000666 0.004336 0.002274 -0.002695 0.004080 0.001500 0.002268 0.001852 0.000351 -0.003215 0.003821 -0.003014 0.001609 0.002244 0.001758 0.003955 0.001651 0.005939 0.002433 -0.002849 0.001638 0.002500 0.005405 -0.002170 0.001164 0.003177 0.000609 0.003085 0.000652 -0.001144 0.000352 0.004625 0.004214 0.003882 0.000719 0.004752 0.002258 0.005218 0.005505 -0.001334
上 -0.000099 -0.000711 -0.001223 0.005565 0.003317 0.001439 -0.000054 -0.003788 0.003414 0.005087 0.001741 0.004959 0.004848 -0.002384 -0.002537 0.002779 0.004441 -0.000534 0.003409 0.001735 -0.002139 -0.001362 -0.000988 0.002571 -0.001543 -0.000531 0.001454 0.000515 0.000108 -0.001201 0.003047 -0.000060 -0.002348 -0.001740 -0.000956 -0.002033 0.005269 -0.000483 -0.003286 -0.003782 0.005606 0.004009 -0.003353 0.000677 -0.003513 0.005047 0.001576 -0.003693 0.001230 -0.000784 0.002701 0.002231 -0.003194 0.001624 0.005130 0.001366 0.001728 0.001794 -0.003605 0.003721 -0.000098 0.002333 -0.001079 0.003317 -0.000426 0.004493 0.004435 -0.004278 0.003464 -0.002094 -0.003423 0.000280 -0.000689 0.002620 0.000802 -0.002176 0.002334 0.003395 0.002011 0.004674 0.006000 0.003181 0.005688 -0.003812 0.003330 -0.003409 0.004454 0.001823 0.005091 0.003821 0.006194 0.002727 0.002555 -0.003814 -0.002428 -0.001406 -0.002535 0.004833 -0.001876 0.006520
冰 -0.000776 0.002808 -0.000088 0.005179 0.005491 0.004439 0.005886 -0.002708 -0.003077 -0.003302 0.002621 0.002505 0.002502 -0.002971 0.001925 -0.002252 0.000400 -0.002831 -0.001157 -0.000799 0.005564 0.005586 -0.000553 0.003716 0.001562 -0.002097 -0.000949 -0.002381 0.000346 0.006374 0.003681 0.004522 0.000412 0.004167 0.002697 0.001641 0.000856 0.004161 0.002720 -0.001318 0.004850 -0.003490 -0.000238 0.001305 0.000146 -0.002992 -0.001594 0.002606 -0.001637 -0.002018 -0.000071 0.004108 0.004724 0.006126 0.003364 0.001240 -0.003707 -0.002609 0.004089 -0.001980 0.000256 -0.002989 0.001320 0.001661 0.005309 0.000882 0.005519 -0.000121 0.002613 0.004254 -0.003098 0.002805 0.004714 0.000998 0.001371 0.005280 0.004918 -0.003353 -0.004128 0.001590 0.005273 -0.000698 -0.003988 0.000457 0.000838 -0.001377 -0.001572 0.004533 0.004190 -0.000955 0.000815 -0.000783 0.005524 -0.001748 0.001692 0.003264 -0.003648 -0.002815 0.002336 0.001786
发动机 0.004313 0.003522 0.001491 -0.001205 0.003346 -0.003242 0.003210 0.004935 0.003771 -0.001311 0.004354 0.004767 0.001910 -0.002953 0.004229 0.005591 -0.001858 0.003881 0.002828 0.005310 -0.002761 0.002886 0.005289 -0.002782 0.004939 0.004397 -0.001087 0.003409 -0.002483 0.003986 -0.002396 0.005335 -0.002866 -0.001606 0.003289 0.000751 -0.001850 0.005765 0.000720 -0.001469 0.002231 0.001296 0.001282 -0.002448 0.000006 0.000150 -0.003509 0.005896 0.005096 0.001683 0.005338 0.001104 -0.000004 -0.002542 -0.001691 0.001831 0.000090 0.002685 -0.002442 -0.000908 0.002471 -0.002461 0.000779 0.004655 0.005946 0.005407 -0.002919 -0.002980 -0.001559 0.005855 0.000351 0.002265 0.000100 -0.002013 -0.000958 -0.000523 0.000690 -0.000647 0.004026 -0.000239 0.000630 -0.001797 0.004561 0.005480 0.000982 0.004600 -0.002366 -0.000761 0.001999 0.005220 0.000788 0.001877 0.001723 0.003929 -0.001597 0.005075 -0.000977 -0.000374 0.005451 0.002927
漏 0.003286 0.003086 0.001498 -0.003229 -0.000889 0.005039 0.004624 -0.001517 0.002193 -0.000951 0.000575 0.005630 -0.003168 -0.004104 0.002011 -0.000600 0.000691 -0.000238 0.003937 0.003115 0.001610 0.001539 0.000198 -0.004275 0.001055 0.002610 0.002354 -0.002334 -0.000945 0.002729 -0.001938 0.004421 0.000503 -0.002431 0.002523 -0.000545 0.004759 -0.000087 -0.002500 -0.001580 -0.000965 0.002898 -0.002471 0.001962 0.005268 0.000801 -0.000185 -0.002471 0.003989 -0.000076 -0.000784 0.003464 0.002223 0.001050 0.002388 -0.002378 0.000959 0.000541 0.004514 0.004072 0.004106 0.005584 0.002304 0.000653 -0.002884 0.004586 -0.003744 0.003340 0.001043 -0.003094 0.005233 0.003277 -0.002138 0.004760 0.003248 -0.000518 0.000758 0.001408 0.000429 -0.003210 0.005811 -0.002151 -0.003373 -0.000884 0.003380 -0.002187 -0.000276 -0.002143 0.006201 -0.001719 -0.001948 0.004244 0.000648 -0.001421 -0.002071 0.005065 0.004747 0.004575 0.002747 0.001930
油 -0.000672 0.003578 -0.001241 0.003235 -0.002206 0.003217 -0.003292 0.000012 0.003013 0.005462 0.001153 -0.001014 0.000188 -0.000204 -0.004037 0.003660 0.001056 0.006258 -0.002691 -0.002463 -0.000640 0.004145 -0.000669 -0.002210 -0.001832 -0.002482 0.002597 0.002408 0.000455 0.004764 0.001873 -0.002505 0.003402 -0.002551 0.002884 0.003721 0.000163 0.003480 0.002444 0.001209 0.003970 -0.002181 -0.000547 0.001989 -0.001539 -0.001841 0.003760 0.006103 0.003165 -0.000452 -0.001041 -0.000379 0.001783 0.001257 0.003984 -0.003431 -0.000388 -0.004011 -0.000898 0.004378 0.005367 -0.000460 0.000338 0.000903 -0.002570 0.001034 0.000598 -0.000232 -0.000250 -0.003749 0.003166 0.000000 0.000142 -0.000753 0.006101 0.003884 -0.000898 0.002625 -0.004060 0.001903 -0.003269 0.001027 0.002941 0.004253 0.003503 0.004100 0.002025 -0.001792 -0.001553 -0.001644 -0.000298 0.000469 0.000719 0.004660 0.002602 -0.001191 0.004383 0.000219 -0.001199 0.003298
问题 0.000939 0.001369 0.001878 -0.004060 0.002557 0.004104 0.003070 0.000152 -0.000697 -0.002220 0.001734 -0.003807 0.005713 0.001612 -0.002772 0.000629 -0.000332 -0.003435 0.004943 0.001995 0.003207 -0.003948 0.000522 -0.000517 -0.001516 -0.001672 0.004124 0.002253 -0.001404 0.004368 0.000418 -0.000102 0.003344 -0.003894 0.004229 0.003777 0.004579 0.000640 0.001236 -0.002094 0.001924 0.005491 0.001592 0.001322 0.000425 -0.002147 -0.000560 0.004951 -0.001767 -0.003837 0.003671 -0.001024 -0.001226 0.005693 -0.001895 0.001661 0.004094 0.005718 0.005124 0.000879 -0.002459 -0.000859 -0.000635 0.003575 0.000114 -0.000637 -0.001935 0.005377 -0.001714 0.004084 -0.001658 0.001992 0.000514 -0.000564 0.000746 -0.002959 0.004430 -0.002501 0.005466 0.001926 0.001179 0.002567 -0.000840 -0.000405 0.001981 0.000075 0.000257 -0.001919 -0.002474 -0.001834 0.003718 0.000582 0.001414 0.002501 -0.002357 -0.002363 -0.001365 -0.000001 0.006088 -0.001948
大 0.001895 0.002342 -0.001715 0.004594 0.001014 0.005041 -0.001651 0.001267 0.000411 0.000622 -0.002607 0.002980 -0.001496 -0.003021 0.000452 0.003614 -0.002843 -0.000293 0.000505 0.005142 -0.002485 -0.002847 0.000706 -0.001729 0.000850 -0.000233 0.005076 0.005908 0.001456 -0.001923 -0.000839 0.001427 -0.003989 -0.002132 0.005098 0.000891 0.003024 -0.000285 -0.000523 0.002137 -0.004019 -0.001027 -0.001838 0.004748 -0.003067 0.001697 0.004444 0.005983 -0.000376 0.003641 0.004648 0.005642 -0.002464 0.002732 0.000858 -0.001542 0.003804 0.001301 0.001369 -0.000273 0.000649 0.000797 -0.000195 0.002132 -0.001891 0.003771 0.005043 -0.000864 0.005271 -0.002242 0.000090 0.003275 0.000857 0.005676 0.004617 0.000055 0.003604 -0.002786 -0.000809 -0.000964 0.005342 -0.000682 -0.000844 -0.001129 0.004549 0.003886 0.002569 -0.003424 -0.003470 0.004883 0.004145 -0.001922 0.002309 0.003324 0.002877 -0.000452 -0.001432 0.004162 0.003839 0.000165
吗 -0.002543 -0.003871 -0.002452 -0.002558 0.000844 0.004080 -0.000667 -0.003107 0.001825 -0.000188 -0.002231 0.004736 0.006082 -0.000012 -0.000540 0.005360 -0.001183 -0.003184 -0.003532 -0.002985 0.001514 -0.003224 0.004665 -0.001582 -0.000786 -0.003485 -0.003515 -0.003575 0.004561 -0.001381 0.002014 0.002600 0.003729 0.000720 0.002257 0.001959 0.000288 0.001295 0.001196 0.005236 0.001230 -0.002276 0.002490 0.005694 0.003816 -0.002915 -0.001471 0.000389 -0.000100 -0.002863 -0.000095 0.004793 0.003079 -0.001885 -0.003196 0.001551 0.002795 0.002439 0.002517 -0.000521 0.001436 -0.003957 -0.002111 0.005643 0.004723 -0.000223 0.000056 -0.003998 -0.003035 -0.002270 -0.002972 0.002668 0.000261 0.006506 -0.002096 0.005703 -0.003291 0.004925 -0.003403 0.002167 0.002547 -0.001893 -0.003749 0.000078 -0.000233 0.004968 -0.000392 -0.004020 -0.003520 -0.001977 -0.002954 -0.003739 -0.001909 0.004614 0.000630 0.001548 0.004694 0.003126 0.000425 0.002279
