30 200
你 0.002025 0.003713 0.002493 0.001816 -0.003018 0.002275 0.003987 0.000985 -0.003136 -0.003362 0.001615 -0.004205 0.002393 0.001083 0.001785 0.000358 -0.000965 -0.003187 -0.004175 -0.003583 0.001111 -0.002841 0.003521 0.003406 0.003184 0.003677 0.003010 0.003317 0.000584 0.002683 -0.002511 -0.004940 0.001928 0.003646 0.003389 -0.003409 -0.001946 0.002529 -0.001293 0.001512 -0.000643 -0.000202 -0.000065 0.001911 0.003874 0.001998 -0.001242 -0.000216 -0.004068 0.003560 -0.004750 0.002479 0.003320 -0.002197 0.003272 0.003851 -0.003152 -0.000484 -0.000036 0.001939 0.004145 0.003354 0.004115 -0.003903 0.004568 0.003455 -0.004638 -0.000546 -0.003612 0.000162 0.002425 0.001097 0.001049 -0.000417 -0.001985 -0.002603 0.002679 -0.002562 0.003142 -0.003624 -0.001900 0.004351 0.002797 -0.003904 0.003655 -0.003469 0.002854 -0.001904 -0.001176 -0.003440 -0.002734 -0.003831 0.002117 0.001905 0.003852 0.004122 -0.004144 -0.001086 0.000881 -0.001575 0.015123 0.007612 0.007309 0.007888 0.011988 0.010015 0.011482 0.009425 0.010709 0.009373 0.006321 0.011311 0.011245 0.008029 0.006911 0.014280 0.017437 0.012687 0.009226 0.007299 0.016524 0.006414 0.009700 0.006251 0.007353 0.006102 0.007247 0.012274 0.008459 0.013988 0.014754 0.012162 0.008768 0.008874 0.014673 0.009832 0.010145 0.009315 0.011690 0.006705 0.008659 0.009442 0.005938 0.007276 0.010791 0.011321 0.009710 0.012407 0.008826 0.009500 0.008304 0.009551 0.009105 0.011798 0.006437 0.008464 0.009488 0.009385 0.006068 0.008031 0.009168 0.006998 0.007389 0.006696 0.012741 0.010616 0.007438 0.004985 0.009208 0.011371 0.010473 0.006823 0.006203 0.017018 0.012510 0.013515 0.008254 0.013443 0.008341 0.008614 0.014658 0.009174 0.007943 0.010597 0.009865 0.007572 0.012069 0.007350 0.014356 0.012751 0.014296 0.008074 0.008020 0.011220 0.010882 0.012362 0.009231 0.013446 0.011055 0.015872
拥有 -0.003446 -0.004354 -0.001897 -0.001581 -0.000824 0.001827 -0.002749 0.000913 -0.001622 -0.004897 -0.004997 -0.000697 -0.002233 -0.003577 -0.002225 0.004370 -0.002326 0.001253 0.002090 0.001829 0.002192 0.003634 -0.003909 0.001960 -0.002564 0.000238 -0.000513 0.002337 0.002498 0.000861 0.000679 0.003512 -0.003002 -0.003481 -0.000290 0.001781 -0.001021 0.003148 -0.002871 -0.000145 0.000264 -0.004499 0.001850 -0.002790 -0.001921 0.000343 0.001815 0.001370 0.000114 0.001277 0.004936 0.000370 0.002376 0.001487 0.004067 0.002257 -0.002530 0.003994 0.000817 0.002371 -0.002526 0.004852 -0.002305 0.001648 -0.004665 -0.001879 -0.003149 -0.003541 -0.001499 0.001686 -0.004968 0.003587 0.000796 0.002837 0.004024 -0.004609 -0.004645 0.000772 -0.003584 -0.003442 0.003424 -0.000865 0.001158 0.000708 0.000943 0.000088 -0.004722 -0.004970 0.002664 -0.004658 -0.001557 -0.002650 -0.001078 0.001292 0.001330 -0.002045 0.001724 -0.000482 -0.001871 0.004069 0.015122 0.007614 0.007311 0.007888 0.011987 0.010017 0.011482 0.009422 0.010710 0.009376 0.006324 0.011312 0.011247 0.008033 0.006915 0.014277 0.017431 0.012686 0.009226 0.007300 0.016520 0.006415 0.009702 0.006253 0.007355 0.006104 0.007250 0.012270 0.008460 0.013986 0.014750 0.012158 0.008767 0.008875 0.014670 0.009834 0.010146 0.009313 0.011689 0.006706 0.008660 0.009445 0.005940 0.007277 0.010793 0.011322 0.009712 0.012406 0.008830 0.009500 0.008305 0.009552 0.009108 0.011796 0.006441 0.008463 0.009489 0.009387 0.006068 0.008031 0.009170 0.007000 0.007390 0.006697 0.012738 0.010612 0.007440 0.004985 0.009207 0.011369 0.010471 0.006823 0.006204 0.017014 0.012507 0.013514 0.008256 0.013442 0.008340 0.008614 0.014655 0.009176 0.007946 0.010600 0.009867 0.007573 0.012066 0.007352 0.014353 0.012749 0.014291 0.008072 0.008018 0.011219 0.010883 0.012359 0.009231 0.013441 0.011058 0.015868
哪些 -0.001541 0.000393 -0.000489 -0.002857 0.004943 -0.004136 -0.004317 -0.001432 0.004701 0.001529 0.002434 0.000213 -0.000357 -0.000848 0.000169 0.004225 -0.003674 0.003215 0.000937 -0.000778 -0.003309 0.001890 0.002664 0.001560 0.001699 -0.002778 0.003340 0.002689 0.003423 -0.003251 -0.001673 0.003497 -0.004971 -0.003294 0.000323 -0.001052 0.001204 0.004876 0.002402 0.000753 -0.001460 -0.000922 0.003426 0.004252 -0.003905 0.003709 -0.000994 0.000140 -0.001005 -0.004925 -0.004139 0.000956 -0.002913 -0.000793 -0.004183 -0.003265 -0.004132 -0.001544 0.004151 -0.002975 0.004933 0.003920 0.003769 -0.004336 -0.004399 -0.004746 0.002793 0.003613 0.000645 -0.004049 -0.002714 -0.004925 -0.002493 -0.000063 -0.003512 0.002341 -0.002136 0.002619 -0.000528 -0.000311 0.002833 -0.000037 0.001175 -0.003019 0.002638 0.003910 -0.000578 -0.000811 -0.003518 -0.000300 -0.003060 -0.001335 -0.001222 0.004092 0.003718 -0.003584 0.001077 0.004900 0.000748 -0.002100 0.015123 0.007614 0.007311 0.007887 0.011988 0.010016 0.011482 0.009421 0.010710 0.009374 0.006322 0.011310 0.011249 0.008031 0.006912 0.014277 0.017434 0.012688 0.009226 0.007301 0.016519 0.006415 0.009703 0.006252 0.007356 0.006103 0.007250 0.012270 0.008460 0.013987 0.014751 0.012162 0.008768 0.008875 0.014669 0.009833 0.010145 0.009314 0.011688 0.006707 0.008659 0.009443 0.005939 0.007276 0.010792 0.011324 0.009711 0.012408 0.008830 0.009500 0.008303 0.009551 0.009109 0.011796 0.006438 0.008464 0.009489 0.009386 0.006068 0.008031 0.009166 0.006998 0.007389 0.006697 0.012741 0.010612 0.007438 0.004984 0.009206 0.011368 0.010470 0.006823 0.006203 0.017014 0.012508 0.013519 0.008255 0.013445 0.008341 0.008614 0.014659 0.009176 0.007945 0.010601 0.009865 0.007572 0.012067 0.007351 0.014354 0.012751 0.014296 0.008071 0.008016 0.011218 0.010883 0.012360 0.009232 0.013442 0.011060 0.015870
藏品 0.004706 0.004854 0.001237 0.004144 -0.000509 0.003198 -0.003608 -0.000583 0.002729 -0.004846 0.004986 -0.004675 -0.002213 -0.000860 0.003419 0.004559 0.003896 -0.002543 -0.001068 0.001530 -0.002419 0.001974 0.002975 0.003906 0.003943 0.004995 -0.004067 0.003148 0.003786 -0.000164 -0.001296 -0.000409 0.000218 0.002005 -0.001529 0.000636 -0.004632 0.002785 0.002565 0.004823 0.003717 0.000475 -0.003054 -0.004138 0.001428 -0.001089 0.003259 0.003342 0.001009 0.002484 0.003370 -0.000802 -0.002862 -0.002386 -0.002189 0.000372 0.001703 0.002377 -0.003884 0.003377 0.002530 -0.003279 0.002048 0.004813 -0.003385 -0.002954 0.004776 0.000515 0.001462 0.003442 -0.001814 0.002093 -0.002850 -0.003014 -0.000972 -0.004163 0.003051 -0.004367 0.004601 0.000607 0.003928 0.004602 0.001191 0.001165 0.000757 0.001844 -0.004079 -0.000968 0.003993 0.002827 -0.000834 -0.000310 -0.002351 0.000341 0.001986 0.003290 0.003950 -0.003735 -0.004066 -0.003367 0.015123 0.007616 0.007310 0.007887 0.011985 0.010015 0.011482 0.009422 0.010710 0.009375 0.006323 0.011310 0.011247 0.008030 0.006914 0.014277 0.017432 0.012688 0.009224 0.007300 0.016517 0.006415 0.009704 0.006252 0.007355 0.006103 0.007248 0.012271 0.008461 0.013986 0.014754 0.012160 0.008769 0.008875 0.014669 0.009833 0.010145 0.009316 0.011689 0.006706 0.008659 0.009444 0.005940 0.007276 0.010794 0.011322 0.009713 0.012410 0.008830 0.009499 0.008305 0.009551 0.009107 0.011797 0.006440 0.008463 0.009489 0.009386 0.006069 0.008030 0.009169 0.006997 0.007390 0.006696 0.012741 0.010613 0.007438 0.004985 0.009207 0.011369 0.010470 0.006824 0.006204 0.017012 0.012508 0.013517 0.008254 0.013443 0.008340 0.008613 0.014655 0.009177 0.007947 0.010599 0.009864 0.007572 0.012064 0.007352 0.014357 0.012752 0.014296 0.008071 0.008019 0.011220 0.010886 0.012358 0.009233 0.013442 0.011057 0.015871
为什么 0.001898 -0.001894 -0.004790 -0.002705 0.000738 0.002270 0.002010 -0.001213 0.001760 -0.000018 0.000670 0.001798 -0.003408 -0.003760 0.001022 -0.001028 -0.003698 0.001387 -0.003747 -0.004469 -0.003087 -0.004665 -0.004657 -0.002319 -0.000090 0.000226 0.001410 -0.003395 -0.000436 -0.002217 0.001559 0.003675 0.004495 0.002048 -0.003180 -0.001508 0.000633 -0.000573 0.001499 0.002332 0.002127 0.004903 0.002330 0.000654 -0.002995 -0.001813 -0.003588 0.004459 -0.004216 -0.004158 -0.003777 -0.003163 -0.001117 0.002937 -0.001076 -0.003315 -0.004658 -0.004760 -0.002080 0.003511 -0.003439 -0.003707 -0.004932 0.000591 0.000818 0.003107 -0.004374 0.001684 -0.003815 0.001028 0.002195 -0.000061 0.004084 -0.002940 0.000792 -0.002300 -0.003826 0.002283 0.001291 -0.000413 -0.002627 0.000106 -0.000073 0.003654 0.001606 -0.003755 -0.003466 0.003003 0.004996 0.001616 -0.004931 -0.004038 0.004061 0.002439 0.004603 0.000057 -0.002120 0.001256 -0.004712 -0.001083 0.015122 0.007613 0.007311 0.007887 0.011984 0.010017 0.011479 0.009422 0.010709 0.009376 0.006324 0.011313 0.011247 0.008031 0.006915 0.014276 0.017429 0.012684 0.009226 0.007298 0.016516 0.006417 0.009701 0.006251 0.007356 0.006104 0.007249 0.012269 0.008461 0.013988 0.014752 0.012163 0.008770 0.008877 0.014669 0.009833 0.010144 0.009315 0.011688 0.006706 0.008658 0.009445 0.005941 0.007276 0.010791 0.011322 0.009713 0.012406 0.008829 0.009500 0.008305 0.009552 0.009108 0.011798 0.006441 0.008464 0.009490 0.009385 0.006070 0.008032 0.009167 0.007000 0.007390 0.006697 0.012740 0.010613 0.007440 0.004985 0.009205 0.011371 0.010469 0.006824 0.006204 0.017016 0.012509 0.013515 0.008256 0.013444 0.008341 0.008615 0.014655 0.009176 0.007947 0.010598 0.009865 0.007573 0.012066 0.007353 0.014353 0.012752 0.014295 0.008070 0.008018 0.011218 0.010879 0.012360 0.009232 0.013444 0.011059 0.015865
接吻 0.004742 0.002812 -0.001785 0.000231 0.004113 0.000086 -0.002703 -0.003389 -0.004236 0.004593 -0.002615 -0.000167 0.001389 0.001872 0.004202 -0.000948 -0.003362 -0.002898 -0.004298 -0.003348 -0.000786 -0.004108 -0.003307 -0.002911 -0.003150 -0.001227 -0.003445 -0.000624 0.003078 -0.001730 0.004585 0.000584 -0.004772 -0.004336 -0.002033 -0.004617 0.000230 -0.001993 -0.000295 0.000018 0.001513 0.004629 -0.002134 0.002698 -0.004649 0.002975 0.001862 0.002450 -0.003653 0.003854 0.002041 -0.003144 0.004523 0.000088 0.004320 0.004215 0.002228 0.004610 0.003035 -0.004493 0.003957 -0.000169 0.002618 -0.004074 0.003895 0.004644 0.004556 0.004224 0.000008 -0.001311 0.004714 0.004239 -0.002483 0.004291 0.000993 0.004663 -0.000928 -0.002178 0.002784 0.002117 0.001133 -0.002601 0.003367 -0.000609 -0.004397 0.000087 -0.000797 -0.001629 0.003252 -0.004867 0.004825 -0.004363 0.004718 -0.000416 0.000962 -0.003733 -0.000123 -0.001063 -0.004888 0.002472 0.015121 0.007613 0.007310 0.007886 0.011987 0.010016 0.011484 0.009423 0.010711 0.009373 0.006322 0.011312 0.011245 0.008032 0.006910 0.014279 0.017434 0.012688 0.009227 0.007300 0.016519 0.006415 0.009702 0.006251 0.007353 0.006102 0.007248 0.012271 0.008460 0.013990 0.014755 0.012159 0.008767 0.008875 0.014671 0.009834 0.010147 0.009314 0.011687 0.006706 0.008660 0.009444 0.005939 0.007275 0.010793 0.011321 0.009712 0.012406 0.008830 0.009501 0.008304 0.009553 0.009106 0.011796 0.006439 0.008464 0.009489 0.009386 0.006068 0.008028 0.009167 0.006998 0.007388 0.006696 0.012742 0.010613 0.007438 0.004983 0.009207 0.011371 0.010473 0.006821 0.006201 0.017018 0.012509 0.013516 0.008253 0.013443 0.008339 0.008613 0.014662 0.009175 0.007944 0.010599 0.009864 0.007571 0.012066 0.007352 0.014358 0.012754 0.014296 0.008071 0.008017 0.011219 0.010885 0.012362 0.009233 0.013443 0.011055 0.015869
的 0.002222 -0.004804 0.002791 0.001981 0.000144 0.000414 -0.000800 0.003449 0.004549 0.004327 0.004499 -0.000437 -0.003821 0.000830 0.003855 -0.000642 0.003788 -0.001898 -0.003708 -0.002870 0.000193 0.000297 0.004548 0.004455 0.001077 0.000387 0.002305 -0.002968 -0.004657 0.000202 -0.004283 0.000017 0.004361 -0.000552 0.003509 -0.004472 -0.001746 -0.000081 -0.004252 -0.004641 -0.004127 0.001328 0.003075 -0.004872 0.000625 -0.002080 0.004318 0.003273 0.004620 0.003149 0.000527 -0.003051 -0.004194 0.001775 0.001699 0.001827 -0.003493 0.003893 -0.001304 0.004316 -0.004188 -0.003299 0.001991 0.000769 -0.003658 0.002350 0.003074 -0.002004 -0.000265 -0.004744 -0.002290 0.003635 0.004159 0.003220 0.001178 -0.001335 -0.001369 0.002648 0.000169 -0.001430 0.003152 -0.000928 -0.000606 0.004086 -0.001475 -0.002129 0.004513 0.002210 0.001765 0.002081 0.004550 0.002755 -0.002028 0.001305 0.002983 -0.003813 0.004862 0.001984 -0.001439 0.000648 0.015126 0.007613 0.007310 0.007887 0.011986 0.010012 0.011482 0.009421 0.010713 0.009373 0.006320 0.011311 0.011249 0.008030 0.006912 0.014279 0.017437 0.012688 0.009223 0.007298 0.016520 0.006416 0.009699 0.006250 0.007353 0.006103 0.007248 0.012272 0.008460 0.013990 0.014752 0.012162 0.008768 0.008873 0.014671 0.009834 0.010146 0.009317 0.011689 0.006706 0.008658 0.009443 0.005939 0.007275 0.010791 0.011321 0.009711 0.012410 0.008829 0.009499 0.008303 0.009552 0.009108 0.011797 0.006441 0.008463 0.009488 0.009386 0.006068 0.008030 0.009167 0.006999 0.007388 0.006694 0.012742 0.010614 0.007437 0.004982 0.009206 0.011369 0.010472 0.006822 0.006201 0.017023 0.012510 0.013517 0.008253 0.013441 0.008341 0.008614 0.014662 0.009177 0.007944 0.010600 0.009866 0.007571 0.012061 0.007351 0.014362 0.012754 0.014300 0.008071 0.008016 0.011216 0.010883 0.012360 0.009230 0.013444 0.011057 0.015871
时候 0.000111 0.004816 -0.002731 0.000588 0.002822 0.000420 -0.002156 0.000042 -0.001662 0.000857 -0.002257 -0.004838 -0.004327 -0.003536 -0.003360 -0.000153 -0.001195 -0.002459 -0.000237 0.002540 -0.001906 0.004152 -0.003544 0.004326 0.003374 -0.004103 -0.003528 -0.001383 0.003783 0.001662 -0.001490 -0.000270 0.004929 0.001118 -0.001773 -0.001392 -0.000652 -0.001569 -0.002568 -0.003512 -0.001781 -0.004214 -0.000655 -0.003039 0.003658 -0.002203 0.002073 0.003398 -0.003258 0.004919 0.000760 -0.000948 -0.004685 -0.001992 -0.000650 0.004027 0.000626 0.003342 0.001714 0.000237 -0.000602 0.002349 -0.002479 0.004079 0.001297 0.000166 0.003529 -0.000476 0.003723 0.003644 -0.001508 0.001380 0.004654 -0.000319 0.003665 -0.002066 0.004142 0.004298 -0.002474 -0.000536 0.003300 -0.001574 0.000236 0.000491 -0.001240 0.001215 -0.002014 -0.004818 0.003025 -0.002655 -0.000397 -0.000434 0.001512 -0.001355 0.004405 0.000640 0.004494 -0.001932 0.002598 0.003650 0.015121 0.007614 0.007310 0.007887 0.011986 0.010015 0.011482 0.009420 0.010710 0.009374 0.006324 0.011311 0.011247 0.008030 0.006913 0.014279 0.017433 0.012686 0.009226 0.007299 0.016520 0.006416 0.009702 0.006252 0.007355 0.006103 0.007248 0.012271 0.008462 0.013988 0.014753 0.012161 0.008770 0.008875 0.014668 0.009834 0.010145 0.009315 0.011687 0.006705 0.008659 0.009443 0.005939 0.007276 0.010792 0.011323 0.009712 0.012407 0.008830 0.009500 0.008303 0.009551 0.009107 0.011797 0.006440 0.008464 0.009488 0.009386 0.006068 0.008031 0.009168 0.006998 0.007388 0.006696 0.012742 0.010615 0.007439 0.004984 0.009206 0.011369 0.010471 0.006824 0.006204 0.017014 0.012512 0.013516 0.008254 0.013443 0.008342 0.008613 0.014658 0.009176 0.007946 0.010600 0.009866 0.007572 0.012067 0.007352 0.014356 0.012751 0.014296 0.008072 0.008019 0.011216 0.010882 0.012360 0.009233 0.013444 0.011057 0.015866
男生 0.000550 0.003909 0.000742 -0.004455 -0.001468 0.003084 -0.004231 -0.004971 -0.003104 -0.001220 0.001294 -0.003915 -0.001988 -0.003554 -0.001196 -0.003050 -0.003316 0.003187 -0.001571 0.004338 0.002705 0.004787 -0.003302 0.003578 0.001146 0.000527 0.001872 0.001497 0.000788 0.002621 -0.004648 -0.003772 -0.002587 0.001263 -0.004895 0.002186 0.002615 -0.003520 -0.003016 0.000339 -0.002933 -0.002441 -0.004663 0.004177 0.001946 0.003950 -0.004785 0.004093 0.004150 0.002413 -0.003259 0.003557 -0.003375 -0.003893 0.000642 -0.004927 0.001045 -0.004002 0.004309 -0.004827 -0.000506 -0.004541 -0.002381 -0.003210 0.000183 0.003265 -0.002417 -0.001632 0.000324 -0.000299 0.004335 -0.000214 0.001036 -0.002662 -0.004724 -0.000492 -0.002347 0.004176 -0.004464 0.004259 0.003606 0.003463 0.003780 -0.003052 -0.002740 0.004046 0.002417 0.001500 -0.003789 -0.003292 0.003134 -0.003631 -0.000834 -0.001542 -0.001625 -0.004139 0.000058 -0.003868 -0.001840 -0.003569 0.015124 0.007613 0.007310 0.007886 0.011989 0.010017 0.011483 0.009422 0.010710 0.009374 0.006321 0.011311 0.011247 0.008031 0.006914 0.014278 0.017438 0.012688 0.009224 0.007300 0.016524 0.006415 0.009701 0.006252 0.007353 0.006102 0.007249 0.012271 0.008460 0.013989 0.014753 0.012163 0.008768 0.008874 0.014672 0.009831 0.010144 0.009313 0.011691 0.006705 0.008657 0.009444 0.005938 0.007276 0.010795 0.011323 0.009712 0.012407 0.008828 0.009500 0.008304 0.009552 0.009108 0.011796 0.006440 0.008462 0.009490 0.009386 0.006069 0.008031 0.009168 0.006998 0.007388 0.006695 0.012743 0.010613 0.007438 0.004983 0.009205 0.011371 0.010469 0.006824 0.006204 0.017020 0.012508 0.013517 0.008255 0.013443 0.008341 0.008613 0.014658 0.009175 0.007945 0.010599 0.009866 0.007571 0.012067 0.007352 0.014354 0.012748 0.014295 0.008072 0.008018 0.011217 0.010880 0.012360 0.009230 0.013440 0.011059 0.015869
会摸 0.000747 0.000030 -0.003442 -0.002258 -0.003154 -0.004535 0.001076 0.004967 0.000445 -0.002829 0.002577 -0.002011 0.001805 0.002237 0.003796 0.002679 0.004386 -0.002434 0.004260 0.004217 -0.002749 -0.001010 0.000587 0.004203 0.004343 -0.001127 0.001537 -0.002526 -0.004218 0.003668 -0.003634 0.004750 -0.004955 0.000969 0.002364 0.000898 -0.000027 0.001576 0.003690 0.000926 -0.002467 -0.003342 -0.004408 0.004262 0.002951 0.002540 0.002908 0.003450 -0.001373 -0.003242 0.004160 -0.004521 -0.001297 0.002920 -0.004375 0.003012 0.003562 -0.001942 -0.002172 -0.001861 -0.003369 0.004727 -0.003319 -0.004377 0.003215 0.004665 -0.001297 0.001165 0.002936 -0.000007 -0.001434 0.002969 -0.002304 -0.000810 -0.003676 -0.004197 -0.004623 -0.004593 -0.002613 0.003608 -0.001991 0.000802 -0.003089 -0.004763 -0.002781 -0.003033 -0.004417 -0.001648 -0.004291 0.002182 0.003193 -0.001867 0.004932 0.004493 0.002633 0.002500 -0.003192 -0.000041 -0.002532 -0.002072 0.015122 0.007614 0.007309 0.007886 0.011987 0.010017 0.011482 0.009421 0.010709 0.009376 0.006321 0.011311 0.011247 0.008029 0.006912 0.014277 0.017435 0.012684 0.009227 0.007300 0.016521 0.006415 0.009702 0.006251 0.007353 0.006101 0.007248 0.012269 0.008459 0.013992 0.014755 0.012161 0.008767 0.008875 0.014671 0.009834 0.010143 0.009316 0.011689 0.006704 0.008658 0.009443 0.005939 0.007274 0.010793 0.011322 0.009712 0.012408 0.008830 0.009502 0.008304 0.009553 0.009107 0.011797 0.006439 0.008463 0.009489 0.009386 0.006067 0.008030 0.009167 0.006998 0.007387 0.006695 0.012744 0.010612 0.007436 0.004983 0.009205 0.011372 0.010471 0.006821 0.006202 0.017020 0.012511 0.013517 0.008253 0.013445 0.008338 0.008612 0.014660 0.009177 0.007944 0.010598 0.009864 0.007572 0.012066 0.007351 0.014359 0.012754 0.014297 0.008070 0.008017 0.011218 0.010887 0.012363 0.009233 0.013444 0.011060 0.015871
女生 0.003808 -0.000117 0.004811 0.000519 -0.001701 -0.004710 0.004122 0.000725 -0.003053 0.004838 -0.003264 -0.001384 -0.001081 0.001462 -0.000868 -0.004015 -0.003213 0.003677 -0.002579 -0.001071 0.002166 0.004182 -0.003057 -0.002066 -0.001365 0.000374 0.003700 0.000455 0.003167 -0.004785 0.003111 -0.002478 -0.003602 -0.003707 0.004288 -0.002701 0.002148 0.000854 0.003431 0.000547 0.003016 0.000740 -0.001279 -0.004553 -0.004854 -0.003479 -0.004414 -0.004680 0.004413 0.003284 0.004151 -0.004114 0.001529 -0.002394 -0.001945 0.004465 -0.000739 -0.004026 0.001204 0.004715 0.003113 0.001639 -0.002259 0.000542 -0.001293 -0.003893 0.004665 -0.004046 -0.003118 0.004152 0.002979 -0.004050 -0.003816 0.000919 -0.000535 0.003930 0.000857 0.000279 -0.000888 0.000167 -0.002035 -0.003580 0.000150 -0.003082 -0.001798 -0.000640 -0.000130 -0.001206 -0.002107 0.000341 -0.004400 -0.000971 -0.004689 0.003515 0.000331 -0.001148 -0.000271 0.000654 -0.002837 0.001737 0.015126 0.007612 0.007309 0.007885 0.011986 0.010017 0.011481 0.009422 0.010710 0.009374 0.006321 0.011312 0.011247 0.008029 0.006913 0.014277 0.017437 0.012687 0.009224 0.007298 0.016523 0.006415 0.009699 0.006251 0.007353 0.006101 0.007247 0.012272 0.008459 0.013991 0.014753 0.012163 0.008768 0.008875 0.014673 0.009831 0.010143 0.009315 0.011691 0.006706 0.008657 0.009445 0.005937 0.007275 0.010793 0.011323 0.009713 0.012407 0.008829 0.009502 0.008303 0.009551 0.009106 0.011799 0.006438 0.008463 0.009491 0.009387 0.006068 0.008030 0.009166 0.006998 0.007387 0.006694 0.012743 0.010613 0.007438 0.004982 0.009205 0.011372 0.010470 0.006821 0.006202 0.017027 0.012510 0.013518 0.008254 0.013443 0.008339 0.008612 0.014662 0.009174 0.007943 0.010598 0.009864 0.007570 0.012068 0.007352 0.014358 0.012752 0.014297 0.008071 0.008017 0.011217 0.010882 0.012360 0.009230 0.013445 0.011058 0.015872
胸部 0.002836 0.001441 -0.001356 -0.000621 0.001074 0.001124 0.003998 -0.004107 -0.004551 -0.002554 -0.002306 -0.002124 0.000598 0.004938 -0.004020 0.001225 -0.001226 -0.000181 0.000790 0.003561 -0.003259 0.004792 0.001506 -0.003326 -0.004738 -0.003840 0.001027 0.004116 0.001049 0.000568 0.001256 -0.001100 -0.003428 0.000687 0.002746 -0.000877 0.002450 0.000612 0.004731 -0.004742 -0.002972 -0.004706 -0.003302 -0.001215 0.001840 0.000250 0.001217 0.004785 0.001112 0.004293 0.003260 -0.004577 -0.003753 0.003188 0.001163 -0.001093 0.001785 -0.002979 -0.000983 -0.000314 -0.000688 0.001882 0.004161 0.002000 -0.004052 0.003173 -0.004899 0.002805 0.000889 0.004970 0.004049 0.004494 -0.000786 -0.002240 -0.001241 -0.002882 -0.001792 -0.001386 0.003319 0.001052 0.001845 -0.001795 0.001549 -0.001907 0.003686 0.004215 -0.000426 0.003378 0.001530 0.001068 -0.001066 -0.001441 -0.002309 -0.000264 -0.000569 -0.000527 0.001997 0.003311 -0.002255 0.001737 0.015123 0.007616 0.007310 0.007887 0.011985 0.010017 0.011482 0.009423 0.010712 0.009377 0.006323 0.011309 0.011249 0.008030 0.006914 0.014278 0.017435 0.012686 0.009226 0.007300 0.016520 0.006416 0.009704 0.006251 0.007355 0.006103 0.007250 0.012268 0.008462 0.013983 0.014752 0.012160 0.008765 0.008875 0.014671 0.009831 0.010144 0.009314 0.011687 0.006707 0.008658 0.009442 0.005940 0.007277 0.010793 0.011322 0.009712 0.012407 0.008827 0.009500 0.008306 0.009553 0.009107 0.011795 0.006441 0.008462 0.009490 0.009385 0.006070 0.008030 0.009167 0.006998 0.007391 0.006698 0.012741 0.010611 0.007439 0.004985 0.009205 0.011369 0.010471 0.006824 0.006204 0.017016 0.012508 0.013515 0.008253 0.013442 0.008341 0.008613 0.014655 0.009177 0.007947 0.010600 0.009866 0.007572 0.012065 0.007352 0.014356 0.012750 0.014293 0.008072 0.008017 0.011220 0.010886 0.012360 0.009232 0.013440 0.011060 0.015869
汽车 0.003500 0.004739 0.000271 -0.001553 0.000498 0.002399 -0.004849 -0.003504 -0.002586 0.001688 0.002768 -0.003769 0.004363 -0.000571 0.003826 0.003733 -0.001385 -0.003545 0.001108 -0.000345 0.004080 0.001178 -0.001395 0.002231 -0.001513 0.001913 0.004291 -0.003625 0.001827 -0.000173 0.001723 0.004856 0.003598 -0.000409 0.004197 0.004546 -0.000899 -0.000672 -0.001309 0.003829 0.001704 -0.003111 0.002343 -0.004330 -0.003267 0.000803 -0.002815 0.004285 -0.004509 -0.002481 -0.004602 -0.000025 0.004315 0.000648 0.000433 0.001197 -0.004009 0.003484 0.001582 0.001685 -0.004618 -0.003387 0.002407 -0.000524 0.003397 -0.001558 0.004574 -0.001196 -0.003580 0.003735 -0.000441 0.000743 0.003181 -0.003541 0.002998 0.001466 0.000945 -0.002240 0.004783 -0.000704 0.002499 -0.001559 -0.002536 0.002820 -0.003393 0.003334 -0.000487 0.002867 -0.003406 0.003334 -0.004972 0.002367 -0.002324 0.003354 -0.004342 -0.002792 0.000562 -0.003189 -0.004078 0.004584 0.015124 0.007613 0.007310 0.007886 0.011986 0.010017 0.011480 0.009423 0.010709 0.009375 0.006323 0.011314 0.011247 0.008030 0.006915 0.014276 0.017431 0.012687 0.009226 0.007299 0.016520 0.006417 0.009701 0.006252 0.007354 0.006103 0.007250 0.012270 0.008460 0.013987 0.014748 0.012159 0.008768 0.008875 0.014670 0.009834 0.010146 0.009315 0.011688 0.006706 0.008658 0.009443 0.005941 0.007275 0.010793 0.011322 0.009715 0.012409 0.008829 0.009501 0.008304 0.009553 0.009108 0.011795 0.006440 0.008462 0.009489 0.009387 0.006070 0.008031 0.009168 0.006999 0.007391 0.006696 0.012742 0.010613 0.007439 0.004985 0.009206 0.011370 0.010471 0.006823 0.006205 0.017019 0.012510 0.013512 0.008255 0.013443 0.008341 0.008614 0.014659 0.009177 0.007947 0.010598 0.009865 0.007571 0.012067 0.007352 0.014356 0.012750 0.014291 0.008070 0.008019 0.011218 0.010881 0.012359 0.009232 0.013440 0.011059 0.015866
行业 -0.002778 0.001726 0.003715 0.003652 -0.004079 -0.002968 0.003793 0.001785 0.004502 0.003583 -0.003840 0.003644 0.004217 0.000321 -0.004678 0.002898 0.002643 -0.000130 0.001598 -0.001841 -0.003229 0.003863 0.004978 -0.002835 0.002422 -0.002927 0.001952 0.003010 0.003119 0.000065 -0.003931 0.004445 0.003167 -0.003795 0.003848 0.000570 0.004744 -0.003270 -0.001591 0.003945 0.001578 -0.002009 -0.001316 -0.004487 -0.001414 0.003128 0.003544 0.001217 0.004990 0.003441 0.001994 -0.004113 0.000223 0.003283 0.002569 -0.003839 -0.002855 0.001342 0.004491 -0.000749 0.002757 -0.000889 0.001078 -0.004867 -0.003310 -0.004815 0.001588 -0.000563 0.003868 -0.001889 0.004615 0.002715 -0.003813 0.002272 -0.000226 0.001037 0.001297 -0.000609 -0.001136 0.002185 0.003940 -0.004471 0.002361 -0.000018 0.001686 -0.004627 0.004173 0.004308 0.004449 -0.004856 0.002862 0.003450 -0.000042 -0.001824 0.003129 0.001465 0.002132 -0.002735 -0.001599 -0.004727 0.015122 0.007615 0.007312 0.007888 0.011984 0.010017 0.011479 0.009422 0.010707 0.009378 0.006324 0.011312 0.011248 0.008032 0.006917 0.014273 0.017426 0.012685 0.009227 0.007300 0.016513 0.006418 0.009701 0.006253 0.007355 0.006105 0.007249 0.012272 0.008462 0.013987 0.014750 0.012161 0.008769 0.008876 0.014670 0.009833 0.010144 0.009317 0.011686 0.006709 0.008658 0.009444 0.005941 0.007277 0.010793 0.011323 0.009715 0.012405 0.008831 0.009502 0.008305 0.009553 0.009108 0.011798 0.006443 0.008464 0.009489 0.009385 0.006071 0.008031 0.009169 0.007000 0.007390 0.006698 0.012739 0.010614 0.007440 0.004986 0.009206 0.011369 0.010471 0.006825 0.006204 0.017012 0.012510 0.013514 0.008255 0.013443 0.008339 0.008616 0.014656 0.009177 0.007946 0.010596 0.009863 0.007573 0.012068 0.007353 0.014353 0.012749 0.014295 0.008071 0.008019 0.011217 0.010882 0.012357 0.009232 0.013443 0.011058 0.015863
有 0.003638 0.000834 -0.001555 0.001482 -0.004264 0.002086 0.001297 -0.004571 0.004161 -0.003081 -0.004845 -0.003985 0.003147 0.003671 0.000418 0.003030 0.001397 -0.003097 0.003824 -0.004550 0.002559 0.002065 -0.003681 -0.002213 0.004571 0.004503 -0.000423 -0.000252 -0.002146 -0.003673 -0.001176 0.000299 -0.000727 -0.001649 -0.002127 0.000333 0.002477 -0.004124 0.001159 -0.004862 -0.004414 -0.002279 -0.004505 0.001102 0.002958 -0.002145 -0.000994 0.000980 -0.003202 -0.004116 0.001059 0.000204 0.000972 -0.000178 0.001549 0.003117 -0.002807 0.002209 0.004825 -0.002093 -0.001237 -0.004660 0.000530 0.004011 -0.004392 -0.004313 -0.002627 0.004959 0.000633 0.000116 0.002313 -0.000404 0.001572 0.004645 -0.001131 0.001249 -0.000073 0.003918 0.004501 0.002375 0.003058 -0.003665 0.002724 -0.000378 -0.001973 -0.004317 -0.000965 -0.003548 0.002097 0.002237 0.000995 -0.002731 0.003864 -0.003159 -0.002597 -0.000683 -0.004156 -0.004961 0.004366 0.004455 0.015120 0.007613 0.007313 0.007887 0.011986 0.010017 0.011480 0.009422 0.010709 0.009375 0.006325 0.011313 0.011247 0.008034 0.006917 0.014277 0.017427 0.012687 0.009228 0.007300 0.016518 0.006418 0.009702 0.006255 0.007357 0.006105 0.007251 0.012268 0.008461 0.013985 0.014750 0.012157 0.008768 0.008876 0.014665 0.009835 0.010144 0.009313 0.011689 0.006708 0.008661 0.009446 0.005942 0.007277 0.010793 0.011322 0.009714 0.012404 0.008831 0.009502 0.008305 0.009551 0.009109 0.011795 0.006443 0.008464 0.009489 0.009387 0.006069 0.008030 0.009169 0.007002 0.007391 0.006697 0.012739 0.010612 0.007444 0.004986 0.009207 0.011371 0.010472 0.006825 0.006206 0.017016 0.012508 0.013511 0.008257 0.013441 0.008342 0.008616 0.014655 0.009176 0.007948 0.010597 0.009867 0.007572 0.012067 0.007354 0.014349 0.012746 0.014287 0.008071 0.008019 0.011217 0.010879 0.012357 0.009232 0.013441 0.011058 0.015864
笑话 0.000948 0.003736 0.000682 -0.004530 -0.000155 0.004143 -0.001810 0.001830 0.003837 -0.000769 -0.004365 -0.000552 -0.001712 0.002306 -0.000442 -0.004821 -0.001932 0.001118 0.002184 0.001219 0.002501 -0.004477 0.004502 -0.004140 -0.001792 0.002199 -0.000854 0.004411 -0.001804 -0.002555 -0.004073 -0.002665 0.003184 0.003698 -0.000908 -0.002175 -0.004825 -0.003509 -0.002118 0.001627 0.002803 0.003024 -0.000168 -0.003005 0.003986 0.000769 0.003280 -0.001596 0.000936 -0.004487 -0.000344 -0.001859 -0.002224 -0.002198 -0.002671 -0.004492 -0.001481 -0.002482 -0.000435 0.001716 -0.002220 -0.000841 -0.001469 -0.002929 -0.001684 -0.000642 0.001081 -0.003783 -0.002246 0.000608 0.004750 -0.000289 0.000577 0.000331 -0.003743 0.003512 -0.002725 0.003457 -0.002343 -0.003190 -0.003428 -0.003498 -0.003174 0.003711 0.002103 0.004990 0.000697 0.004754 -0.002649 0.000305 -0.000220 0.004953 -0.003453 0.000705 -0.000437 -0.000795 0.004203 -0.002469 0.000146 -0.003306 0.015123 0.007613 0.007308 0.007886 0.011987 0.010016 0.011481 0.009421 0.010709 0.009375 0.006321 0.011311 0.011247 0.008030 0.006914 0.014280 0.017434 0.012687 0.009225 0.007301 0.016524 0.006415 0.009701 0.006251 0.007355 0.006101 0.007249 0.012272 0.008460 0.013989 0.014756 0.012161 0.008768 0.008876 0.014672 0.009835 0.010145 0.009315 0.011691 0.006706 0.008658 0.009444 0.005938 0.007275 0.010792 0.011321 0.009712 0.012407 0.008831 0.009501 0.008302 0.009552 0.009108 0.011797 0.006438 0.008463 0.009488 0.009386 0.006068 0.008034 0.009166 0.006999 0.007389 0.006696 0.012740 0.010613 0.007437 0.004983 0.009206 0.011372 0.010470 0.006822 0.006204 0.017019 0.012507 0.013518 0.008253 0.013442 0.008341 0.008613 0.014656 0.009175 0.007945 0.010599 0.009864 0.007573 0.012068 0.007351 0.014356 0.012751 0.014296 0.008070 0.008017 0.011217 0.010881 0.012360 0.009231 0.013441 0.011062 0.015867
如何 -0.002599 0.000893 0.001170 0.004802 0.003217 -0.003986 -0.001110 -0.004108 0.002043 0.001641 0.003055 0.000768 0.003397 0.002421 0.000572 -0.001047 0.003448 0.003233 -0.001964 0.003496 0.001846 -0.002874 0.003814 0.001324 0.001031 0.002045 0.002350 0.001171 0.001396 -0.004244 -0.003009 -0.003093 -0.003505 0.001479 0.004766 0.003680 0.002628 0.001666 0.000800 0.004633 -0.003736 -0.002144 -0.003943 0.001909 0.001244 0.002784 -0.004083 -0.000233 0.003391 0.002012 0.004814 -0.001166 -0.001383 0.004493 -0.001115 -0.000319 0.000564 0.000715 -0.004942 -0.000847 0.000435 -0.003558 -0.000136 -0.002412 0.000676 -0.004986 0.004014 0.000655 0.000019 0.002304 0.000881 -0.000716 0.001180 -0.003404 -0.003537 -0.004790 0.003653 -0.003104 0.003847 0.002762 0.001468 -0.004551 -0.002750 -0.003591 0.004026 0.001384 0.004568 -0.001357 -0.003958 0.002666 -0.003946 -0.002501 0.004033 -0.002283 -0.000992 -0.001254 -0.003742 0.002398 0.003429 0.000636 0.015123 0.007615 0.007311 0.007887 0.011985 0.010015 0.011480 0.009421 0.010709 0.009378 0.006322 0.011311 0.011247 0.008031 0.006914 0.014279 0.017435 0.012686 0.009224 0.007298 0.016521 0.006416 0.009702 0.006253 0.007356 0.006103 0.007250 0.012273 0.008460 0.013989 0.014752 0.012160 0.008768 0.008876 0.014673 0.009833 0.010145 0.009315 0.011689 0.006706 0.008657 0.009443 0.005940 0.007276 0.010791 0.011322 0.009710 0.012407 0.008830 0.009500 0.008305 0.009549 0.009108 0.011798 0.006440 0.008463 0.009489 0.009387 0.006068 0.008030 0.009169 0.006999 0.007390 0.006696 0.012741 0.010616 0.007439 0.004985 0.009207 0.011368 0.010471 0.006822 0.006204 0.017013 0.012508 0.013517 0.008254 0.013443 0.008340 0.008613 0.014656 0.009177 0.007945 0.010598 0.009865 0.007571 0.012066 0.007351 0.014354 0.012751 0.014295 0.008072 0.008018 0.011219 0.010885 0.012360 0.009231 0.013443 0.011057 0.015868
快速 0.004485 0.001801 0.002592 -0.003904 0.001376 -0.001495 -0.004417 -0.002137 -0.003463 0.004362 -0.004566 0.004132 -0.000013 0.004374 -0.004380 0.001983 -0.001151 0.003163 0.004708 0.000376 -0.000483 -0.003446 -0.004941 -0.003802 0.003747 0.004069 -0.001840 0.004703 0.002333 0.001436 0.003564 -0.003676 0.002035 0.002017 -0.003102 -0.000886 0.004822 -0.001894 0.003268 0.004144 -0.002692 0.000885 -0.002813 -0.000246 0.000173 0.001483 0.003185 0.003329 -0.002678 -0.000157 -0.000506 -0.001615 -0.001281 -0.001370 0.003862 -0.001065 0.001402 -0.003387 0.000689 0.000418 -0.001178 -0.000097 -0.002639 -0.004325 0.003697 -0.000500 0.004276 0.004988 0.002970 0.003612 -0.004604 -0.003666 -0.002359 -0.002722 0.000062 -0.004386 -0.002445 -0.000415 -0.001111 0.002285 -0.001649 0.002022 -0.001744 0.001994 -0.002118 0.004200 -0.000079 -0.004348 0.003836 0.003317 0.002521 -0.004532 -0.003445 0.003989 0.002231 0.001786 0.003682 0.004718 -0.004519 0.002626 0.015121 0.007613 0.007311 0.007887 0.011985 0.010016 0.011482 0.009422 0.010709 0.009376 0.006322 0.011310 0.011249 0.008029 0.006914 0.014277 0.017434 0.012685 0.009224 0.007299 0.016519 0.006416 0.009702 0.006251 0.007355 0.006102 0.007248 0.012274 0.008463 0.013989 0.014752 0.012162 0.008767 0.008876 0.014672 0.009833 0.010145 0.009316 0.011691 0.006706 0.008658 0.009443 0.005939 0.007276 0.010791 0.011323 0.009711 0.012407 0.008830 0.009501 0.008302 0.009553 0.009110 0.011798 0.006441 0.008463 0.009490 0.009386 0.006068 0.008031 0.009167 0.006999 0.007387 0.006697 0.012742 0.010615 0.007439 0.004984 0.009203 0.011372 0.010470 0.006824 0.006204 0.017017 0.012506 0.013516 0.008255 0.013441 0.008339 0.008613 0.014659 0.009175 0.007946 0.010600 0.009866 0.007571 0.012068 0.007353 0.014357 0.012750 0.014294 0.008071 0.008019 0.011216 0.010883 0.012361 0.009231 0.013443 0.011059 0.015868
去除 0.002220 0.001838 -0.000362 0.002356 -0.001260 -0.000213 0.000709 -0.004866 -0.004662 0.004326 -0.002471 0.004132 0.000551 0.001477 0.002510 0.004275 0.001792 0.000808 -0.000322 -0.001807 -0.003349 -0.003923 -0.002373 0.004065 0.004241 0.003516 0.002861 -0.001094 -0.000294 0.003407 -0.000930 0.001665 0.001029 -0.001615 0.000379 -0.001618 -0.004069 0.001596 -0.001074 0.003609 -0.000426 0.000508 -0.000291 0.003529 0.002984 -0.004897 0.002555 0.002163 -0.003585 0.004080 0.004571 0.001477 0.003505 -0.001818 0.001909 0.004930 0.000718 0.001331 -0.004589 -0.000241 0.001435 -0.000698 -0.004152 -0.001212 -0.000087 0.002512 0.000315 -0.004077 0.000372 0.002515 -0.001054 0.000716 -0.001388 0.002557 -0.002432 0.003419 -0.001023 -0.002829 0.002809 -0.001377 -0.001851 0.004749 -0.001724 -0.003857 -0.001821 -0.002383 -0.001605 -0.000182 0.004924 0.002697 0.004185 -0.000540 -0.000115 -0.004436 0.004631 -0.003806 0.004002 -0.001896 0.001213 0.000810 0.015122 0.007614 0.007308 0.007887 0.011987 0.010016 0.011479 0.009422 0.010709 0.009374 0.006323 0.011310 0.011248 0.008030 0.006914 0.014275 0.017434 0.012686 0.009226 0.007301 0.016521 0.006415 0.009701 0.006250 0.007355 0.006103 0.007249 0.012269 0.008461 0.013992 0.014750 0.012161 0.008769 0.008875 0.014670 0.009834 0.010143 0.009315 0.011688 0.006707 0.008658 0.009445 0.005939 0.007275 0.010791 0.011322 0.009712 0.012407 0.008829 0.009500 0.008304 0.009551 0.009107 0.011796 0.006440 0.008463 0.009488 0.009386 0.006068 0.008030 0.009166 0.006997 0.007389 0.006695 0.012741 0.010614 0.007439 0.004984 0.009204 0.011369 0.010469 0.006823 0.006203 0.017017 0.012511 0.013516 0.008254 0.013443 0.008339 0.008615 0.014659 0.009177 0.007945 0.010598 0.009867 0.007572 0.012067 0.007352 0.014358 0.012754 0.014296 0.008072 0.008019 0.011218 0.010884 0.012361 0.009233 0.013443 0.011060 0.015871
前 -0.002222 0.004389 -0.000271 -0.004250 -0.000366 -0.001919 0.002395 -0.002265 0.004324 0.003979 0.000384 -0.003896 -0.004435 -0.001540 0.004131 0.003752 0.002252 0.004468 -0.003594 -0.000871 -0.003772 0.000326 -0.003743 0.000857 -0.000465 0.003345 0.004255 -0.000526 -0.004768 0.004621 -0.001377 -0.002861 0.004599 0.004756 0.000474 0.001202 0.004396 0.002865 0.001165 -0.003915 -0.000809 -0.004432 0.002565 -0.000546 -0.001117 0.002992 0.001246 -0.001212 0.003424 -0.000274 0.001351 0.000507 0.004352 0.003519 0.002184 -0.003793 -0.002265 -0.001143 -0.000769 -0.000619 -0.001524 0.002598 0.000045 0.000369 0.003212 -0.002847 -0.000141 -0.004111 0.000653 -0.001625 0.003888 0.000276 0.002247 0.003115 -0.002229 -0.004863 0.000921 -0.002852 0.001052 0.003043 -0.002577 0.003928 -0.004451 0.004264 -0.000521 0.001276 -0.001079 -0.000379 0.000955 0.002762 0.003259 -0.003390 0.004483 -0.002108 -0.002834 0.004218 -0.003053 0.003398 -0.003758 0.002968 0.015129 0.007613 0.007307 0.007889 0.011982 0.010013 0.011480 0.009421 0.010709 0.009375 0.006321 0.011312 0.011248 0.008029 0.006913 0.014277 0.017435 0.012687 0.009226 0.007299 0.016520 0.006414 0.009700 0.006251 0.007355 0.006101 0.007245 0.012273 0.008461 0.013995 0.014755 0.012163 0.008769 0.008874 0.014673 0.009834 0.010143 0.009316 0.011689 0.006706 0.008656 0.009441 0.005939 0.007276 0.010791 0.011324 0.009713 0.012409 0.008830 0.009499 0.008300 0.009551 0.009107 0.011798 0.006440 0.008461 0.009485 0.009387 0.006068 0.008032 0.009164 0.006998 0.007387 0.006695 0.012742 0.010614 0.007438 0.004981 0.009207 0.011370 0.010471 0.006821 0.006201 0.017023 0.012511 0.013520 0.008253 0.013442 0.008341 0.008613 0.014659 0.009176 0.007943 0.010597 0.009862 0.007571 0.012071 0.007349 0.014360 0.012755 0.014300 0.008069 0.008015 0.011217 0.010886 0.012362 0.009231 0.013449 0.011061 0.015872
挡风 0.004027 -0.002455 -0.000784 0.001019 0.001989 -0.001519 0.001875 0.004817 -0.000490 0.002171 0.002803 -0.001996 0.001051 0.000071 -0.004680 -0.002265 0.001090 0.000958 -0.003320 0.004934 0.001188 0.004451 0.004685 -0.003660 -0.001222 -0.003558 -0.001993 0.001284 0.002905 -0.000412 0.003086 -0.002310 0.002745 -0.000499 0.002033 -0.001493 -0.001625 -0.004228 -0.003697 -0.002189 -0.003817 0.004813 -0.001252 0.004093 -0.001222 0.003413 0.002369 0.000339 0.004354 0.000065 0.004671 0.004419 -0.004234 -0.003494 0.002919 -0.000232 -0.001650 -0.001594 -0.004734 -0.002168 -0.004167 -0.004509 -0.001694 -0.001156 0.001265 0.000639 0.000998 -0.000971 0.000474 0.003735 0.004134 -0.002077 0.001210 0.001889 -0.000887 -0.003475 0.000569 -0.004283 -0.004275 0.000243 0.000173 0.001241 -0.004989 0.004734 -0.002773 0.001019 -0.001073 0.000082 0.003952 0.002286 -0.002415 0.000314 -0.002799 -0.003591 0.004848 -0.000729 0.002000 0.001330 0.004672 -0.000029 0.015121 0.007614 0.007309 0.007886 0.011986 0.010016 0.011484 0.009422 0.010710 0.009377 0.006322 0.011312 0.011249 0.008031 0.006913 0.014278 0.017431 0.012687 0.009224 0.007300 0.016518 0.006415 0.009703 0.006251 0.007355 0.006102 0.007249 0.012270 0.008462 0.013987 0.014751 0.012161 0.008768 0.008875 0.014670 0.009833 0.010146 0.009315 0.011689 0.006707 0.008659 0.009443 0.005941 0.007278 0.010792 0.011322 0.009713 0.012406 0.008830 0.009501 0.008304 0.009552 0.009107 0.011795 0.006441 0.008463 0.009489 0.009387 0.006069 0.008031 0.009168 0.007000 0.007388 0.006696 0.012742 0.010613 0.007440 0.004984 0.009207 0.011368 0.010472 0.006823 0.006203 0.017015 0.012509 0.013514 0.008254 0.013443 0.008339 0.008613 0.014657 0.009176 0.007945 0.010599 0.009867 0.007572 0.012064 0.007353 0.014356 0.012751 0.014296 0.008071 0.008018 0.011217 0.010883 0.012361 0.009232 0.013441 0.011057 0.015868
玻璃 0.002710 0.003625 -0.001476 0.000576 -0.004288 0.002031 0.002059 0.001158 0.002415 0.003720 -0.000553 -0.004483 0.002090 -0.002416 0.000639 0.000278 -0.000266 -0.001443 -0.002509 0.003332 -0.001478 0.002952 -0.000417 0.004319 -0.004999 0.003012 0.004254 0.004805 0.000195 -0.000691 0.003708 0.002780 0.003926 0.002772 -0.003024 -0.002530 -0.004719 0.003753 -0.003386 -0.001015 0.004198 0.004793 0.004319 -0.002103 -0.003497 0.003733 -0.004476 -0.000862 0.001122 -0.003288 -0.001251 0.002513 0.002114 0.001745 -0.002355 0.004696 -0.003479 -0.004615 0.003576 0.004619 -0.001583 0.003636 0.001536 -0.003365 0.002805 0.000438 0.001525 0.001354 -0.000570 -0.004352 0.002774 -0.003696 0.000989 0.000542 0.000507 0.002603 0.000826 0.004595 0.001599 -0.003711 0.000171 0.001582 0.004611 -0.003230 0.000178 0.002420 -0.000598 0.002350 -0.000784 -0.002419 -0.001078 0.003818 0.003412 0.002760 -0.000369 0.003516 0.001335 0.003873 0.004399 -0.002921 0.015127 0.007613 0.007308 0.007887 0.011987 0.010016 0.011484 0.009422 0.010709 0.009375 0.006322 0.011310 0.011247 0.008030 0.006910 0.014278 0.017440 0.012688 0.009224 0.007298 0.016519 0.006414 0.009702 0.006250 0.007354 0.006101 0.007248 0.012274 0.008461 0.013991 0.014756 0.012163 0.008767 0.008875 0.014677 0.009832 0.010144 0.009316 0.011692 0.006702 0.008657 0.009445 0.005937 0.007273 0.010792 0.011323 0.009711 0.012408 0.008828 0.009500 0.008302 0.009552 0.009107 0.011797 0.006438 0.008463 0.009488 0.009387 0.006068 0.008029 0.009166 0.006996 0.007387 0.006694 0.012741 0.010616 0.007435 0.004983 0.009205 0.011368 0.010470 0.006821 0.006202 0.017018 0.012511 0.013520 0.008254 0.013446 0.008339 0.008613 0.014661 0.009176 0.007944 0.010600 0.009864 0.007570 0.012069 0.007349 0.014359 0.012754 0.014296 0.008070 0.008016 0.011221 0.010883 0.012360 0.009232 0.013445 0.011056 0.015873
上 -0.001610 -0.001472 -0.001955 0.004776 0.002119 0.000437 -0.001202 -0.004730 0.002343 0.004150 0.001108 0.003828 0.003723 -0.003187 -0.003229 0.001352 0.002699 -0.001803 0.002486 0.001004 -0.003790 -0.002004 -0.001958 0.001946 -0.002279 -0.001141 0.000729 -0.000712 -0.000738 -0.002599 0.001572 -0.001276 -0.003225 -0.002628 -0.002422 -0.003017 0.004254 -0.001414 -0.004455 -0.004453 0.004739 0.003065 -0.003947 -0.000050 -0.004592 0.003915 0.000604 -0.004933 0.000347 -0.001734 0.001871 0.001276 -0.004105 0.000444 0.004486 0.000520 0.000779 0.000856 -0.004212 0.002918 -0.001015 0.001633 -0.001819 0.002647 -0.001699 0.003431 0.003691 -0.004777 0.002544 -0.003230 -0.004470 -0.000402 -0.001310 0.000920 -0.000449 -0.003527 0.001508 0.002051 0.001177 0.003813 0.004534 0.002263 0.004893 -0.004872 0.002344 -0.004166 0.003247 0.001087 0.003656 0.002546 0.004765 0.001920 0.001753 -0.004936 -0.003516 -0.002642 -0.003458 0.003489 -0.002982 0.004934 0.015116 0.007615 0.007314 0.007889 0.011987 0.010020 0.011477 0.009425 0.010708 0.009373 0.006325 0.011311 0.011247 0.008033 0.006917 0.014271 0.017421 0.012686 0.009227 0.007302 0.016515 0.006420 0.009701 0.006254 0.007357 0.006104 0.007251 0.012267 0.008464 0.013983 0.014748 0.012162 0.008773 0.008879 0.014664 0.009833 0.010146 0.009315 0.011689 0.006709 0.008661 0.009445 0.005942 0.007279 0.010791 0.011322 0.009716 0.012404 0.008831 0.009501 0.008305 0.009551 0.009109 0.011795 0.006443 0.008465 0.009492 0.009384 0.006073 0.008033 0.009168 0.007003 0.007393 0.006698 0.012737 0.010614 0.007441 0.004988 0.009205 0.011367 0.010468 0.006828 0.006207 0.017008 0.012510 0.013513 0.008257 0.013441 0.008341 0.008615 0.014655 0.009175 0.007947 0.010597 0.009862 0.007574 0.012067 0.007354 0.014350 0.012747 0.014292 0.008071 0.008020 0.011213 0.010879 0.012358 0.009232 0.013441 0.011059 0.015862
冰 -0.002288 0.002047 -0.000819 0.004391 0.004293 0.003438 0.004738 -0.003650 -0.004148 -0.004239 0.001989 0.001374 0.001377 -0.003774 0.001234 -0.003680 -0.001343 -0.004099 -0.002080 -0.001529 0.003912 0.004944 -0.001523 0.003091 0.000827 -0.002707 -0.001674 -0.003608 -0.000501 0.004975 0.002205 0.003306 -0.000464 0.003279 0.001230 0.000658 -0.000158 0.003229 0.001552 -0.001989 0.003984 -0.004435 -0.000832 0.000578 -0.000933 -0.004124 -0.002565 0.001366 -0.002520 -0.002968 -0.000901 0.003153 0.003813 0.004947 0.002720 0.000393 -0.004656 -0.003548 0.003482 -0.002783 -0.000661 -0.003689 0.000581 0.000991 0.004035 -0.000180 0.004775 -0.000620 0.001693 0.003117 -0.004145 0.002122 0.004093 -0.000703 0.000120 0.003929 0.004092 -0.004697 -0.004962 0.000729 0.003807 -0.001616 -0.004783 -0.000603 -0.000148 -0.002134 -0.002778 0.003798 0.002755 -0.002230 -0.000615 -0.001590 0.004722 -0.002870 0.000604 0.002028 -0.004571 -0.004159 0.001230 0.000199 0.015122 0.007614 0.007310 0.007887 0.011986 0.010017 0.011480 0.009423 0.010708 0.009375 0.006323 0.011309 0.011248 0.008029 0.006915 0.014280 0.017429 0.012688 0.009227 0.007301 0.016516 0.006417 0.009700 0.006251 0.007354 0.006102 0.007248 0.012270 0.008464 0.013987 0.014754 0.012161 0.008768 0.008877 0.014672 0.009833 0.010145 0.009315 0.011686 0.006708 0.008660 0.009442 0.005939 0.007277 0.010792 0.011326 0.009712 0.012405 0.008829 0.009500 0.008303 0.009551 0.009107 0.011796 0.006439 0.008466 0.009487 0.009386 0.006069 0.008031 0.009168 0.006999 0.007389 0.006697 0.012740 0.010615 0.007438 0.004985 0.009204 0.011370 0.010473 0.006824 0.006203 0.017016 0.012511 0.013515 0.008255 0.013445 0.008339 0.008613 0.014658 0.009176 0.007945 0.010598 0.009864 0.007573 0.012064 0.007352 0.014358 0.012752 0.014294 0.008070 0.008020 0.011216 0.010881 0.012361 0.009232 0.013442 0.011060 0.015868
发动机 0.002800 0.002761 0.000760 -0.001994 0.002148 -0.004244 0.002062 0.003993 0.002700 -0.002248 0.003722 0.003636 0.000785 -0.003756 0.003538 0.004163 -0.003602 0.002612 0.001905 0.004580 -0.004413 0.002245 0.004319 -0.003407 0.004204 0.003786 -0.001812 0.002182 -0.003329 0.002587 -0.003871 0.004119 -0.003742 -0.002494 0.001822 -0.000232 -0.002865 0.004834 -0.000449 -0.002140 0.001365 0.000351 0.000688 -0.003176 -0.001073 -0.000983 -0.004481 0.004655 0.004213 0.000733 0.004507 0.000149 -0.000915 -0.003722 -0.002335 0.000984 -0.000859 0.001746 -0.003049 -0.001711 0.001554 -0.003160 0.000040 0.003986 0.004672 0.004346 -0.003663 -0.003478 -0.002480 0.004718 -0.000696 0.001582 -0.000520 -0.003715 -0.002209 -0.001874 -0.000136 -0.001991 0.003192 -0.001100 -0.000835 -0.002714 0.003767 0.004420 -0.000005 0.003843 -0.003573 -0.001496 0.000564 0.003944 -0.000642 0.001070 0.000921 0.002807 -0.002685 0.003839 -0.001900 -0.001719 0.004345 0.001340 0.015125 0.007612 0.007309 0.007887 0.011984 0.010016 0.011481 0.009421 0.010709 0.009375 0.006322 0.011312 0.011247 0.008030 0.006912 0.014277 0.017435 0.012685 0.009225 0.007299 0.016519 0.006416 0.009701 0.006250 0.007354 0.006102 0.007248 0.012272 0.008461 0.013990 0.014753 0.012162 0.008768 0.008876 0.014672 0.009833 0.010145 0.009316 0.011688 0.006706 0.008658 0.009444 0.005939 0.007275 0.010793 0.011324 0.009714 0.012409 0.008829 0.009501 0.008305 0.009552 0.009107 0.011796 0.006441 0.008462 0.009488 0.009387 0.006068 0.008031 0.009167 0.006998 0.007388 0.006695 0.012741 0.010614 0.007437 0.004984 0.009206 0.011370 0.010471 0.006822 0.006203 0.017019 0.012509 0.013514 0.008254 0.013443 0.008340 0.008614 0.014659 0.009177 0.007946 0.010601 0.009866 0.007571 0.012068 0.007353 0.014357 0.012754 0.014297 0.008070 0.008018 0.011216 0.010883 0.012359 0.009231 0.013441 0.011058 0.015869
漏 0.001774 0.002324 0.000767 -0.004018 -0.002088 0.004038 0.003476 -0.002460 0.001123 -0.001889 -0.000058 0.004499 -0.004293 -0.004907 0.001320 -0.002028 -0.001052 -0.001507 0.003015 0.002385 -0.000042 0.000898 -0.000772 -0.004901 0.000319 0.002000 0.001629 -0.003561 -0.001791 0.001330 -0.003414 0.003205 -0.000373 -0.003318 0.001056 -0.001529 0.003744 -0.001018 -0.003669 -0.002250 -0.001831 0.001953 -0.003065 0.001234 0.004189 -0.000331 -0.001157 -0.003712 0.003106 -0.001026 -0.001614 0.002509 0.001313 -0.000129 0.001743 -0.003224 0.000010 -0.000398 0.003907 0.003269 0.003188 0.004884 0.001565 -0.000016 -0.004158 0.003524 -0.004487 0.002842 0.000123 -0.004231 0.004186 0.002595 -0.002758 0.003059 0.001998 -0.001869 -0.000067 0.000064 -0.000405 -0.004071 0.004346 -0.003068 -0.004168 -0.001944 0.002394 -0.002944 -0.001483 -0.002878 0.004766 -0.002994 -0.003377 0.003437 -0.000153 -0.002543 -0.003159 0.003829 0.003824 0.003230 0.001641 0.000343 0.015123 0.007616 0.007310 0.007889 0.011986 0.010014 0.011482 0.009422 0.010708 0.009374 0.006323 0.011308 0.011247 0.008030 0.006912 0.014279 0.017434 0.012688 0.009225 0.007299 0.016519 0.006416 0.009702 0.006252 0.007355 0.006103 0.007251 0.012273 0.008461 0.013987 0.014755 0.012159 0.008766 0.008874 0.014674 0.009834 0.010147 0.009312 0.011689 0.006705 0.008657 0.009442 0.005940 0.007276 0.010795 0.011323 0.009713 0.012409 0.008830 0.009497 0.008305 0.009552 0.009107 0.011795 0.006441 0.008463 0.009490 0.009386 0.006069 0.008031 0.009171 0.006998 0.007391 0.006696 0.012739 0.010614 0.007437 0.004985 0.009205 0.011369 0.010471 0.006822 0.006204 0.017016 0.012507 0.013514 0.008254 0.013442 0.008342 0.008614 0.014657 0.009175 0.007946 0.010603 0.009864 0.007573 0.012065 0.007351 0.014355 0.012749 0.014292 0.008072 0.008016 0.011222 0.010884 0.012358 0.009230 0.013442 0.011059 0.015871
油 -0.002185 0.002817 -0.001972 0.002447 -0.003405 0.002215 -0.004440 -0.000931 0.001942 0.004524 0.000521 -0.002145 -0.000937 -0.001007 -0.004728 0.002232 -0.000688 0.004989 -0.003613 -0.003193 -0.002293 0.003504 -0.001639 -0.002836 -0.002567 -0.003092 0.001872 0.001181 -0.000391 0.003365 0.000397 -0.003720 0.002526 -0.003439 0.001416 0.002738 -0.000852 0.002549 0.001275 0.000538 0.003104 -0.003125 -0.001141 0.001262 -0.002618 -0.002973 0.002788 0.004862 0.002282 -0.001402 -0.001871 -0.001334 0.000872 0.000078 0.003340 -0.004277 -0.001337 -0.004950 -0.001505 0.003575 0.004450 -0.001160 -0.000401 0.000233 -0.003845 -0.000027 -0.000146 -0.000730 -0.001171 -0.004886 0.002119 -0.000682 -0.000478 -0.002455 0.004850 0.002533 -0.001723 0.001281 -0.004893 0.001042 -0.004735 0.000110 0.002146 0.003193 0.002517 0.003343 0.000818 -0.002527 -0.002990 -0.002919 -0.001728 -0.000338 -0.000083 0.003538 0.001514 -0.002427 0.003460 -0.001125 -0.002304 0.001710 0.015127 0.007615 0.007308 0.007886 0.011990 0.010016 0.011484 0.009423 0.010707 0.009377 0.006323 0.011309 0.011250 0.008030 0.006910 0.014283 0.017439 0.012693 0.009223 0.007299 0.016527 0.006413 0.009700 0.006250 0.007354 0.006101 0.007247 0.012273 0.008460 0.013989 0.014752 0.012158 0.008765 0.008876 0.014676 0.009832 0.010147 0.009310 0.011690 0.006706 0.008658 0.009443 0.005938 0.007274 0.010792 0.011319 0.009711 0.012407 0.008829 0.009499 0.008302 0.009553 0.009108 0.011793 0.006439 0.008462 0.009489 0.009387 0.006069 0.008027 0.009170 0.006997 0.007388 0.006692 0.012747 0.010615 0.007436 0.004983 0.009208 0.011370 0.010471 0.006821 0.006202 0.017021 0.012510 0.013511 0.008254 0.013443 0.008340 0.008611 0.014660 0.009173 0.007942 0.010597 0.009865 0.007573 0.012067 0.007351 0.014361 0.012752 0.014295 0.008070 0.008017 0.011220 0.010886 0.012360 0.009233 0.013442 0.011057 0.015873
问题 -0.000573 0.000608 0.001147 -0.004849 0.001359 0.003103 0.001922 -0.000790 -0.001768 -0.003158 0.001101 -0.004938 0.004588 0.000809 -0.003463 -0.000799 -0.002076 -0.004703 0.004021 0.001265 0.001555 -0.004590 -0.000448 -0.001142 -0.002251 -0.002282 0.003399 0.001025 -0.002250 0.002969 -0.001057 -0.001319 0.002467 -0.004782 0.002762 0.002793 0.003565 -0.000291 0.000068 -0.002764 0.001058 0.004547 0.000998 0.000594 -0.000654 -0.003280 -0.001531 0.003711 -0.002650 -0.004787 0.002841 -0.001979 -0.002137 0.004513 -0.002539 0.000815 0.003145 0.004779 0.004517 0.000076 -0.003375 -0.001558 -0.001374 0.002905 -0.001160 -0.001699 -0.002679 0.004879 -0.002635 0.002947 -0.002705 0.001309 -0.000107 -0.002266 -0.000505 -0.004311 0.003604 -0.003846 0.004632 0.001064 -0.000287 0.001650 -0.001635 -0.001465 0.000994 -0.000682 -0.000949 -0.002654 -0.003910 -0.003109 0.002289 -0.000225 0.000612 0.001379 -0.003445 -0.003599 -0.002288 -0.001345 0.004982 -0.003535 0.015122 0.007614 0.007309 0.007887 0.011987 0.010016 0.011481 0.009422 0.010709 0.009375 0.006323 0.011312 0.011247 0.008031 0.006913 0.014280 0.017433 0.012689 0.009225 0.007300 0.016521 0.006416 0.009703 0.006252 0.007355 0.006102 0.007251 0.012271 0.008460 0.013988 0.014751 0.012161 0.008768 0.008874 0.014670 0.009834 0.010144 0.009313 0.011688 0.006705 0.008660 0.009443 0.005940 0.007278 0.010795 0.011323 0.009711 0.012407 0.008829 0.009501 0.008304 0.009550 0.009108 0.011795 0.006440 0.008463 0.009490 0.009386 0.006068 0.008031 0.009166 0.006999 0.007390 0.006697 0.012741 0.010614 0.007440 0.004984 0.009206 0.011370 0.010471 0.006823 0.006204 0.017016 0.012509 0.013517 0.008254 0.013444 0.008340 0.008615 0.014656 0.009174 0.007946 0.010601 0.009867 0.007573 0.012064 0.007352 0.014353 0.012748 0.014295 0.008071 0.008017 0.011219 0.010880 0.012360 0.009231 0.013440 0.011059 0.015868
大 0.000384 0.001580 -0.002447 0.003805 -0.000185 0.004039 -0.002799 0.000325 -0.000660 -0.000315 -0.003240 0.001849 -0.002621 -0.003824 -0.000240 0.002187 -0.004586 -0.001562 -0.000417 0.004411 -0.004137 -0.003489 -0.000264 -0.002355 0.000115 -0.000843 0.004351 0.004681 0.000609 -0.003322 -0.002314 0.000211 -0.004866 -0.003020 0.003631 -0.000092 0.002009 -0.001217 -0.001692 0.001466 -0.004885 -0.001971 -0.002432 0.004020 -0.004146 0.000565 0.003473 0.004743 -0.001259 0.002691 0.003818 0.004687 -0.003375 0.001552 0.000214 -0.002389 0.002855 0.000363 0.000762 -0.001076 -0.000267 0.000096 -0.000935 0.001462 -0.003165 0.002710 0.004299 -0.001363 0.004351 -0.003379 -0.000957 0.002593 0.000237 0.003974 0.003367 -0.001296 0.002778 -0.004130 -0.001643 -0.001825 0.003877 -0.001600 -0.001638 -0.002189 0.003562 0.003129 0.001362 -0.004159 -0.004905 0.003608 0.002716 -0.002729 0.001507 0.002202 0.001789 -0.001688 -0.002355 0.002818 0.002733 -0.001422 0.015116 0.007616 0.007312 0.007887 0.011987 0.010018 0.011477 0.009423 0.010710 0.009375 0.006325 0.011308 0.011248 0.008031 0.006916 0.014274 0.017430 0.012684 0.009227 0.007302 0.016520 0.006419 0.009701 0.006254 0.007357 0.006105 0.007252 0.012266 0.008463 0.013984 0.014750 0.012163 0.008770 0.008879 0.014666 0.009832 0.010145 0.009314 0.011688 0.006708 0.008659 0.009444 0.005942 0.007278 0.010791 0.011322 0.009713 0.012406 0.008831 0.009501 0.008305 0.009550 0.009108 0.011798 0.006440 0.008464 0.009490 0.009387 0.006072 0.008034 0.009165 0.007003 0.007392 0.006697 0.012739 0.010615 0.007440 0.004986 0.009206 0.011368 0.010470 0.006825 0.006206 0.017013 0.012508 0.013514 0.008256 0.013441 0.008339 0.008615 0.014653 0.009177 0.007947 0.010601 0.009865 0.007573 0.012066 0.007353 0.014350 0.012748 0.014292 0.008072 0.008020 0.011218 0.010880 0.012362 0.009231 0.013438 0.011059 0.015864
吗 -0.004055 -0.004632 -0.003183 -0.003347 -0.000355 0.003079 -0.001816 -0.004049 0.000754 -0.001125 -0.002864 0.003605 0.004957 -0.000815 -0.001232 0.003932 -0.002926 -0.004452 -0.004455 -0.003715 -0.000137 -0.003865 0.003695 -0.002207 -0.001522 -0.004096 -0.004240 -0.004802 0.003715 -0.002780 0.000539 0.001384 0.002853 -0.000168 0.000790 0.000976 -0.000727 0.000364 0.000027 0.004565 0.000364 -0.003220 0.001896 0.004967 0.002737 -0.004047 -0.002442 -0.000852 -0.000983 -0.003813 -0.000926 0.003837 0.002168 -0.003064 -0.003840 0.000704 0.001846 0.001500 0.001910 -0.001324 0.000519 -0.004657 -0.002850 0.004974 0.003449 -0.001285 -0.000688 -0.004496 -0.003955 -0.003406 -0.004019 0.001986 -0.000359 0.004805 -0.003346 0.004352 -0.004117 0.003580 -0.004237 0.001305 0.001082 -0.002811 -0.004543 -0.000982 -0.001219 0.004211 -0.001598 -0.004755 -0.004955 -0.003252 -0.004383 -0.004546 -0.002711 0.003492 -0.000459 0.000312 0.003770 0.001782 -0.000681 0.000692 0.015120 0.007616 0.007311 0.007889 0.011988 0.010016 0.011483 0.009420 0.010709 0.009374 0.006325 0.011310 0.011248 0.008034 0.006914 0.014274 0.017431 0.012688 0.009229 0.007303 0.016515 0.006417 0.009705 0.006253 0.007357 0.006103 0.007250 0.012271 0.008462 0.013986 0.014748 0.012158 0.008769 0.008877 0.014667 0.009834 0.010149 0.009315 0.011688 0.006710 0.008659 0.009440 0.005941 0.007276 0.010793 0.011320 0.009714 0.012408 0.008832 0.009500 0.008305 0.009553 0.009108 0.011794 0.006440 0.008463 0.009488 0.009387 0.006071 0.008031 0.009167 0.006999 0.007391 0.006698 0.012738 0.010612 0.007441 0.004985 0.009206 0.011365 0.010468 0.006824 0.006204 0.017009 0.012507 0.013512 0.008255 0.013445 0.008341 0.008615 0.014655 0.009178 0.007947 0.010600 0.009863 0.007575 0.012065 0.007353 0.014356 0.012750 0.014295 0.008071 0.008020 0.011217 0.010883 0.012361 0.009234 0.013440 0.011056 0.015868
